svm_type c_svc
kernel_type rbf
gamma 0.166667
nr_class 2
total_sv 27274
rho -32.8344
label -1 1
nr_sv 13643 13631
SV
1 1:0.84214259 2:0.57955875 3:0.70383933 4:0.40138694 5:0.58242529 6:0.63264886 
1 1:0.40700085 2:0.57010494 3:0.5462077 4:0.036395844 5:0.71996574 6:0.52458072 
1 1:0.58337808 2:0.75509117 3:0.75288793 4:0.34535743 5:0.74781098 6:0.55789601 
1 1:0.81968066 2:0.61571331 3:0.61160604 4:0.99785431 5:0.35868687 6:0.83163952 
1 1:0.71132615 2:0.61553913 3:0.37914834 4:0.98109986 5:0.59376656 6:0.62184035 
1 1:0.53235471 2:0.83781233 3:0.62910444 4:0.90582422 5:0.32352384 6:0.59127025 
1 1:0.5139818 2:0.23628019 3:0.61727305 4:0.51363337 5:0.59140011 6:0.79738078 
1 1:0.70583619 2:0.65140398 3:0.20722034 4:0.58620994 5:0.36609524 6:0.71811662 
1 1:0.47243364 2:0.1020961 3:0.35171902 4:0.69046803 5:0.56433741 6:0.7092062 
1 1:0.67270346 2:0.52164583 3:0.29354727 4:0.55643862 5:0.32832468 6:0.70307349 
1 1:0.53795991 2:0.2233277 3:0.64098905 4:0.0444883 5:0.20424236 6:0.34371501 
1 1:0.63590226 2:0.71662163 3:0.42610376 4:0.64133736 5:0.23434541 6:0.86671426 
1 1:0.90500904 2:0.45655744 3:0.48430045 4:0.52709916 5:0.66161485 6:0.6376999 
1 1:0.69096513 2:0.60497229 3:0.81306495 4:0.23428577 5:0.41450001 6:0.81594792 
1 1:0.75918497 2:0.43674474 3:0.21667953 4:0.73635911 5:0.6230956 6:0.46287972 
1 1:0.74807578 2:0.39171683 3:0.39182542 4:0.6350045 5:0.77106134 6:0.94652532 
1 1:0.71814347 2:0.54758176 3:0.24643071 4:0.23329714 5:0.44880352 6:0.48064848 
1 1:0.53300071 2:0.67945662 3:0.46864841 4:0.76081484 5:0.032671354 6:0.77806152 
1 1:0.63068773 2:0.44275708 3:0.56351954 4:0.218973 5:0.84123068 6:0.15081728 
1 1:0.42734548 2:0.76434445 3:0.34290141 4:0.70538075 5:0.38611131 6:0.46951192 
1 1:0.66146787 2:0.20706684 3:0.26389539 4:0.70421003 5:0.79504464 6:0.44767063 
1 1:0.70723408 2:0.57780673 3:0.74829508 4:0.42802092 5:0.13949979 6:0.34208115 
1 1:0.6097356 2:0.16781042 3:0.59761694 4:0.1112907 5:0.67865457 6:0.89747445 
1 1:0.2142905 2:0.65692836 3:0.64117116 4:0.61628573 5:0.69124847 6:0.44047345 
1 1:0.60325094 2:0.13201353 3:0.57900971 4:0.14790874 5:0.61192422 6:0.54057117 
1 1:0.43659107 2:0.59532182 3:0.13435737 4:0.52695794 5:0.29318406 6:0.33016936 
1 1:0.39993283 2:0.66929643 3:0.6179182 4:0.090590874 5:0.64519144 6:0.91982603 
1 1:0.54522611 2:0.14460444 3:0.53170949 4:0.83178632 5:0.36407331 6:0.6465771 
1 1:0.42961145 2:0.44735232 3:0.48393112 4:0.24242694 5:0.14498285 6:0.50309197 
1 1:0.39021384 2:0.3475962 3:0.1960467 4:0.56179258 5:0.637514 6:0.17377627 
1 1:0.37249792 2:0.82090188 3:0.33417085 4:0.3231546 5:0.40030442 6:0.91101111 
1 1:0.24284627 2:0.42325568 3:0.20783584 4:0.80678324 5:0.34839603 6:0.14030868 
1 1:0.80049182 2:0.38451909 3:0.47355558 4:0.24879929 5:0.80746337 6:0.98603654 
1 1:0.27298434 2:0.24390021 3:0.2982096 4:0.26815256 5:0.43128503 6:0.98272147 
1 1:0.41904921 2:0.83555274 3:0.68647883 4:0.26588396 5:0.75140299 6:0.37680125 
1 1:0.60744921 2:0.11075077 3:0.45052485 4:0.42396282 5:0.66459017 6:0.68393705 
1 1:0.55302526 2:0.84827901 3:0.65301578 4:0.38339263 5:0.47968156 6:0.72153731 
1 1:0.52031678 2:0.15862554 3:0.53668072 4:0.67909506 5:0.76967694 6:0.072199791 
1 1:0.26881334 2:0.21174838 3:0.49320256 4:0.92698518 5:0.75823358 6:0.79258588 
1 1:0.41300755 2:0.68251367 3:0.82966928 4:0.79110589 5:0.66139385 6:0.61049348 
1 1:0.7318839 2:0.26188951 3:0.46277245 4:0.49043003 5:0.6233434 6:0.98182316 
1 1:0.66051685 2:0.34293256 3:0.26723451 4:0.05544763 5:0.46202034 6:0.43937883 
1 1:0.7666215 2:0.40273194 3:0.2047334 4:0.20371731 5:0.47724103 6:0.69676864 
1 1:0.84610647 2:0.62078324 3:0.49296886 4:0.77567403 5:0.41560688 6:0.78767502 
1 1:0.78744436 2:0.69234508 3:0.49919268 4:0.58042761 5:0.54752316 6:0.55382221 
1 1:0.35560595 2:0.57142776 3:0.41032368 4:0.69322212 5:0.52021762 6:0.85841381 
1 1:0.56883143 2:0.77412309 3:0.54104317 4:0.30235168 5:0.87586158 6:0.72358867 
1 1:0.75250949 2:0.73208609 3:0.3475199 4:0.00089007722 5:0.06104227 6:0.71423807 
1 1:0.24228787 2:0.38301994 3:0.74873335 4:0.095024249 5:0.31589474 6:0.5412275 
1 1:0.7289298 2:0.65690575 3:0.22821088 4:0.69802686 5:0.32551565 6:0.9801002 
1 1:0.3253607 2:0.56056814 3:0.6273791 4:0.75526203 5:0.43248949 6:0.60811157 
1 1:0.35253271 2:0.31559334 3:0.36947583 4:0.92377012 5:0.20682573 6:0.41181725 
1 1:0.52673605 2:0.41413069 3:0.11639303 4:0.19511299 5:0.57215269 6:0.83471629 
1 1:0.43569194 2:0.1656798 3:0.36530029 4:0.18131037 5:0.35283931 6:0.43658344 
1 1:0.83607891 2:0.58613665 3:0.39785523 4:0.3514495 5:0.44594276 6:0.29203953 
1 1:0.72479823 2:0.731466 3:0.32770344 4:0.65249954 5:0.69363708 6:0.30473282 
1 1:0.19470146 2:0.33313721 3:0.68834405 4:0.88862554 5:0.76161311 6:0.66658777 
1 1:0.71821294 2:0.31343933 3:0.71260995 4:0.57484752 5:0.44881985 6:0.55179996 
1 1:0.32720919 2:0.52157758 3:0.26977921 4:0.82367111 5:0.78408099 6:0.35441718 
1 1:0.37669892 2:0.29548806 3:0.24574392 4:0.43405265 5:0.1427867 6:0.46515423 
1 1:0.58736448 2:0.75452902 3:0.64371903 4:0.88764352 5:0.54577619 6:0.80244887 
1 1:0.45264305 2:0.71263315 3:0.53124151 4:0.57185611 5:0.73818452 6:0.98047381 
1 1:0.27683711 2:0.46240616 3:0.31868525 4:0.1225732 5:0.44416283 6:0.56125561 
1 1:0.68704671 2:0.46092565 3:0.31791434 4:0.34349148 5:0.16429585 6:0.84037951 
1 1:0.15696234 2:0.47044121 3:0.5572187 4:0.83663968 5:0.29424347 6:0.85525391 
1 1:0.31608243 2:0.59332054 3:0.36860639 4:0.77250366 5:0.3327293 6:0.28314287 
1 1:0.64781465 2:0.66735989 3:0.33657222 4:0.83450341 5:0.13770375 6:0.013524542 
1 1:0.48257507 2:0.68246483 3:0.29858084 4:0.63647813 5:0.6001506 6:0.86466989 
1 1:0.452014 2:0.62409783 3:0.59035981 4:0.52815714 5:0.30030034 6:0.110912 
1 1:0.75962022 2:0.35527394 3:0.29200523 4:0.65144213 5:0.98243279 6:0.64137129 
1 1:0.14634054 2:0.46343081 3:0.41486465 4:0.59527996 5:0.14252779 6:0.57949306 
1 1:0.23290302 2:0.67130495 3:0.36340866 4:0.4268886 5:0.8021232 6:0.46557115 
1 1:0.29782469 2:0.76415204 3:0.30483333 4:0.63298498 5:0.50448561 6:0.38640015 
1 1:0.70849225 2:0.68341478 3:0.59648703 4:0.62791809 5:0.70252041 6:0.74003666 
1 1:0.51671932 2:0.77474942 3:0.66508675 4:0.1023213 5:0.53095852 6:0.9612696 
1 1:0.29768202 2:0.79081273 3:0.55810815 4:0.020602192 5:0.87510605 6:0.48526173 
1 1:0.44689013 2:0.72646685 3:0.79861762 4:0.04270142 5:0.54083522 6:0.83962295 
1 1:0.59917595 2:0.64081703 3:0.62406513 4:0.90089592 5:0.78915959 6:0.49279273 
1 1:0.36428234 2:0.34034311 3:0.33714996 4:0.34252401 5:0.76475552 6:0.67628272 
1 1:0.58691301 2:0.61348948 3:0.80760665 4:0.36480003 5:0.30954428 6:0.55442304 
1 1:0.29027018 2:0.44246093 3:0.58310445 4:0.29157999 5:0.15006568 6:0.57285834 
1 1:0.76212937 2:0.50901717 3:0.1885215 4:0.71958382 5:0.34595569 6:0.91045131 
1 1:0.39757318 2:0.41354542 3:0.30374916 4:0.58424556 5:0.56154699 6:0.87649357 
1 1:0.15915706 2:0.41588908 3:0.29958928 4:0.30674521 5:0.43824884 6:0.50142552 
1 1:0.59886605 2:0.64718926 3:0.29884889 4:0.076658274 5:0.43470001 6:0.60848702 
1 1:0.22642307 2:0.30025774 3:0.67603688 4:0.42845556 5:0.42314376 6:0.0073445928 
1 1:0.6589548 2:0.5012029 3:0.68629784 4:0.78475721 5:0.14925816 6:0.42827282 
1 1:0.5501159 2:0.22352727 3:0.20897019 4:0.29365903 5:0.30939019 6:0.51283283 
1 1:0.58972717 2:0.41828119 3:0.81846382 4:0.13172576 5:0.77614805 6:0.56420694 
1 1:0.31666692 2:0.67926448 3:0.2553366 4:0.90911086 5:0.33377235 6:0.76920005 
1 1:0.84692713 2:0.35196123 3:0.36391842 4:0.50911814 5:0.71516653 6:0.10578319 
1 1:0.31340612 2:0.55583576 3:0.51983879 4:0.16636126 5:0.95381077 6:0.52838734 
1 1:0.35755404 2:0.45857485 3:0.7830759 4:0.69908361 5:0.54067811 6:0.13787003 
1 1:0.16290286 2:0.41337987 3:0.29280803 4:0.18573089 5:0.18998553 6:0.78182753 
1 1:0.43480506 2:0.27092235 3:0.41310236 4:0.45151977 5:0.87660398 6:0.067897655 
1 1:0.52439658 2:0.81836997 3:0.48465686 4:0.10821633 5:0.53967339 6:0.1528932 
1 1:0.71095548 2:0.41399553 3:0.42655145 4:0.8441143 5:0.6924928 6:0.74062686 
1 1:0.54535313 2:0.45930195 3:0.26183942 4:0.64934683 5:0.37025459 6:0.68773765 
1 1:0.41522025 2:0.8105854 3:0.57457153 4:0.71987095 5:0.76166026 6:0.19562708 
1 1:0.61444596 2:0.75433195 3:0.23182834 4:0.9482559 5:0.4655548 6:0.4289066 
1 1:0.65423135 2:0.40833804 3:0.87397906 4:0.87453977 5:0.86720892 6:0.35722068 
1 1:0.71036754 2:0.47696436 3:0.82500999 4:0.089653329 5:0.34948636 6:0.14279937 
1 1:0.62492701 2:0.46229091 3:0.8701046 4:0.80285007 5:0.32558589 6:0.87636456 
1 1:0.55732688 2:0.5518431 3:0.21832537 4:0.86231354 5:0.30735959 6:0.60748158 
1 1:0.64301284 2:0.49448046 3:0.18780637 4:0.78771304 5:0.52291316 6:0.03708249 
1 1:0.29804948 2:0.71617127 3:0.69990238 4:0.13713669 5:0.7127758 6:0.024167202 
1 1:0.47526887 2:0.78173279 3:0.68175771 4:0.87688866 5:0.4073596 6:0.80470403 
1 1:0.83736261 2:0.51154439 3:0.28648338 4:0.96553695 5:0.26633728 6:0.81599837 
1 1:0.16631509 2:0.51213236 3:0.72991987 4:0.97308936 5:0.73119094 6:0.35706194 
1 1:0.69974359 2:0.3084708 3:0.59779065 4:0.64739901 5:0.6058828 6:0.4885576 
1 1:0.65387519 2:0.68540253 3:0.25666925 4:0.37894045 5:0.32562822 6:0.50831884 
1 1:0.38468918 2:0.5056121 3:0.81892451 4:0.21821465 5:0.21682987 6:0.34463196 
1 1:0.66784798 2:0.50324938 3:0.22794584 4:0.079599471 5:0.64171568 6:0.38092422 
1 1:0.31591708 2:0.56850719 3:0.32129497 4:0.057468269 5:0.57164669 6:0.58108313 
1 1:0.51799672 2:0.43697808 3:0.11996813 4:0.20892663 5:0.41477769 6:0.35768655 
1 1:0.41477301 2:0.61899831 3:0.8319943 4:0.19031833 5:0.54815797 6:0.8594547 
1 1:0.67489853 2:0.48882247 3:0.65816414 4:0.77594466 5:0.34696999 6:0.32949471 
1 1:0.88146241 2:0.60886801 3:0.40621509 4:0.8541247 5:0.37809876 6:0.24862663 
1 1:0.57621023 2:0.37743503 3:0.28399564 4:0.012542882 5:0.50669759 6:0.39528264 
1 1:0.22615793 2:0.71629123 3:0.62067908 4:0.55311411 5:0.2583999 6:0.3524732 
1 1:0.34618977 2:0.30869351 3:0.74948908 4:0.34942286 5:0.38095642 6:0.77049857 
1 1:0.24803617 2:0.57765753 3:0.45500051 4:0.35420454 5:0.82938209 6:0.19203595 
1 1:0.82087589 2:0.52112443 3:0.63723743 4:0.59342042 5:0.63847094 6:0.42063935 
1 1:0.35523875 2:0.71510566 3:0.74211565 4:0.39492867 5:0.30153377 6:0.21675664 
1 1:0.69293285 2:0.43089535 3:0.21885086 4:0.73419936 5:0.71787831 6:0.6682328 
1 1:0.1654709 2:0.30855512 3:0.4396921 4:0.2629383 5:0.3296014 6:0.66916436 
1 1:0.20696019 2:0.36398202 3:0.7268071 4:0.1495306 5:0.63422718 6:0.65054458 
1 1:0.55458597 2:0.5963987 3:0.89765896 4:0.5210149 5:0.48743772 6:0.42153477 
1 1:0.82242296 2:0.38376615 3:0.38145678 4:0.10848783 5:0.43272293 6:0.38090122 
1 1:0.31511671 2:0.7776388 3:0.59970227 4:0.11910284 5:0.34185789 6:0.0082004318 
1 1:0.50226986 2:0.36171269 3:0.88939217 4:0.80297593 5:0.6758441 6:0.23885875 
1 1:0.6540878 2:0.28144563 3:0.43418919 4:0.060091091 5:0.15982172 6:0.93907361 
1 1:0.26124528 2:0.63742927 3:0.58134971 4:0.58190224 5:0.16354284 6:0.1637731 
1 1:0.26309456 2:0.43156618 3:0.78417459 4:0.57145472 5:0.27559977 6:0.22680302 
1 1:0.14832807 2:0.44924339 3:0.39376479 4:0.38570077 5:0.76560451 6:0.69175279 
1 1:0.23814489 2:0.7134877 3:0.72166181 4:0.15970013 5:0.62613607 6:0.5884386 
1 1:0.34659927 2:0.25243034 3:0.57440918 4:0.49857248 5:0.65433807 6:0.048314967 
1 1:0.45349162 2:0.11399974 3:0.42837266 4:0.79657029 5:0.75468158 6:0.71478377 
1 1:0.48744446 2:0.82312291 3:0.29169275 4:0.25786299 5:0.22655706 6:0.10269435 
1 1:0.53156864 2:0.52007165 3:0.12423309 4:0.58292353 5:0.24523022 6:0.86525149 
1 1:0.82844274 2:0.48022507 3:0.3608365 4:0.92183242 5:0.2212109 6:0.89776627 
1 1:0.54449076 2:0.35176461 3:0.33485152 4:0.60217743 5:0.67782061 6:0.5840934 
1 1:0.20968769 2:0.46816527 3:0.62311677 4:0.01032123 5:0.61988838 6:0.78221419 
1 1:0.5924189 2:0.77202383 3:0.4982035 4:0.86731618 5:0.83421884 6:0.052017693 
1 1:0.27321884 2:0.30201919 3:0.29936998 4:0.33713816 5:0.31023878 6:0.98014379 
1 1:0.46342167 2:0.45037538 3:0.7117751 4:0.43672489 5:0.66699123 6:0.39261518 
1 1:0.23597174 2:0.69043303 3:0.71928044 4:0.56705395 5:0.86048629 6:0.5489254 
1 1:0.23111141 2:0.71685352 3:0.71088494 4:0.36431828 5:0.49427097 6:0.89681652 
1 1:0.41091783 2:0.53347326 3:0.1776215 4:0.0230009 5:0.74786307 6:0.29813576 
1 1:0.51849557 2:0.19961072 3:0.5255471 4:0.050230386 5:0.41114073 6:0.38694329 
1 1:0.545734 2:0.66816464 3:0.14004265 4:0.13875679 5:0.32470307 6:0.19225947 
1 1:0.53460219 2:0.3393211 3:0.24662258 4:0.16720708 5:0.37892849 6:0.21097815 
1 1:0.50454699 2:0.54736848 3:0.85944215 4:0.3515422 5:0.54584572 6:0.26436112 
1 1:0.85213 2:0.5596477 3:0.41231191 4:0.28586665 5:0.4781991 6:0.58362143 
1 1:0.30415792 2:0.63005798 3:0.21380012 4:0.43777829 5:0.32655024 6:0.77794236 
1 1:0.46015499 2:0.42842403 3:0.85752065 4:0.75165319 5:0.38513645 6:0.65517027 
1 1:0.11604434 2:0.35330652 3:0.43763244 4:0.31797064 5:0.53820863 6:0.79027379 
1 1:0.69797132 2:0.29053929 3:0.79301182 4:0.44561638 5:0.84433307 6:0.6864294 
1 1:0.31674555 2:0.50294454 3:0.16519648 4:0.12946277 5:0.30861225 6:0.9799166 
1 1:0.32049661 2:0.47902501 3:0.6491366 4:0.73855229 5:0.70828688 6:0.5920027 
1 1:0.25158809 2:0.6119525 3:0.26326805 4:0.82669288 5:0.78487359 6:0.7236001 
1 1:0.74115148 2:0.74563354 3:0.40609565 4:0.32995171 5:0.23042277 6:0.00073014766 
1 1:0.48831957 2:0.1988914 3:0.2694533 4:0.66600063 5:0.17052297 6:0.83510463 
1 1:0.39161999 2:0.69569055 3:0.38523436 4:0.26273091 5:0.64899814 6:0.62224757 
1 1:0.71522237 2:0.6110938 3:0.17794094 4:0.59088665 5:0.64790431 6:0.16587961 
1 1:0.55525683 2:0.81728667 3:0.35075048 4:0.3409578 5:0.5961739 6:0.43701581 
1 1:0.61573476 2:0.42871284 3:0.46452811 4:0.20164321 5:0.80645687 6:0.89060319 
1 1:0.19009397 2:0.71797825 3:0.43754835 4:0.055803977 5:0.32506045 6:0.36715209 
1 1:0.28237216 2:0.28042523 3:0.55437703 4:0.97307051 5:0.75734592 6:0.98167283 
1 1:0.21255448 2:0.7480593 3:0.48277449 4:0.66620507 5:0.28091513 6:0.53091616 
1 1:0.26963136 2:0.35151483 3:0.56237134 4:0.57220922 5:0.18908975 6:0.9210742 
1 1:0.26767025 2:0.31326111 3:0.71974802 4:0.28274698 5:0.6063401 6:0.13555905 
1 1:0.32836754 2:0.26948655 3:0.3249657 4:0.45661739 5:0.24824893 6:0.097505596 
0.9149906966806691 1:0.59094599 2:0.51250391 3:0.8843573 4:0.087024975 5:0.33110038 6:0.9946098 
1 1:0.39950614 2:0.42228195 3:0.17185347 4:0.58164319 5:0.7827712 6:0.90387737 
1 1:0.42509074 2:0.54423921 3:0.72039155 4:0.95185345 5:0.5307026 6:0.1718741 
1 1:0.69142619 2:0.23507732 3:0.52896178 4:0.30975243 5:0.55104514 6:0.74420629 
1 1:0.49634192 2:0.73280896 3:0.23040497 4:0.41664088 5:0.77253262 6:0.33080878 
1 1:0.43258157 2:0.46818634 3:0.88962811 4:0.46781684 5:0.67175149 6:0.43347493 
1 1:0.76145856 2:0.58386156 3:0.81511462 4:0.670888 5:0.56658326 6:0.54040589 
1 1:0.84037093 2:0.42003048 3:0.58749298 4:0.26377994 5:0.73643624 6:0.37965451 
1 1:0.58246022 2:0.36969995 3:0.73055974 4:0.5272476 5:0.69689434 6:0.82941327 
1 1:0.57525528 2:0.74761461 3:0.39801759 4:0.43751272 5:0.29142429 6:0.91744839 
1 1:0.096262561 2:0.42458245 3:0.54382296 4:0.73796315 5:0.51452886 6:0.12917555 
1 1:0.45456077 2:0.56661431 3:0.8068723 4:0.86729768 5:0.48259301 6:0.73010407 
1 1:0.12625371 2:0.4196748 3:0.50412085 4:0.98246149 5:0.34020002 6:0.13392605 
1 1:0.5454596 2:0.38849943 3:0.18290623 4:0.52169062 5:0.61506391 6:0.74981609 
1 1:0.63254531 2:0.48142755 3:0.56638832 4:0.24099509 5:0.2367255 6:0.15589673 
1 1:0.54146556 2:0.68967931 3:0.64075366 4:0.77480292 5:0.67483844 6:0.22520707 
1 1:0.58818797 2:0.61649066 3:0.80894037 4:0.91227792 5:0.76546382 6:0.81923318 
1 1:0.74011342 2:0.21965818 3:0.52643196 4:0.90930733 5:0.2557293 6:0.67883797 
1 1:0.31871334 2:0.62907504 3:0.55779203 4:0.71494577 5:0.52782993 6:0.51918815 
1 1:0.56511718 2:0.29459549 3:0.1755692 4:0.57385503 5:0.31191672 6:0.73212317 
1 1:0.62779794 2:0.54865679 3:0.68752701 4:0.33236968 5:0.74534022 6:0.12950927 
1 1:0.41574435 2:0.70944488 3:0.5775695 4:0.63809268 5:0.56533854 6:0.019220064 
1 1:0.74066521 2:0.75399398 3:0.56532487 4:0.82341799 5:0.34307922 6:0.88513811 
1 1:0.5184272 2:0.63150652 3:0.3688855 4:0.96952738 5:0.6616228 6:0.63914062 
1 1:0.37645152 2:0.64093781 3:0.69502329 4:0.59480828 5:0.24002436 6:0.099084391 
1 1:0.44608441 2:0.13998429 3:0.4304369 4:0.59913013 5:0.85989486 6:0.067070986 
1 1:0.39154454 2:0.53080768 3:0.15458517 4:0.40535139 5:0.82384277 6:0.76029122 
1 1:0.53855972 2:0.61546878 3:0.85628008 4:0.32645166 5:0.64122906 6:0.11074561 
1 1:0.56880217 2:0.77480575 3:0.59115959 4:0.92058465 5:0.62250311 6:0.93715061 
1 1:0.60771034 2:0.70897851 3:0.77443492 4:0.48348193 5:0.31794654 6:0.55709197 
1 1:0.51262641 2:0.7441576 3:0.58190528 4:0.17709851 5:0.95441244 6:0.24880218 
1 1:0.53654148 2:0.34486602 3:0.45321343 4:0.059796147 5:0.82151155 6:0.53650065 
1 1:0.44250679 2:0.49986574 3:0.73549401 4:0.67550688 5:0.46777803 6:0.21965805 
1 1:0.84216717 2:0.62597543 3:0.50007031 4:0.32742029 5:0.13977234 6:0.25166979 
1 1:0.69016084 2:0.6896884 3:0.57042064 4:0.43838335 5:0.82941106 6:0.01810375 
1 1:0.4639996 2:0.74989221 3:0.497458 4:0.51424497 5:0.2363279 6:0.43228728 
1 1:0.91496648 2:0.50024335 3:0.49648849 4:0.77958699 5:0.70430541 6:0.24981607 
1 1:0.44141296 2:0.2452365 3:0.17985402 4:0.79705361 5:0.44023205 6:0.23290909 
1 1:0.38481394 2:0.68815234 3:0.32841848 4:0.46790116 5:0.49051453 6:0.43591627 
1 1:0.64853703 2:0.18930507 3:0.6146437 4:0.90800096 5:0.92096804 6:0.56190997 
1 1:0.2857959 2:0.54999055 3:0.19082336 4:0.69712613 5:0.43505806 6:0.77208458 
1 1:0.71418829 2:0.36532593 3:0.80290004 4:0.750778 5:0.52017733 6:0.83910295 
1 1:0.41258108 2:0.84553847 3:0.42445858 4:0.40010164 5:0.53852404 6:0.071595924 
1 1:0.41423924 2:0.53994229 3:0.85850809 4:0.9770509 5:0.3205541 6:0.74883136 
1 1:0.53985841 2:0.50227208 3:0.8062915 4:0.85816906 5:0.51159643 6:0.19751122 
1 1:0.3036058 2:0.3674123 3:0.31709111 4:0.79498201 5:0.54559306 6:0.4459142 
1 1:0.73044151 2:0.43814526 3:0.49665469 4:0.41836219 5:0.71811133 6:0.65828245 
1 1:0.45154513 2:0.50906266 3:0.24204543 4:0.3450042 5:0.89535651 6:0.15320439 
1 1:0.35634489 2:0.21628526 3:0.29853869 4:0.41912109 5:0.6634668 6:0.66683472 
1 1:0.73337241 2:0.51310326 3:0.71966346 4:0.85665457 5:0.056911032 6:0.28459443 
1 1:0.54903443 2:0.29251662 3:0.75797579 4:0.53079687 5:0.59773619 6:0.53860024 
1 1:0.1821284 2:0.62162337 3:0.68018967 4:0.22064871 5:0.78887494 6:0.053278248 
1 1:0.59379584 2:0.26072576 3:0.23800598 4:0.60093978 5:0.50725815 6:0.20642758 
1 1:0.39891376 2:0.77523119 3:0.46072028 4:0.94481411 5:0.46197107 6:0.62674651 
1 1:0.54417503 2:0.57087728 3:0.13035805 4:0.95023517 5:0.5752331 6:0.29296273 
1 1:0.48804132 2:0.35198928 3:0.216749 4:0.052309624 5:0.6655042 6:0.94088118 
1 1:0.53225308 2:0.15261065 3:0.61057367 4:0.10615645 5:0.49532611 6:0.72941236 
1 1:0.87836691 2:0.4674289 3:0.50634665 4:0.46731527 5:0.57558448 6:0.80533698 
1 1:0.37468247 2:0.26108015 3:0.23997619 4:0.32750311 5:0.42906963 6:0.52333297 
1 1:0.27156127 2:0.41654212 3:0.18417732 4:0.43407844 5:0.70390157 6:0.65079879 
1 1:0.45655325 2:0.13551944 3:0.67567613 4:0.29737062 5:0.61033016 6:0.34791026 
1 1:0.72796689 2:0.21446306 3:0.52972945 4:0.66929693 5:0.31841441 6:0.52905576 
1 1:0.53371738 2:0.85156426 3:0.67958999 4:0.31685675 5:0.38829005 6:0.17236096 
1 1:0.58144206 2:0.60855137 3:0.52665497 4:0.30065685 5:0.32131679 6:0.1588915 
1 1:0.75802276 2:0.5406147 3:0.25583139 4:0.50981979 5:0.23781767 6:0.23026118 
1 1:0.71369993 2:0.50530451 3:0.67902897 4:0.19106593 5:0.38124891 6:0.69157314 
1 1:0.37934764 2:0.24823337 3:0.29145054 4:0.5096686 5:0.65851276 6:0.75840749 
1 1:0.50241015 2:0.17324079 3:0.36355916 4:0.44753681 5:0.54847552 6:0.91181972 
1 1:0.5965456 2:0.22143073 3:0.37259063 4:0.034083975 5:0.40304511 6:0.86761252 
1 1:0.56882932 2:0.27593491 3:0.76372399 4:0.8588414 5:0.70056909 6:0.95147742 
1 1:0.45918479 2:0.80917693 3:0.62686677 4:0.054453131 5:0.84238407 6:0.77612365 
1 1:0.25177727 2:0.36370977 3:0.3476662 4:0.72154129 5:0.74834207 6:0.53611552 
1 1:0.12452532 2:0.53339657 3:0.6796406 4:0.44190049 5:0.61437519 6:0.46891523 
1 1:0.39825682 2:0.57003833 3:0.14356736 4:0.11129743 5:0.5896967 6:0.39851189 
1 1:0.67198238 2:0.46070816 3:0.4421645 4:0.036651975 5:0.94518234 6:0.77453055 
1 1:0.47181176 2:0.4364059 3:0.71469475 4:0.96645858 5:0.72312923 6:0.17297875 
1 1:0.62276001 2:0.16787686 3:0.39917734 4:0.41614003 5:0.54018297 6:0.17364991 
1 1:0.51746703 2:0.22326921 3:0.47380152 4:0.91399372 5:0.24810004 6:0.087763947 
1 1:0.58566691 2:0.44617234 3:0.12730457 4:0.082321435 5:0.51869457 6:0.30644069 
1 1:0.65772598 2:0.1809824 3:0.32881928 4:0.25746111 5:0.55256339 6:0.26878516 
1 1:0.50006218 2:0.1908508 3:0.59432581 4:0.66503956 5:0.19057958 6:0.84413168 
1 1:0.47182042 2:0.1402292 3:0.473651 4:0.34003554 5:0.38220695 6:0.2678662 
1 1:0.65490123 2:0.37301932 3:0.7612012 4:0.33460664 5:0.13028872 6:0.31232618 
1 1:0.47193004 2:0.15967707 3:0.62083949 4:0.9968874 5:0.68077456 6:0.38405939 
1 1:0.34114063 2:0.22112683 3:0.65143355 4:0.069257401 5:0.65639115 6:0.1040498 
1 1:0.84378816 2:0.60099773 3:0.4400251 4:0.98167581 5:0.71317498 6:0.64410818 
1 1:0.28504695 2:0.27019511 3:0.77075409 4:0.90570537 5:0.6011887 6:0.3454809 
1 1:0.31929819 2:0.34462983 3:0.36214662 4:0.11525176 5:0.51863931 6:0.14239444 
1 1:0.53823112 2:0.4244652 3:0.42389796 4:0.68478687 5:0.3918338 6:0.66394773 
1 1:0.6223355 2:0.77123156 3:0.56848268 4:0.59159332 5:0.34324617 6:0.3378183 
1 1:0.42099604 2:0.38738926 3:0.50690887 4:0.77692708 5:0.50517892 6:0.055005296 
1 1:0.41197945 2:0.16268125 3:0.44286307 4:0.50235965 5:0.36536085 6:0.070226048 
1 1:0.76813721 2:0.38201191 3:0.7237864 4:0.13571956 5:0.66519723 6:0.11305601 
1 1:0.45674585 2:0.21906247 3:0.68948112 4:0.43572567 5:0.62561161 6:0.27756412 
1 1:0.8267302 2:0.64086791 3:0.57669456 4:0.83660179 5:0.62255775 6:0.90657504 
1 1:0.65883502 2:0.48991829 3:0.25019983 4:0.068519931 5:0.59806239 6:0.8664099 
1 1:0.31505903 2:0.37220081 3:0.618204 4:0.34882206 5:0.35048978 6:0.37118097 
1 1:0.57488865 2:0.69024765 3:0.2802013 4:0.83654834 5:0.26754459 6:0.30553931 
1 1:0.44684325 2:0.81580782 3:0.71444596 4:0.51726783 5:0.53320061 6:0.64134106 
1 1:0.7258798 2:0.52228242 3:0.47226245 4:0.7725451 5:0.046696373 6:0.49518826 
1 1:0.79418788 2:0.61977268 3:0.33333611 4:0.83879449 5:0.79445303 6:0.11677149 
1 1:0.52787755 2:0.43624488 3:0.62529059 4:0.35937763 5:0.60965615 6:0.3267265 
1 1:0.19135921 2:0.29475308 3:0.3630608 4:0.69330511 5:0.70392053 6:0.091648458 
1 1:0.55160194 2:0.42518624 3:0.14795609 4:0.0015040493 5:0.60482116 6:0.16013335 
1 1:0.53795723 2:0.70883216 3:0.20617009 4:0.43611597 5:0.69351877 6:0.93337407 
1 1:0.13816503 2:0.43650297 3:0.63905179 4:0.5769323 5:0.59188215 6:0.77811106 
1 1:0.60595265 2:0.47712258 3:0.90344134 4:0.26381545 5:0.41288783 6:0.47951787 
1 1:0.53121836 2:0.67973532 3:0.18493386 4:0.29791447 5:0.1638797 6:0.94831369 
1 1:0.6294887 2:0.63045725 3:0.83418241 4:0.074962807 5:0.46896751 6:0.36515757 
1 1:0.4073324 2:0.69493297 3:0.31242528 4:0.65879503 5:0.57048479 6:0.87813779 
1 1:0.61898938 2:0.78188223 3:0.42377797 4:0.30884091 5:0.83306021 6:0.42173441 
1 1:0.72606542 2:0.53384159 3:0.14409144 4:0.86170984 5:0.35948069 6:0.62813851 
1 1:0.84217496 2:0.41087567 3:0.3448288 4:0.53630586 5:0.51399928 6:0.017133534 
1 1:0.30652504 2:0.65872969 3:0.79566323 4:0.81247976 5:0.29928764 6:0.59791963 
1 1:0.56131854 2:0.73047129 3:0.72767103 4:0.6522077 5:0.59521036 6:0.72955234 
1 1:0.17668229 2:0.28686142 3:0.39453439 4:0.71796102 5:0.56700265 6:0.91818446 
1 1:0.35450925 2:0.34611163 3:0.28534857 4:0.047075422 5:0.25721793 6:0.88885159 
1 1:0.58464454 2:0.64889455 3:0.16643946 4:0.66942444 5:0.58952979 6:0.82366205 
1 1:0.8773614 2:0.38854036 3:0.46781127 4:0.73398816 5:0.29928741 6:0.41764449 
1 1:0.90472094 2:0.57413457 3:0.53790944 4:0.8386324 5:0.56939802 6:0.71665583 
1 1:0.25842929 2:0.32757748 3:0.25266066 4:0.78249156 5:0.65502649 6:0.86781847 
1 1:0.68977031 2:0.56564821 3:0.35899413 4:0.91198064 5:0.27084123 6:0.56047717 
1 1:0.63177757 2:0.71825134 3:0.75616734 4:0.12938132 5:0.57294173 6:0.32861956 
1 1:0.24109257 2:0.41384929 3:0.65621648 4:0.68086953 5:0.28529294 6:0.2361331 
1 1:0.6508686 2:0.56534568 3:0.71522383 4:0.50045347 5:0.81759355 6:0.12312637 
1 1:0.43054293 2:0.62684566 3:0.87657872 4:0.83811725 5:0.59216545 6:0.081773209 
1 1:0.25570381 2:0.53311709 3:0.57945624 4:0.58578608 5:0.77112047 6:0.4285137 
0.9435922967795372 1:0.75457245 2:0.74944291 3:0.70166162 4:0.081797313 5:0.36529293 6:0.96710866 
1 1:0.38774809 2:0.20492646 3:0.68991237 4:0.81901612 5:0.16917678 6:0.20912545 
1 1:0.57631204 2:0.70860997 3:0.3013811 4:0.91309637 5:0.4103613 6:0.26126466 
1 1:0.72668657 2:0.38396353 3:0.31129967 4:0.66216014 5:0.57840521 6:0.001297019 
1 1:0.682423 2:0.53869338 3:0.65428975 4:0.31130474 5:0.48101636 6:0.53886149 
1 1:0.61126208 2:0.33720569 3:0.45388055 4:0.013167932 5:0.58280019 6:0.017680182 
1 1:0.87230874 2:0.4264573 3:0.52103606 4:0.76857631 5:0.62188028 6:0.5899422 
1 1:0.82407649 2:0.47478652 3:0.41317351 4:0.48734863 5:0.49020351 6:0.43907318 
1 1:0.48290558 2:0.52592894 3:0.84845508 4:0.9926758 5:0.62259204 6:0.14994043 
1 1:0.25854142 2:0.70027481 3:0.54536444 4:0.56638919 5:0.24236411 6:0.91674807 
1 1:0.58314848 2:0.16543918 3:0.6896605 4:0.72265805 5:0.39204635 6:0.45293951 
1 1:0.63707123 2:0.61539303 3:0.31993735 4:0.38651508 5:0.42675452 6:0.48239158 
1 1:0.81291008 2:0.26762085 3:0.52165522 4:0.22421375 5:0.72190897 6:0.72727249 
1 1:0.6548157 2:0.80230642 3:0.58630902 4:0.44085606 5:0.71057689 6:0.98370898 
1 1:0.18220614 2:0.35224294 3:0.3155411 4:0.20480248 5:0.5921566 6:0.52450142 
1 1:0.63808888 2:0.84574272 3:0.38326096 4:0.21691312 5:0.46107666 6:0.76620995 
1 1:0.39844875 2:0.11185317 3:0.56479131 4:0.67028432 5:0.31836454 6:0.87016396 
1 1:0.76768247 2:0.49475363 3:0.51396332 4:0.066647159 5:0.18237097 6:0.1085711 
1 1:0.69510929 2:0.36726284 3:0.79656765 4:0.54870516 5:0.5580569 6:0.32438825 
1 1:0.44253564 2:0.55054007 3:0.82118887 4:0.74621212 5:0.30602657 6:0.67667414 
1 1:0.33839993 2:0.51332547 3:0.21491605 4:0.87353 5:0.33680008 6:0.86325881 
1 1:0.39888327 2:0.31424173 3:0.16442503 4:0.44255271 5:0.59275314 6:0.79944732 
1 1:0.14937476 2:0.51584175 3:0.39823808 4:0.57591816 5:0.051922078 6:0.76884386 
1 1:0.69659339 2:0.33259076 3:0.29221967 4:0.20534209 5:0.65090982 6:0.56834247 
1 1:0.6078486 2:0.47357173 3:0.79305887 4:0.71954353 5:0.3048106 6:0.69777206 
1 1:0.51658625 2:0.44354842 3:0.88358923 4:0.57076373 5:0.284124 6:0.22911141 
1 1:0.7437671 2:0.72103913 3:0.48718047 4:0.89251129 5:0.6812624 6:0.036610365 
1 1:0.51481794 2:0.68984253 3:0.5717209 4:0.43808275 5:0.15738146 6:0.62277788 
1 1:0.15315084 2:0.61837301 3:0.30983057 4:0.19413172 5:0.42502466 6:0.58762879 
1 1:0.2777614 2:0.66416903 3:0.19449782 4:0.29897199 5:0.37212562 6:0.21523778 
1 1:0.686711 2:0.66835138 3:0.19786982 4:0.61805173 5:0.36582726 6:0.4881356 
1 1:0.56957533 2:0.17030701 3:0.72106919 4:0.31921792 5:0.67438882 6:0.33200358 
1 1:0.63288678 2:0.77685025 3:0.62447762 4:0.28327329 5:0.12850278 6:0.70219478 
1 1:0.60340378 2:0.80976857 3:0.67653343 4:0.36225547 5:0.34682346 6:0.20412575 
1 1:0.47070977 2:0.24670429 3:0.3489588 4:0.90016209 5:0.73859294 6:0.90938228 
1 1:0.50818595 2:0.71200732 3:0.66230223 4:0.83616319 5:0.64220185 6:0.8917798 
1 1:0.20010838 2:0.52371746 3:0.71514879 4:0.70306004 5:0.9147875 6:0.15622852 
1 1:0.74779781 2:0.51382476 3:0.22467262 4:0.68639136 5:0.46383954 6:0.7754982 
1 1:0.49315175 2:0.71921491 3:0.19390808 4:0.64934889 5:0.16105998 6:0.92967878 
1 1:0.61511392 2:0.62721837 3:0.77384552 4:0.10793257 5:0.31312662 6:0.88513093 
1 1:0.66657885 2:0.2091625 3:0.61881673 4:0.040618333 5:0.65867829 6:0.26604818 
1 1:0.63292812 2:0.67124507 3:0.83539851 4:0.21296906 5:0.29464496 6:0.73222351 
1 1:0.19010738 2:0.61793863 3:0.6170192 4:0.70481958 5:0.47894809 6:0.47749578 
1 1:0.20878928 2:0.7390385 3:0.4541382 4:0.56976313 5:0.24400026 6:0.43086208 
1 1:0.68470929 2:0.63618976 3:0.35937392 4:0.82439335 5:0.19748007 6:0.58606085 
1 1:0.78831885 2:0.37967621 3:0.31969876 4:0.95998683 5:0.90041247 6:0.6946379 
1 1:0.57008399 2:0.53573541 3:0.13925597 4:0.23168771 5:0.56997412 6:0.028081678 
1 1:0.66076598 2:0.64736485 3:0.76084391 4:0.60720769 5:0.39356725 6:0.59212132 
1 1:0.76508615 2:0.77982361 3:0.41682518 4:0.39911914 5:0.38812759 6:0.75867666 
1 1:0.18747561 2:0.60006849 3:0.27007948 4:0.79120581 5:0.23544493 6:0.77627626 
1 1:0.54112061 2:0.60126678 3:0.53384996 4:0.38476761 5:0.72104151 6:0.98574112 
1 1:0.43763199 2:0.74405479 3:0.5591035 4:0.099000737 5:0.37618435 6:0.0078059689 
1 1:0.53000445 2:0.32901476 3:0.36574037 4:0.62327043 5:0.70446169 6:0.10312522 
1 1:0.76774931 2:0.44847737 3:0.6813903 4:0.6522286 5:0.63628933 6:0.49536685 
1 1:0.43255914 2:0.68793346 3:0.62488369 4:0.2228503 5:0.18687985 6:0.25951855 
1 1:0.29401055 2:0.36245599 3:0.70840897 4:0.25028863 5:0.18828799 6:0.17993574 
1 1:0.32002774 2:0.82905018 3:0.44024873 4:0.71100316 5:0.65247029 6:0.43807158 
1 1:0.20259948 2:0.70574375 3:0.39284953 4:0.70231872 5:0.3817098 6:0.87875491 
1 1:0.80251161 2:0.70569434 3:0.36260131 4:0.074651354 5:0.39926315 6:0.83033889 
1 1:0.3779665 2:0.32112553 3:0.78426379 4:0.50404632 5:0.14681477 6:0.24780255 
1 1:0.58387916 2:0.20401282 3:0.36482812 4:0.78604274 5:0.59454426 6:0.72794274 
1 1:0.37503275 2:0.42434864 3:0.65475357 4:0.51895784 5:0.18407364 6:0.27963133 
1 1:0.585908 2:0.38340465 3:0.29119942 4:0.79399544 5:0.78567745 6:0.25567523 
1 1:0.39537673 2:0.57180041 3:0.28240901 4:0.32477162 5:0.79668135 6:0.15097102 
1 1:0.760526 2:0.28485321 3:0.71283308 4:0.74191528 5:0.48801674 6:0.45672104 
1 1:0.27333272 2:0.31516528 3:0.811754 4:0.81875711 5:0.62590815 6:0.50817304 
1 1:0.51090364 2:0.35818977 3:0.85928322 4:0.5162206 5:0.43159144 6:0.65253829 
1 1:0.45372602 2:0.61880382 3:0.85669467 4:0.24722529 5:0.53421825 6:0.28587115 
1 1:0.30489881 2:0.47760805 3:0.65939022 4:0.55216231 5:0.24142276 6:0.75069177 
1 1:0.4901471 2:0.56845773 3:0.86667247 4:0.26120909 5:0.66370439 6:0.78861491 
1 1:0.24404594 2:0.57864742 3:0.25578634 4:0.77627502 5:0.60972709 6:0.58646325 
1 1:0.7564908 2:0.51631988 3:0.44708304 4:0.14616991 5:0.24823982 6:0.99847683 
1 1:0.82455295 2:0.4814948 3:0.38596974 4:0.79081936 5:0.66582652 6:0.89061681 
1 1:0.63355777 2:0.25364682 3:0.61754346 4:0.93292149 5:0.37137559 6:0.24227277 
1 1:0.71449752 2:0.58147816 3:0.2051888 4:0.58084792 5:0.71102559 6:0.29592009 
1 1:0.86921294 2:0.6297861 3:0.53923172 4:0.36069508 5:0.62328928 6:0.61001862 
1 1:0.48971774 2:0.86465491 3:0.40335981 4:0.24971777 5:0.62896776 6:0.30160844 
1 1:0.74869632 2:0.29050705 3:0.67883603 4:0.15159663 5:0.34694736 6:0.65044943 
1 1:0.3110791 2:0.79283753 3:0.62811753 4:0.053275307 5:0.16719946 6:0.20333623 
1 1:0.59260163 2:0.17440852 3:0.31076842 4:0.25454386 5:0.60362366 6:0.40675997 
1 1:0.65975925 2:0.72473279 3:0.77383314 4:0.034250947 5:0.40187967 6:0.70662716 
1 1:0.53493462 2:0.17768951 3:0.73184987 4:0.82236355 5:0.45860794 6:0.31852762 
1 1:0.77124641 2:0.45813914 3:0.22900777 4:0.70143765 5:0.78018549 6:0.51712499 
1 1:0.51008936 2:0.81804201 3:0.71319003 4:0.096167238 5:0.69167054 6:0.61793814 
1 1:0.53511867 2:0.30511938 3:0.33441795 4:0.35847948 5:0.052535088 6:0.59564132 
1 1:0.39511759 2:0.37955351 3:0.39605536 4:0.68395316 5:0.7172115 6:0.78394207 
1 1:0.43300817 2:0.35113316 3:0.25337287 4:0.029551296 5:0.88239241 6:0.5922645 
1 1:0.57381078 2:0.17554512 3:0.31893808 4:0.049372083 5:0.26687599 6:0.12121666 
1 1:0.31822072 2:0.69026276 3:0.27404075 4:0.96413026 5:0.82383443 6:0.38148705 
1 1:0.29461152 2:0.61219376 3:0.74430996 4:0.091394028 5:0.74199384 6:0.53376686 
1 1:0.13117841 2:0.61343671 3:0.50962709 4:0.77287436 5:0.42739588 6:0.44753844 
1 1:0.69455934 2:0.3280665 3:0.70816349 4:0.092145597 5:0.3870893 6:0.70562481 
1 1:0.73865465 2:0.73545559 3:0.49161369 4:0.89700087 5:0.4370147 6:0.56403785 
1 1:0.33777924 2:0.59137848 3:0.12177836 4:0.39925932 5:0.36692493 6:0.71437201 
1 1:0.41092242 2:0.13853274 3:0.47171533 4:0.66961171 5:0.20100886 6:0.76426395 
1 1:0.3777686 2:0.43234022 3:0.70219826 4:0.49978465 5:0.52196461 6:0.28537483 
1 1:0.34591419 2:0.51434643 3:0.15845321 4:0.49572016 5:0.51273552 6:0.96270554 
1 1:0.43379431 2:0.38986715 3:0.66119136 4:0.51262467 5:0.32791837 6:0.47683101 
1 1:0.22328028 2:0.37269117 3:0.52068199 4:0.27164136 5:0.11906711 6:0.68558766 
1 1:0.30918279 2:0.68678028 3:0.43796785 4:0.75447446 5:0.70253772 6:0.67852441 
1 1:0.28889891 2:0.50079872 3:0.35305526 4:0.75791961 5:0.52207622 6:0.89602717 
1 1:0.68379135 2:0.49888167 3:0.28072731 4:0.13622399 5:0.53581745 6:0.24616476 
1 1:0.42108884 2:0.39487905 3:0.11289351 4:0.99714075 5:0.30058335 6:0.41569154 
1 1:0.69767109 2:0.63169537 3:0.52192391 4:0.6986508 5:0.3041748 6:0.1274434 
1 1:0.16280337 2:0.55266462 3:0.43366179 4:0.97167106 5:0.79569695 6:0.76160818 
1 1:0.51373004 2:0.53459902 3:0.85321459 4:0.81988191 5:0.42171737 6:0.75215592 
1 1:0.55236806 2:0.33104153 3:0.50871947 4:0.77109157 5:0.22813917 6:0.33991109 
1 1:0.62160694 2:0.8538608 3:0.44077711 4:0.66683224 5:0.49689013 6:0.82076742 
1 1:0.8009963 2:0.66932073 3:0.35116451 4:0.50739509 5:0.42899376 6:0.84123175 
1 1:0.65020946 2:0.75263252 3:0.26957197 4:0.4757597 5:0.82694688 6:0.42870658 
1 1:0.32522232 2:0.51849319 3:0.54034506 4:0.8090412 5:0.44681341 6:0.095598926 
1 1:0.54839451 2:0.62689423 3:0.78793845 4:0.6955378 5:0.90143912 6:0.66374568 
1 1:0.45761572 2:0.55344143 3:0.84105982 4:0.054402712 5:0.70264972 6:0.8135081 
1 1:0.79955659 2:0.62550163 3:0.44270707 4:0.68737685 5:0.70289431 6:0.50879647 
1 1:0.3608502 2:0.60280238 3:0.75111286 4:0.84565928 5:0.75787523 6:0.84572881 
1 1:0.57600041 2:0.12307241 3:0.41624778 4:0.20157918 5:0.61563606 6:0.42514733 
1 1:0.35451753 2:0.68515109 3:0.20736132 4:0.50263735 5:0.15330729 6:0.53896079 
1 1:0.46465167 2:0.41574158 3:0.095727102 4:0.27363915 5:0.30988103 6:0.8452871 
1 1:0.55097778 2:0.30875119 3:0.77284198 4:0.6317455 5:0.21043537 6:0.77766534 
1 1:0.30551811 2:0.63983581 3:0.74809371 4:0.75498874 5:0.40519544 6:0.62869005 
1 1:0.35811162 2:0.72607319 3:0.26851601 4:0.25263081 5:0.11418614 6:0.34497907 
1 1:0.4768715 2:0.45075082 3:0.13211673 4:0.25563365 5:0.51476526 6:0.26532523 
1 1:0.66904765 2:0.74018996 3:0.63423413 4:0.98380767 5:0.39875049 6:0.29673939 
1 1:0.5566449 2:0.79306612 3:0.59680173 4:0.70146811 5:0.54252282 6:0.82274225 
1 1:0.62762806 2:0.72673774 3:0.45931795 4:0.84250441 5:0.24267764 6:0.1307747 
1 1:0.3646259 2:0.68821356 3:0.1955802 4:0.60460005 5:0.48235866 6:0.31732974 
1 1:0.29080951 2:0.35237819 3:0.55861138 4:0.37470101 5:0.13803786 6:0.58775481 
1 1:0.70083205 2:0.54187528 3:0.52751848 4:0.31084713 5:0.9203537 6:0.9769899 
1 1:0.14456086 2:0.46390958 3:0.4078619 4:0.23459679 5:0.45609718 6:0.80600443 
1 1:0.76328853 2:0.30862862 3:0.73503829 4:0.69019119 5:0.37448043 6:0.33338168 
1 1:0.31401293 2:0.54736866 3:0.60973615 4:0.50104702 5:0.23603685 6:0.13331235 
1 1:0.69451605 2:0.21939061 3:0.32256244 4:0.30120758 5:0.50970954 6:0.14243087 
1 1:0.68780889 2:0.77070382 3:0.6634455 4:0.87853272 5:0.61857656 6:0.60552652 
1 1:0.31030413 2:0.38890971 3:0.39497168 4:0.81596756 5:0.56035419 6:0.84505652 
1 1:0.43357416 2:0.15515219 3:0.54082545 4:0.07003426 5:0.67428494 6:0.37523448 
1 1:0.5531725 2:0.73368469 3:0.27253299 4:0.10401585 5:0.77734572 6:0.78289513 
1 1:0.6528996 2:0.26098573 3:0.24650485 4:0.017463365 5:0.62204729 6:0.74902151 
1 1:0.39585488 2:0.21459892 3:0.45115 4:0.76398389 5:0.11121457 6:0.079054617 
1 1:0.86837053 2:0.64051804 3:0.43343789 4:0.3377356 5:0.51082626 6:0.60915683 
1 1:0.42401603 2:0.24768694 3:0.33630404 4:0.30907282 5:0.35788154 6:0.17483808 
1 1:0.75108708 2:0.51160974 3:0.49308568 4:0.84943875 5:0.27354322 6:0.40793519 
1 1:0.75605027 2:0.54848494 3:0.18536796 4:0.47518386 5:0.4651645 6:0.27160516 
1 1:0.14686705 2:0.27710649 3:0.54594027 4:0.44028882 5:0.65140333 6:0.4583587 
1 1:0.23506592 2:0.26004645 3:0.3472627 4:0.22445109 5:0.24036313 6:0.21920632 
1 1:0.51907585 2:0.51353084 3:0.60278114 4:0.64834983 5:0.8756397 6:0.26750511 
1 1:0.65708576 2:0.65796277 3:0.71150972 4:0.95311307 5:0.38129081 6:0.32019699 
1 1:0.63189203 2:0.46715567 3:0.69829938 4:0.45814968 5:0.69040722 6:0.17263204 
1 1:0.43733827 2:0.3036832 3:0.27669678 4:0.99545329 5:0.84760667 6:0.99137494 
1 1:0.26691387 2:0.48864735 3:0.53810153 4:0.30477785 5:0.46898106 6:0.37627128 
1 1:0.62218511 2:0.39154309 3:0.30905013 4:0.98517805 5:0.74364726 6:0.25645967 
1 1:0.58315375 2:0.73389647 3:0.30815497 4:0.66460611 5:0.3381588 6:0.76506655 
1 1:0.4140974 2:0.54397279 3:0.28406995 4:0.57919461 5:0.37283132 6:0.89741476 
1 1:0.40708156 2:0.20146966 3:0.72775304 4:0.15480066 5:0.59965225 6:0.63206338 
1 1:0.89547577 2:0.45411345 3:0.47264393 4:0.86032418 5:0.67281853 6:0.04749577 
1 1:0.3021864 2:0.37386777 3:0.80662851 4:0.82906317 5:0.29978269 6:0.75187949 
1 1:0.63814659 2:0.62006423 3:0.18915459 4:0.057412555 5:0.52597101 6:0.6764901 
1 1:0.31973299 2:0.46543873 3:0.61149009 4:0.39514192 5:0.17003871 6:0.39112669 
1 1:0.16675582 2:0.40874302 3:0.60655665 4:0.038550736 5:0.75776172 6:0.38101376 
1 1:0.28743949 2:0.44112285 3:0.25793648 4:0.66500056 5:0.59199158 6:0.5142554 
1 1:0.59158147 2:0.49338598 3:0.46364091 4:0.08467298 5:0.052059295 6:0.098029331 
1 1:0.66437428 2:0.40490949 3:0.14853591 4:0.72921146 5:0.076976256 6:0.59879206 
1 1:0.88002735 2:0.4972109 3:0.45054738 4:0.01902681 5:0.45028213 6:0.41337188 
1 1:0.68697627 2:0.50394461 3:0.48214498 4:0.28046599 5:0.24734112 6:0.97750133 
1 1:0.86830449 2:0.65314932 3:0.41797399 4:0.80586734 5:0.59994484 6:0.62976848 
1 1:0.27775843 2:0.57220598 3:0.28785087 4:0.15965417 5:0.67484944 6:0.60755049 
1 1:0.61225353 2:0.15621037 3:0.52125169 4:0.70261932 5:0.19063104 6:0.33406287 
1 1:0.47532421 2:0.62651567 3:0.46743695 4:0.8158189 5:0.033836193 6:0.66896995 
1 1:0.66837829 2:0.39709762 3:0.25759735 4:0.70938474 5:0.60268303 6:0.63716042 
1 1:0.41578335 2:0.83702605 3:0.60755977 4:0.2989395 5:0.77202478 6:0.2395223 
1 1:0.33282285 2:0.72911342 3:0.72138993 4:0.052978835 5:0.40351842 6:0.49741655 
1 1:0.86170153 2:0.55418192 3:0.57408742 4:0.65112639 5:0.4004756 6:0.83629535 
1 1:0.60371177 2:0.65647735 3:0.60795919 4:0.93171369 5:0.46714068 6:0.94330034 
1 1:0.77332567 2:0.61319066 3:0.34648602 4:0.0050306674 5:0.081460293 6:0.40680603 
1 1:0.71379609 2:0.82068961 3:0.54577126 4:0.67212635 5:0.73012993 6:0.6144863 
1 1:0.38081323 2:0.41493823 3:0.15788648 4:0.63473539 5:0.71824889 6:0.96087726 
1 1:0.2836447 2:0.38613474 3:0.76074714 4:0.12995815 5:0.6995357 6:0.41112913 
1 1:0.51728262 2:0.26604213 3:0.67991088 4:0.47333417 5:0.36615681 6:0.55578901 
1 1:0.67015212 2:0.7537866 3:0.7909123 4:0.22406472 5:0.48755845 6:0.60699008 
1 1:0.16011387 2:0.3081317 3:0.42007528 4:0.73531697 5:0.79639427 6:0.4611218 
1 1:0.54153928 2:0.21527104 3:0.19409098 4:0.46142186 5:0.45181514 6:0.33900742 
1 1:0.358425 2:0.71554656 3:0.49167688 4:0.65911803 5:0.32864672 6:0.91349886 
1 1:0.46026454 2:0.65330282 3:0.38109459 4:0.61010895 5:0.75919675 6:0.92936063 
1 1:0.8354656 2:0.38047068 3:0.28912649 4:0.69909517 5:0.31918101 6:0.76303772 
1 1:0.13652895 2:0.38360822 3:0.66087474 4:0.80469706 5:0.70409885 6:0.83875496 
1 1:0.61836631 2:0.1473497 3:0.30540466 4:0.40303795 5:0.28103163 6:0.6452012 
1 1:0.26140463 2:0.38262569 3:0.58166881 4:0.59258256 5:0.23224858 6:0.38585237 
1 1:0.31756922 2:0.66718336 3:0.74330431 4:0.60010702 5:0.34519527 6:0.80078013 
1 1:0.34498292 2:0.57442768 3:0.41047007 4:0.75304706 5:0.27534769 6:0.3955485 
1 1:0.21893543 2:0.60880166 3:0.76056995 4:0.38301382 5:0.71230505 6:0.87801779 
1 1:0.70094841 2:0.65972494 3:0.34739119 4:0.063227683 5:0.68134952 6:0.59454333 
1 1:0.74528771 2:0.54316503 3:0.81975408 4:0.91528039 5:0.53150603 6:0.82720629 
1 1:0.61055954 2:0.86512818 3:0.38719478 4:0.40311843 5:0.55249251 6:0.52804451 
1 1:0.52948064 2:0.73476073 3:0.80205156 4:0.83636914 5:0.66951926 6:0.28134402 
1 1:0.23579574 2:0.2435047 3:0.4617939 4:0.50471549 5:0.55523448 6:0.0040363584 
1 1:0.2842213 2:0.41217115 3:0.24373092 4:0.04198278 5:0.46951506 6:0.15419009 
1 1:0.505491 2:0.72420523 3:0.60268278 4:0.46789761 5:0.25684259 6:0.55847329 
1 1:0.61924279 2:0.68108591 3:0.4074217 4:0.85717455 5:0.80124596 6:0.049374713 
1 1:0.22654287 2:0.69785449 3:0.33985284 4:0.90905864 5:0.4514366 6:0.6773237 
1 1:0.80765426 2:0.71157603 3:0.49408612 4:0.10923012 5:0.37233586 6:0.021497223 
1 1:0.42292166 2:0.70019613 3:0.43084751 4:0.21336031 5:0.82412841 6:0.58466457 
1 1:0.66085709 2:0.48521069 3:0.71630234 4:0.07977289 5:0.570387 6:0.18658249 
1 1:0.45216392 2:0.16574499 3:0.6248781 4:0.71253539 5:0.3848732 6:0.39495433 
1 1:0.6811756 2:0.22864366 3:0.43035938 4:0.21530987 5:0.73476584 6:0.44026871 
1 1:0.31433577 2:0.60662132 3:0.76378115 4:0.028254916 5:0.76895935 6:0.26135014 
1 1:0.52768367 2:0.5209682 3:0.2141534 4:0.099973183 5:0.67812637 6:0.64854262 
1 1:0.3471787 2:0.35953978 3:0.2447238 4:0.22820283 5:0.68692709 6:0.69245962 
1 1:0.56221427 2:0.36345971 3:0.63063599 4:0.45433665 5:0.66780698 6:0.9400442 
1 1:0.62055832 2:0.15879744 3:0.4327898 4:0.76290917 5:0.11563883 6:0.81097518 
1 1:0.65126951 2:0.36149763 3:0.79225278 4:0.82891014 5:0.37251524 6:0.30350402 
1 1:0.53738422 2:0.63967673 3:0.44745117 4:0.86492511 5:0.26224262 6:0.62299073 
1 1:0.27431094 2:0.37659954 3:0.18323492 4:0.23371652 5:0.53431879 6:0.62324623 
1 1:0.47791769 2:0.71477695 3:0.46656779 4:0.65698021 5:0.62531419 6:0.60106434 
1 1:0.24747679 2:0.28090106 3:0.37056628 4:0.013942814 5:0.43111298 6:0.060837141 
1 1:0.22083844 2:0.5169007 3:0.40253263 4:0.85098862 5:0.53259217 6:0.39652458 
1 1:0.32656199 2:0.50965596 3:0.47669985 4:0.80497676 5:0.88461478 6:0.17120183 
1 1:0.32238245 2:0.26327544 3:0.7396181 4:0.80673576 5:0.45597384 6:0.22522631 
1 1:0.58449271 2:0.13771583 3:0.39695605 4:0.50748617 5:0.3688455 6:0.69605827 
1 1:0.65017412 2:0.69989712 3:0.24416246 4:0.72175819 5:0.52577574 6:0.090833929 
1 1:0.65453278 2:0.60616578 3:0.22341411 4:0.62215412 5:0.55851593 6:0.23831628 
1 1:0.68296183 2:0.64465179 3:0.17616467 4:0.35941851 5:0.6213087 6:0.33747168 
1 1:0.8134493 2:0.37605936 3:0.61808747 4:0.37103037 5:0.24199778 6:0.12000107 
1 1:0.59236041 2:0.7269452 3:0.60356202 4:0.1339812 5:0.3238818 6:0.36164441 
1 1:0.88173622 2:0.65689628 3:0.52223864 4:0.66811192 5:0.61542537 6:0.37161446 
1 1:0.39448481 2:0.3866905 3:0.20856945 4:0.061155901 5:0.44428405 6:0.17755533 
1 1:0.12189666 2:0.47501495 3:0.48523187 4:0.10025433 5:0.55534404 6:0.1249203 
1 1:0.63495317 2:0.65412501 3:0.83050725 4:0.087146083 5:0.50858758 6:0.15039028 
1 1:0.37756395 2:0.32162828 3:0.76474606 4:0.4380211 5:0.45876151 6:0.50434928 
1 1:0.38129306 2:0.62671917 3:0.20190161 4:0.73332403 5:0.59585079 6:0.76356138 
1 1:0.28977125 2:0.64925142 3:0.30185883 4:0.91411391 5:0.53249877 6:0.16506895 
1 1:0.23493791 2:0.56974983 3:0.18668507 4:0.63193809 5:0.42301373 6:0.62507576 
1 1:0.75367159 2:0.62771742 3:0.40885367 4:0.32197458 5:0.92005899 6:0.39607288 
1 1:0.57477897 2:0.17649822 3:0.38445853 4:0.022204444 5:0.25260754 6:0.69880223 
1 1:0.76381837 2:0.42943446 3:0.80439328 4:0.49490144 5:0.76266414 6:0.44050053 
1 1:0.61150686 2:0.47331649 3:0.22410564 4:0.46317134 5:0.5229859 6:0.23628021 
1 1:0.61432899 2:0.75983285 3:0.48974823 4:0.588347 5:0.18978133 6:0.27364546 
1 1:0.71587974 2:0.63799553 3:0.66918856 4:0.80800031 5:0.58080579 6:0.83099395 
1 1:0.58957528 2:0.73339768 3:0.57837689 4:0.722531 5:0.32969982 6:0.28308708 
1 1:0.68362231 2:0.64129178 3:0.2563472 4:0.91307316 5:0.64943118 6:0.50804152 
1 1:0.47774594 2:0.64876108 3:0.5742222 4:0.51895079 5:0.10729342 6:0.99274643 
1 1:0.4092807 2:0.18147475 3:0.25283519 4:0.73792728 5:0.56450926 6:0.30376159 
1 1:0.40730606 2:0.79849465 3:0.2674474 4:0.45625549 5:0.52719665 6:0.90248628 
1 1:0.82702703 2:0.64242415 3:0.30202979 4:0.50136793 5:0.57603479 6:0.89884251 
1 1:0.14336547 2:0.49658226 3:0.35412612 4:0.8782193 5:0.69446147 6:0.72623892 
1 1:0.82243171 2:0.63234751 3:0.51773944 4:0.5652905 5:0.22092746 6:0.22229473 
1 1:0.37323834 2:0.54014655 3:0.79846245 4:0.26042959 5:0.31975453 6:0.9403304 
1 1:0.40755496 2:0.46170409 3:0.10931141 4:0.040316266 5:0.50667437 6:0.57046505 
1 1:0.40761984 2:0.80645958 3:0.36138485 4:0.4866887 5:0.79727768 6:0.59095124 
1 1:0.48160293 2:0.86859187 3:0.4892522 4:0.40138386 5:0.35135245 6:0.068884561 
1 1:0.49943379 2:0.22304682 3:0.44216634 4:0.3874309 5:0.27593931 6:0.14136995 
1 1:0.73570129 2:0.24074406 3:0.42292846 4:0.87780406 5:0.72946943 6:0.70060404 
1 1:0.4269721 2:0.24218694 3:0.50015256 4:0.56769533 5:0.25662321 6:0.47791396 
1 1:0.35897725 2:0.6854104 3:0.64352704 4:0.011995404 5:0.20665343 6:0.011100021 
1 1:0.84563341 2:0.60245653 3:0.35553384 4:0.58272265 5:0.58587874 6:0.23979254 
1 1:0.12895175 2:0.3599172 3:0.53977457 4:0.24660511 5:0.35859795 6:0.50852497 
1 1:0.59907838 2:0.57890295 3:0.18169997 4:0.64100005 5:0.57211192 6:0.27747043 
1 1:0.43218672 2:0.62185824 3:0.80504855 4:0.55650215 5:0.22092148 6:0.60978497 
1 1:0.30758039 2:0.65597772 3:0.24365942 4:0.44624584 5:0.62876358 6:0.816709 
1 1:0.51289695 2:0.33036189 3:0.84642168 4:0.023405994 5:0.43713303 6:0.35125953 
1 1:0.57321511 2:0.39616883 3:0.5689665 4:0.01804726 5:0.56892239 6:0.035021315 
1 1:0.31164949 2:0.53372588 3:0.67947886 4:0.46736037 5:0.13379068 6:0.22182054 
1 1:0.40259902 2:0.28071376 3:0.67590863 4:0.84195763 5:0.21859641 6:0.25369882 
1 1:0.50360951 2:0.21556467 3:0.5050564 4:0.10700282 5:0.72111831 6:0.034410975 
1 1:0.59976948 2:0.84532986 3:0.64696425 4:0.41737183 5:0.53147978 6:0.25756648 
1 1:0.33792056 2:0.20052367 3:0.41860968 4:0.39251886 5:0.71850649 6:0.18747374 
1 1:0.75172371 2:0.2933935 3:0.69389494 4:0.36732622 5:0.59689008 6:0.96149584 
1 1:0.26217147 2:0.16699421 3:0.44237919 4:0.69241504 5:0.49047107 6:0.25174701 
1 1:0.29067917 2:0.35368746 3:0.20652342 4:0.47379011 5:0.61696582 6:0.87132367 
1 1:0.72142537 2:0.68502261 3:0.59971397 4:0.44867313 5:0.43488997 6:0.44365969 
1 1:0.46287437 2:0.65584881 3:0.78630499 4:0.884384 5:0.41852865 6:0.24290684 
1 1:0.55730751 2:0.84403212 3:0.33542019 4:0.21322602 5:0.65363691 6:0.11717007 
1 1:0.20817341 2:0.59533264 3:0.38924932 4:0.78669462 5:0.80770491 6:0.44314198 
1 1:0.78464155 2:0.55230763 3:0.31353431 4:0.60475475 5:0.37403495 6:0.7755736 
1 1:0.28695488 2:0.33716582 3:0.37761828 4:0.26361558 5:0.37154632 6:0.090381779 
1 1:0.54120058 2:0.48026821 3:0.60876675 4:0.10955279 5:0.57868787 6:0.17099452 
1 1:0.36855365 2:0.1877384 3:0.6366023 4:0.8906287 5:0.94583684 6:0.22182232 
1 1:0.33176671 2:0.81149721 3:0.44481502 4:0.71633771 5:0.53308943 6:0.56106273 
1 1:0.46838552 2:0.23302026 3:0.79007978 4:0.25801133 5:0.64547025 6:0.76669754 
1 1:0.42650616 2:0.14228269 3:0.43707887 4:0.85958399 5:0.47719586 6:0.96719247 
1 1:0.68877306 2:0.6834044 3:0.28412424 4:0.57786198 5:0.34994156 6:0.84130786 
1 1:0.23672852 2:0.7398934 3:0.5403914 4:0.56866203 5:0.067298892 6:0.48578575 
1 1:0.27389334 2:0.2411753 3:0.28266704 4:0.96009575 5:0.7702993 6:0.60939269 
1 1:0.77649413 2:0.37692228 3:0.6694819 4:0.13865574 5:0.17982923 6:0.22188583 
1 1:0.83522404 2:0.46794212 3:0.31063834 4:0.65605247 5:0.25560711 6:0.82310519 
1 1:0.60354412 2:0.362085 3:0.49337142 4:0.73085007 5:0.30747235 6:0.5509423 
1 1:0.55431923 2:0.75878663 3:0.63235081 4:0.35329773 5:0.29712211 6:0.61692318 
1 1:0.50066955 2:0.66286117 3:0.67500979 4:0.78773189 5:0.63022402 6:0.73656412 
1 1:0.49647113 2:0.78203116 3:0.64605437 4:0.76170434 5:0.11242128 6:0.21834786 
1 1:0.38671927 2:0.29721452 3:0.24677888 4:0.45408443 5:0.61666561 6:0.30162164 
1 1:0.51548634 2:0.84875342 3:0.31219849 4:0.63657277 5:0.34888796 6:0.74457364 
1 1:0.69720728 2:0.25003531 3:0.24137744 4:0.57147644 5:0.43945146 6:0.51737882 
1 1:0.64619308 2:0.2021078 3:0.44194052 4:0.54087944 5:0.37177995 6:0.73608614 
1 1:0.15438482 2:0.37443061 3:0.42405251 4:0.024343565 5:0.60798801 6:0.41042906 
1 1:0.22131373 2:0.45766355 3:0.53113613 4:0.2526964 5:0.4614573 6:0.38907958 
1 1:0.22755156 2:0.44814412 3:0.52829976 4:0.11650575 5:0.21671886 6:0.69975137 
1 1:0.1962707 2:0.28121762 3:0.4089529 4:0.65787215 5:0.11772046 6:0.6802234 
1 1:0.40042857 2:0.55732955 3:0.47330473 4:0.52537577 5:0.59969892 6:0.85395793 
1 1:0.24460774 2:0.27228495 3:0.41710857 4:0.39184894 5:0.22421781 6:0.65862562 
1 1:0.73148414 2:0.4307694 3:0.15875089 4:0.47860035 5:0.27046977 6:0.45406756 
1 1:0.47933009 2:0.61680965 3:0.15515277 4:0.84765461 5:0.48811791 6:0.40961382 
1 1:0.53351456 2:0.87330695 3:0.47331541 4:0.11560416 5:0.13127696 6:0.90649136 
1 1:0.30872868 2:0.49233438 3:0.32837152 4:0.50616281 5:0.70816518 6:0.78738781 
1 1:0.38135991 2:0.57009914 3:0.88007728 4:0.6302776 5:0.47203148 6:0.66865749 
1 1:0.21191027 2:0.38754581 3:0.63936818 4:0.42948529 5:0.29465086 6:0.28936451 
1 1:0.6986953 2:0.57589376 3:0.57684127 4:0.32056956 5:0.48596443 6:0.5474888 
1 1:0.20179374 2:0.39407899 3:0.75553619 4:0.27550043 5:0.54499057 6:0.12426516 
1 1:0.63438688 2:0.4457375 3:0.10385567 4:0.32249307 5:0.28078488 6:0.72147961 
1 1:0.48199208 2:0.80858269 3:0.43467339 4:0.30708821 5:0.8084183 6:0.85521719 
1 1:0.34035329 2:0.72819992 3:0.74324037 4:0.29659195 5:0.58896713 6:0.96447253 
1 1:0.85988081 2:0.50053989 3:0.55967821 4:0.3505984 5:0.63744747 6:0.016101643 
1 1:0.54734971 2:0.34345231 3:0.84189139 4:0.87761719 5:0.18995041 6:0.6219541 
1 1:0.59142459 2:0.82100134 3:0.57844193 4:0.98896509 5:0.36384019 6:0.4758599 
1 1:0.28349136 2:0.36363391 3:0.68508392 4:0.17699447 5:0.8672543 6:0.93516889 
1 1:0.36992028 2:0.23391495 3:0.72881026 4:0.65231658 5:0.31082559 6:0.94088763 
1 1:0.17830726 2:0.56174178 3:0.70303213 4:0.76580909 5:0.54026634 6:0.97330783 
1 1:0.43447639 2:0.49183345 3:0.87831548 4:0.36862274 5:0.3897535 6:0.82871578 
1 1:0.21531279 2:0.48912979 3:0.77505276 4:0.91787029 5:0.85636094 6:0.77431902 
1 1:0.80129729 2:0.52117944 3:0.52721346 4:0.86150674 5:0.22252246 6:0.37084899 
1 1:0.6224972 2:0.46409817 3:0.2893604 4:0.84868246 5:0.41081457 6:0.75059516 
1 1:0.42888136 2:0.88320323 3:0.55094468 4:0.23791826 5:0.54741621 6:0.64694766 
1 1:0.44638719 2:0.32304239 3:0.60985708 4:0.13567072 5:0.68502472 6:0.26165539 
1 1:0.35417033 2:0.27883137 3:0.15432289 4:0.6682237 5:0.37226285 6:0.74076825 
1 1:0.35877942 2:0.79963031 3:0.45248233 4:0.54481018 5:0.10820722 6:0.72701901 
1 1:0.74005719 2:0.41493837 3:0.75151959 4:0.088265828 5:0.35172474 6:0.0088839695 
1 1:0.56003184 2:0.16279549 3:0.55133949 4:0.78874813 5:0.63823412 6:0.89954875 
1 1:0.29596965 2:0.7243843 3:0.51484216 4:0.22578877 5:0.13753424 6:0.97194709 
1 1:0.55640168 2:0.65559424 3:0.58054153 4:0.90050514 5:0.75436793 6:0.95498665 
1 1:0.76642635 2:0.58221757 3:0.27198885 4:0.48771096 5:0.38654438 6:0.88818894 
1 1:0.87413249 2:0.46967414 3:0.54836456 4:0.4500374 5:0.64088051 6:0.23033133 
1 1:0.62093313 2:0.2950854 3:0.62870592 4:0.274623 5:0.73922284 6:0.63317334 
1 1:0.41594552 2:0.242798 3:0.650262 4:0.8843644 5:0.85087153 6:0.45931115 
1 1:0.18163942 2:0.58727719 3:0.61117062 4:0.60312084 5:0.38458372 6:0.68847431 
1 1:0.72428613 2:0.22987073 3:0.55044836 4:0.40649607 5:0.42808568 6:0.5064578 
1 1:0.71238677 2:0.73350716 3:0.29210887 4:0.48514097 5:0.44542536 6:0.53275798 
1 1:0.71194235 2:0.24139186 3:0.71264072 4:0.63045149 5:0.28658925 6:0.76562212 
1 1:0.70096553 2:0.67871526 3:0.66427703 4:0.49110805 5:0.14065091 6:0.91055846 
1 1:0.61523818 2:0.71985405 3:0.66963511 4:0.20112688 5:0.98933667 6:0.38793872 
1 1:0.53778279 2:0.2049321 3:0.34399233 4:0.45680607 5:0.51536974 6:0.15974258 
1 1:0.23018192 2:0.47396023 3:0.5443449 4:0.84571271 5:0.45184187 6:0.092105431 
1 1:0.54746361 2:0.75731542 3:0.2854334 4:0.63385313 5:0.079641214 6:0.8243809 
1 1:0.14458862 2:0.44482457 3:0.43949404 4:0.22700919 5:0.43817251 6:0.11998704 
1 1:0.53235689 2:0.30045333 3:0.85142639 4:0.44464093 5:0.55634819 6:0.42457866 
1 1:0.27741125 2:0.20905996 3:0.55548462 4:0.32083972 5:0.3130017 6:0.63728363 
1 1:0.15656727 2:0.30671631 3:0.52262621 4:0.48742188 5:0.086512202 6:0.50172981 
1 1:0.57009533 2:0.30140006 3:0.8029531 4:0.51180779 5:0.56674886 6:0.11172121 
1 1:0.21586734 2:0.24706434 3:0.38071332 4:0.43372612 5:0.4039647 6:0.42254716 
1 1:0.4840697 2:0.20885486 3:0.71526649 4:0.11654096 5:0.74587376 6:0.47755097 
1 1:0.38291374 2:0.51094947 3:0.097499775 4:0.22962702 5:0.16483729 6:0.44574234 
1 1:0.5056155 2:0.50663181 3:0.26225984 4:0.24767984 5:0.54104097 6:0.30812075 
1 1:0.35910578 2:0.52191748 3:0.30951864 4:0.029042148 5:0.23216254 6:0.12257689 
1 1:0.75295883 2:0.76310052 3:0.55067138 4:0.47130278 5:0.69042126 6:0.36414894 
1 1:0.14368387 2:0.54810083 3:0.4671674 4:0.59539739 5:0.21134731 6:0.54654387 
1 1:0.1824344 2:0.38689601 3:0.6397657 4:0.40490375 5:0.236291 6:0.98264527 
1 1:0.7480711 2:0.66554201 3:0.32128976 4:0.15241854 5:0.8063653 6:0.16575943 
1 1:0.69628271 2:0.52805007 3:0.32417387 4:0.96985223 5:0.69633698 6:0.7545864 
1 1:0.13661473 2:0.41150134 3:0.42965697 4:0.37311738 5:0.63483813 6:0.14752931 
1 1:0.45468893 2:0.15101568 3:0.52098034 4:0.75745559 5:0.55357569 6:0.96147715 
1 1:0.21160046 2:0.36511812 3:0.31098828 4:0.25453403 5:0.19720736 6:0.55780566 
1 1:0.43572268 2:0.66833773 3:0.17388364 4:0.40017042 5:0.47979275 6:0.16821445 
1 1:0.36827294 2:0.34557173 3:0.24224434 4:0.55755076 5:0.53148112 6:0.10534044 
1 1:0.31229233 2:0.37391372 3:0.79756622 4:0.36598667 5:0.31219445 6:0.94997154 
1 1:0.75537496 2:0.55302904 3:0.4293294 4:0.088111331 5:0.95564502 6:0.84149458 
1 1:0.2328118 2:0.26264455 3:0.53915615 4:0.11730864 5:0.73030795 6:0.29077002 
1 1:0.69573821 2:0.24654419 3:0.48860784 4:0.65739339 5:0.5285283 6:0.47688558 
1 1:0.34093713 2:0.69736452 3:0.37228739 4:0.06620625 5:0.14198337 6:0.12773029 
1 1:0.63006451 2:0.77125466 3:0.39564754 4:0.15491562 5:0.60668942 6:0.73622213 
1 1:0.24053762 2:0.67895757 3:0.3599551 4:0.85824407 5:0.48943536 6:0.88658216 
1 1:0.63175089 2:0.28037375 3:0.7459028 4:0.461994 5:0.38808047 6:0.11187922 
1 1:0.65695023 2:0.82188707 3:0.43982109 4:0.82600287 5:0.48661634 6:0.8558404 
1 1:0.73826807 2:0.33059937 3:0.45738155 4:0.2945653 5:0.80361586 6:0.63939937 
1 1:0.78759676 2:0.29405209 3:0.36664022 4:0.099305407 5:0.35877596 6:0.088048085 
1 1:0.13850473 2:0.41428423 3:0.52991359 4:0.23981855 5:0.58805318 6:0.36414891 
1 1:0.34089461 2:0.69182835 3:0.2189489 4:0.039529426 5:0.1060062 6:0.95928042 
1 1:0.25109875 2:0.75870908 3:0.56494329 4:0.77226261 5:0.496946 6:0.018601675 
1 1:0.20609651 2:0.51566887 3:0.37327118 4:0.71032756 5:0.44588882 6:0.10643336 
1 1:0.39317556 2:0.10110659 3:0.38731804 4:0.61206232 5:0.40591276 6:0.60332856 
1 1:0.89512554 2:0.59032941 3:0.53712112 4:0.24350888 5:0.36000004 6:0.4138481 
1 1:0.38912602 2:0.68541064 3:0.79049619 4:0.49492639 5:0.34784871 6:0.59783207 
1 1:0.54649412 2:0.34520861 3:0.53051633 4:0.58963784 5:0.23930715 6:0.34188713 
1 1:0.37667995 2:0.39152581 3:0.76510719 4:0.49513885 5:0.35920614 6:0.37067324 
1 1:0.25473651 2:0.75194926 3:0.66608191 4:0.66760443 5:0.3600659 6:0.92083109 
1 1:0.25175268 2:0.54724348 3:0.60668548 4:0.62789991 5:0.50870557 6:0.0029991425 
1 1:0.72332175 2:0.52387307 3:0.34279257 4:0.62947378 5:0.32414097 6:0.098924652 
1 1:0.50520721 2:0.17160009 3:0.66252685 4:0.66590238 5:0.78504763 6:0.65360825 
1 1:0.53524147 2:0.30232318 3:0.69358278 4:0.025427475 5:0.6618101 6:0.44288738 
1 1:0.45487662 2:0.12906168 3:0.46028321 4:0.21922138 5:0.75428689 6:0.30212299 
1 1:0.42843837 2:0.47171771 3:0.15076695 4:0.54330093 5:0.85955833 6:0.79957103 
1 1:0.76358262 2:0.46922866 3:0.74567826 4:0.93748474 5:0.28119188 6:0.45628098 
1 1:0.53534085 2:0.6646079 3:0.70652191 4:0.96078512 5:0.68800828 6:0.81933294 
1 1:0.56115975 2:0.84307051 3:0.32132034 4:0.50699648 5:0.23233008 6:0.71455454 
1 1:0.31735216 2:0.17131605 3:0.34005019 4:0.82332231 5:0.80028071 6:0.23729802 
1 1:0.77308833 2:0.60251495 3:0.44502241 4:0.85995749 5:0.28582469 6:0.4723039 
1 1:0.6359538 2:0.39558366 3:0.14599022 4:0.11204188 5:0.5404785 6:0.19626974 
1 1:0.81101736 2:0.62416902 3:0.3306642 4:0.24422943 5:0.80950334 6:0.84681059 
1 1:0.32755737 2:0.36048477 3:0.71221661 4:0.072670648 5:0.50837763 6:0.18904678 
1 1:0.71513825 2:0.64333041 3:0.30901495 4:0.63942631 5:0.45521542 6:0.76095942 
1 1:0.51254898 2:0.31593288 3:0.72527757 4:0.018665747 5:0.37333944 6:0.18494241 
1 1:0.43110982 2:0.12081287 3:0.60125919 4:0.52990886 5:0.4156272 6:0.61812358 
1 1:0.37216168 2:0.87091311 3:0.47887201 4:0.10415893 5:0.58624501 6:0.24706914 
1 1:0.50276133 2:0.65419535 3:0.49388465 4:0.89933758 5:0.77834548 6:0.37945831 
1 1:0.46685827 2:0.56389394 3:0.85009225 4:0.78846004 5:0.45555586 6:0.28015457 
1 1:0.78628159 2:0.25225862 3:0.62675518 4:0.91878166 5:0.58728846 6:0.46959264 
1 1:0.83633721 2:0.40794189 3:0.29500075 4:0.8267456 5:0.73995498 6:0.44439972 
1 1:0.77481575 2:0.62326894 3:0.31613016 4:0.86464085 5:0.58053553 6:0.56730974 
1 1:0.6105057 2:0.51536019 3:0.80058831 4:0.14524976 5:0.45976113 6:0.31548667 
1 1:0.50373371 2:0.22964314 3:0.21127392 4:0.26756817 5:0.28549945 6:0.097369452 
1 1:0.86014195 2:0.53982463 3:0.48933663 4:0.76417143 5:0.038282815 6:0.824248 
1 1:0.38066477 2:0.79772042 3:0.50152746 4:0.72455101 5:0.3951872 6:0.45714841 
1 1:0.63921441 2:0.58181061 3:0.6568538 4:0.77840566 5:0.54004785 6:0.93803895 
1 1:0.34503562 2:0.79306984 3:0.39349246 4:0.28881955 5:0.18088435 6:0.22539581 
1 1:0.73722075 2:0.63625229 3:0.72443886 4:0.95551721 5:0.72364988 6:0.4815621 
1 1:0.21188772 2:0.51773062 3:0.63449857 4:0.84255507 5:0.42111649 6:0.015744246 
1 1:0.46593828 2:0.39082046 3:0.18749009 4:0.018586602 5:0.65254602 6:0.77212949 
1 1:0.22813295 2:0.63540541 3:0.33661392 4:0.27577799 5:0.94221323 6:0.21654545 
1 1:0.36967602 2:0.82080065 3:0.62163362 4:0.69427088 5:0.42993133 6:0.6122513 
1 1:0.51526551 2:0.70937541 3:0.15913856 4:0.2042408 5:0.44306343 6:0.5886474 
1 1:0.38121672 2:0.12839206 3:0.46412178 4:0.31863094 5:0.80387204 6:0.48803711 
1 1:0.63659198 2:0.34212985 3:0.49509799 4:0.097394614 5:0.40825966 6:0.95394883 
1 1:0.52236429 2:0.8807966 3:0.58683716 4:0.63415337 5:0.71166337 6:0.73616236 
1 1:0.52870294 2:0.24164207 3:0.61210438 4:0.13873321 5:0.35833777 6:0.56982609 
1 1:0.34477655 2:0.78158245 3:0.32678873 4:0.39167793 5:0.45006952 6:0.4701064 
1 1:0.75747051 2:0.24446309 3:0.60330604 4:0.067128337 5:0.43715785 6:0.56964429 
1 1:0.64525417 2:0.42806494 3:0.52295023 4:0.52293709 5:0.81972635 6:0.42301443 
1 1:0.51423297 2:0.1789214 3:0.70275712 4:0.81690457 5:0.34802508 6:0.38024832 
1 1:0.75964741 2:0.54656115 3:0.43725495 4:0.25868208 5:0.69254037 6:0.98444046 
1 1:0.43954252 2:0.22932947 3:0.20106357 4:0.39037067 5:0.66135333 6:0.12249781 
1 1:0.55463449 2:0.52374102 3:0.23510588 4:0.91420097 5:0.77020589 6:0.25692802 
1 1:0.56612912 2:0.41211804 3:0.71211653 4:0.32492747 5:0.58313703 6:0.34928032 
1 1:0.47887002 2:0.16632576 3:0.41390954 4:0.41176638 5:0.17269757 6:0.082981517 
1 1:0.38905447 2:0.68569105 3:0.38125857 4:0.61185088 5:0.43133167 6:0.91108199 
1 1:0.52464862 2:0.42820721 3:0.87763074 4:0.57566319 5:0.58191023 6:0.83559637 
1 1:0.4626868 2:0.65495084 3:0.17188253 4:0.98628326 5:0.32390134 6:0.94325494 
1 1:0.84359159 2:0.50196174 3:0.63097498 4:0.15103896 5:0.57332402 6:0.052322797 
1 1:0.1502422 2:0.42963257 3:0.64772427 4:0.21601774 5:0.17171703 6:0.87644405 
1 1:0.76884954 2:0.68796997 3:0.58716556 4:0.17808044 5:0.46745641 6:0.083784285 
1 1:0.59196166 2:0.8068499 3:0.71023061 4:0.46186208 5:0.58917911 6:0.10214631 
1 1:0.52393698 2:0.82557875 3:0.34278997 4:0.032795276 5:0.68472607 6:0.12486848 
1 1:0.5849306 2:0.44518214 3:0.25468954 4:0.58578338 5:0.67939367 6:0.70863266 
1 1:0.7301167 2:0.61458698 3:0.22605638 4:0.56674242 5:0.23462353 6:0.77693882 
1 1:0.49348822 2:0.84039552 3:0.3000145 4:0.0044292672 5:0.29007021 6:0.27996713 
1 1:0.7289259 2:0.52263642 3:0.35910624 4:0.71838316 5:0.47730482 6:0.0058998389 
1 1:0.41757231 2:0.76158166 3:0.6148624 4:0.014819388 5:0.83488013 6:0.86169507 
1 1:0.18272748 2:0.64177823 3:0.64316981 4:0.23619229 5:0.33346956 6:0.19846511 
1 1:0.27658384 2:0.4087405 3:0.16395992 4:0.89015321 5:0.45603306 6:0.19907977 
1 1:0.62125754 2:0.45323171 3:0.32747903 4:0.83608667 5:0.46402104 6:0.60251427 
1 1:0.69810667 2:0.30090895 3:0.63067799 4:0.46975453 5:0.79354878 6:0.76605754 
1 1:0.66311252 2:0.7761952 3:0.56604523 4:0.47999488 5:0.81890238 6:0.5488452 
1 1:0.67013352 2:0.75170267 3:0.33798412 4:0.9098882 5:0.26698726 6:0.77065814 
1 1:0.45066681 2:0.22175839 3:0.30625199 4:0.66302944 5:0.92376079 6:0.24237022 
1 1:0.80478267 2:0.31042669 3:0.31239208 4:0.53072999 5:0.30405084 6:0.68283546 
1 1:0.66244359 2:0.33372827 3:0.19436689 4:0.74753388 5:0.11868376 6:0.41788012 
1 1:0.3112505 2:0.62168781 3:0.20379041 4:0.80733898 5:0.73482507 6:0.26800179 
1 1:0.17106505 2:0.45918945 3:0.32440501 4:0.98498819 5:0.48285363 6:0.36336706 
1 1:0.41744084 2:0.74697511 3:0.65234601 4:0.75736016 5:0.66280697 6:0.82503136 
1 1:0.73629269 2:0.61500128 3:0.324207 4:0.85700205 5:0.33412158 6:0.69811424 
1 1:0.46484614 2:0.21517721 3:0.66760478 4:0.034131552 5:0.48161708 6:0.15373004 
1 1:0.86149935 2:0.46684269 3:0.65860308 4:0.25140015 5:0.40548495 6:0.4842052 
1 1:0.66201045 2:0.18651518 3:0.5847684 4:0.26191474 5:0.40680489 6:0.91540633 
1 1:0.74237944 2:0.52154596 3:0.29703076 4:0.19731 5:0.63531261 6:0.97052781 
1 1:0.24453944 2:0.7016878 3:0.32210688 4:0.53492221 5:0.16552386 6:0.64879462 
1 1:0.71340926 2:0.56910752 3:0.39070412 4:0.80470567 5:0.52655527 6:0.53968041 
1 1:0.19181175 2:0.40990264 3:0.63846094 4:0.2759235 5:0.8616855 6:0.34545886 
1 1:0.64198067 2:0.23784719 3:0.26496758 4:0.55507989 5:0.54678815 6:0.70515895 
1 1:0.3519661 2:0.84440519 3:0.51966585 4:0.78068391 5:0.45258691 6:0.13453691 
1 1:0.59017032 2:0.66450435 3:0.1795018 4:0.16471134 5:0.31469691 6:0.28145716 
1 1:0.77958617 2:0.64766721 3:0.50392544 4:0.78759355 5:0.86780431 6:0.95646588 
1 1:0.89216185 2:0.4503016 3:0.53695443 4:0.67359392 5:0.85697877 6:0.44759551 
1 1:0.79993692 2:0.50958787 3:0.26933988 4:0.088675548 5:0.77686373 6:0.13962691 
1 1:0.65098447 2:0.63872562 3:0.46700304 4:0.88102423 5:0.54871373 6:0.6039063 
1 1:0.38376853 2:0.5854447 3:0.82648577 4:0.39560491 5:0.38010544 6:0.61950921 
1 1:0.19588091 2:0.53357807 3:0.77409706 4:0.30472938 5:0.64385956 6:0.28519684 
1 1:0.64315161 2:0.59042148 3:0.83487962 4:0.41090615 5:0.76452944 6:0.79209797 
1 1:0.24782295 2:0.57291639 3:0.73931811 4:0.66168222 5:0.72627247 6:0.10324406 
1 1:0.26812049 2:0.28140557 3:0.62275054 4:0.66539748 5:0.080386568 6:0.88805623 
1 1:0.2141572 2:0.55076326 3:0.71441937 4:0.4028279 5:0.14893111 6:0.30291182 
1 1:0.50189651 2:0.24774341 3:0.34240348 4:0.54285761 5:0.75665785 6:0.083879201 
1 1:0.75813834 2:0.29346568 3:0.44362385 4:0.53621199 5:0.31497524 6:0.71913746 
1 1:0.23547173 2:0.31552542 3:0.45630177 4:0.40394257 5:0.35248457 6:0.566025 
1 1:0.32907531 2:0.6382675 3:0.30852939 4:0.8001476 5:0.60917407 6:0.44336553 
1 1:0.72087496 2:0.76698542 3:0.39633677 4:0.43380958 5:0.54380554 6:0.66688122 
1 1:0.80625922 2:0.25370142 3:0.56973814 4:0.91686477 5:0.47714356 6:0.66359538 
1 1:0.77184846 2:0.73679408 3:0.47528656 4:0.21495805 5:0.60301688 6:0.84535404 
1 1:0.77885717 2:0.3323828 3:0.48832258 4:0.017574232 5:0.85725358 6:0.74590192 
1 1:0.38406393 2:0.40388785 3:0.7898481 4:0.9182047 5:0.4331866 6:0.062653733 
1 1:0.29850568 2:0.70025913 3:0.32349299 4:0.5571627 5:0.32156994 6:0.38757337 
1 1:0.74962769 2:0.35513336 3:0.72483778 4:0.039705842 5:0.59240869 6:0.10413968 
1 1:0.36099986 2:0.43914376 3:0.83913729 4:0.71326485 5:0.31484609 6:0.73393387 
1 1:0.81986011 2:0.46946541 3:0.44920827 4:0.17577237 5:0.72359306 6:0.3060728 
1 1:0.71659953 2:0.63193798 3:0.41569397 4:0.93390654 5:0.69477209 6:0.68569135 
1 1:0.54539025 2:0.22378419 3:0.46240841 4:0.56972188 5:0.69232719 6:0.91153034 
1 1:0.5360432 2:0.74815299 3:0.29248405 4:0.23193533 5:0.77728513 6:0.42292316 
1 1:0.46878847 2:0.76380858 3:0.33147458 4:0.93542489 5:0.20483076 6:0.62978001 
1 1:0.56600676 2:0.39080073 3:0.22189101 4:0.87034303 5:0.60671151 6:0.65626949 
1 1:0.2777945 2:0.40311507 3:0.50881594 4:0.77911076 5:0.8656369 6:0.024513908 
1 1:0.35125115 2:0.13148555 3:0.6213601 4:0.41968058 5:0.62472602 6:0.47893496 
1 1:0.22696497 2:0.29904952 3:0.38659736 4:0.18359766 5:0.65053854 6:0.74260542 
1 1:0.32522838 2:0.39858811 3:0.72053939 4:0.82962526 5:0.63685757 6:0.52381955 
1 1:0.56200695 2:0.46859426 3:0.56274372 4:0.33898579 5:0.7931974 6:0.073601922 
1 1:0.44073902 2:0.74786599 3:0.55026284 4:0.29790207 5:0.24474475 6:0.76071917 
1 1:0.21775638 2:0.38388453 3:0.49199285 4:0.38166892 5:0.63676493 6:0.56333641 
1 1:0.49426833 2:0.51216353 3:0.12054095 4:0.23313156 5:0.39339328 6:0.61420959 
1 1:0.52382607 2:0.34872404 3:0.22292416 4:0.073652476 5:0.59203592 6:0.94218951 
1 1:0.30601562 2:0.54430899 3:0.75973752 4:0.31170642 5:0.23620471 6:0.8985135 
1 1:0.25824526 2:0.69403791 3:0.67389588 4:0.96254175 5:0.85126096 6:0.87419708 
1 1:0.5069091 2:0.18968564 3:0.71356376 4:0.36785185 5:0.29843604 6:0.055169899 
1 1:0.43857491 2:0.83570793 3:0.41058027 4:0.88263803 5:0.73476692 6:0.87220071 
1 1:0.72789856 2:0.4855116 3:0.50736139 4:0.76965389 5:0.41628976 6:0.02542902 
1 1:0.14913512 2:0.50663547 3:0.63414214 4:0.29551317 5:0.27527757 6:0.20380314 
1 1:0.81712646 2:0.46797274 3:0.31539344 4:0.76403565 5:0.30039352 6:0.67658209 
1 1:0.3692267 2:0.7951863 3:0.49107468 4:0.013216186 5:0.43112901 6:0.36962072 
1 1:0.68722659 2:0.58841089 3:0.14420046 4:0.68896533 5:0.5557403 6:0.35963337 
1 1:0.3739359 2:0.1981941 3:0.55808511 4:0.025162827 5:0.68438123 6:0.69548617 
1 1:0.69876037 2:0.76651295 3:0.70825298 4:0.44779803 5:0.57557203 6:0.88048231 
1 1:0.80535575 2:0.47718475 3:0.62361968 4:0.11204605 5:0.23171624 6:0.63077841 
1 1:0.37258332 2:0.68468163 3:0.83854656 4:0.37955575 5:0.37020689 6:0.2588885 
1 1:0.64380525 2:0.58925829 3:0.15186587 4:0.78096987 5:0.24764141 6:0.98786926 
1 1:0.42796942 2:0.23998177 3:0.65054534 4:0.96790056 5:0.58138779 6:0.47104561 
1 1:0.57000317 2:0.4740239 3:0.57403262 4:0.83183172 5:0.28165072 6:0.21944325 
1 1:0.4426882 2:0.49382384 3:0.12333719 4:0.48964065 5:0.5831209 6:0.68963208 
1 1:0.68566191 2:0.4255788 3:0.19231514 4:0.019936468 5:0.37709209 6:0.8417654 
1 1:0.47235281 2:0.41527986 3:0.86058637 4:0.15988032 5:0.70962002 6:0.2616349 
1 1:0.34665706 2:0.48940402 3:0.73178931 4:0.63372499 5:0.27773498 6:0.22892675 
1 1:0.70874825 2:0.21313624 3:0.46986365 4:0.12467482 5:0.19173266 6:0.84021523 
1 1:0.51664103 2:0.65880207 3:0.51680849 4:0.12401574 5:0.15216979 6:0.28725009 
1 1:0.22417505 2:0.67941278 3:0.32204914 4:0.42021186 5:0.25573003 6:0.40057216 
1 1:0.27051426 2:0.76294978 3:0.58164934 4:0.48296354 5:0.38626532 6:0.21940713 
1 1:0.68125004 2:0.75079313 3:0.47577072 4:0.5596006 5:0.37791463 6:0.95787495 
1 1:0.70673926 2:0.29608767 3:0.25562372 4:0.64133847 5:0.46872133 6:0.9210518 
1 1:0.79638375 2:0.61690843 3:0.74171797 4:0.10510388 5:0.31673511 6:0.28791269 
1 1:0.32842285 2:0.62655706 3:0.67714823 4:0.099744911 5:0.69579599 6:0.8961069 
1 1:0.12468914 2:0.41660878 3:0.53766386 4:0.05056125 5:0.43246609 6:0.36638693 
1 1:0.65454669 2:0.24098945 3:0.71655164 4:0.26170875 5:0.20518134 6:0.83414238 
1 1:0.6655229 2:0.13889618 3:0.44945123 4:0.75241009 5:0.46848284 6:0.78666032 
1 1:0.41730255 2:0.8029359 3:0.62154622 4:0.1139111 5:0.59163728 6:0.087655873 
1 1:0.4633575 2:0.81997375 3:0.7487381 4:0.37165242 5:0.54395448 6:0.4884597 
1 1:0.32391434 2:0.73988743 3:0.35024865 4:0.59354033 5:0.84715863 6:0.85967157 
1 1:0.63000059 2:0.38771775 3:0.1894294 4:0.54732226 5:0.48237605 6:0.58815299 
1 1:0.50999571 2:0.68043672 3:0.63228378 4:0.54700367 5:0.41648355 6:0.14155474 
1 1:0.1947924 2:0.42833848 3:0.41480357 4:0.37779907 5:0.4797393 6:0.45814265 
1 1:0.27368697 2:0.63153028 3:0.75786958 4:0.86674686 5:0.51608676 6:0.27334705 
1 1:0.29685695 2:0.56875253 3:0.6751867 4:0.51490635 5:0.37040892 6:0.76903547 
1 1:0.49312684 2:0.82413974 3:0.45182138 4:0.71709981 5:0.31634007 6:0.17201079 
1 1:0.5954695 2:0.37005991 3:0.84210901 4:0.84382153 5:0.54516059 6:0.14401134 
1 1:0.61573019 2:0.43033853 3:0.51673583 4:0.99608686 5:0.36019329 6:0.99172503 
1 1:0.38312689 2:0.28998338 3:0.56885658 4:0.32653544 5:0.28730949 6:0.55126339 
1 1:0.52965773 2:0.14272458 3:0.43804613 4:0.07928728 5:0.38623254 6:0.72655629 
1 1:0.1524854 2:0.41592006 3:0.31995689 4:0.29044547 5:0.19752492 6:0.73253075 
1 1:0.2355636 2:0.65678614 3:0.63758101 4:0.6253607 5:0.51751325 6:0.37771312 
1 1:0.79578512 2:0.62528946 3:0.73484309 4:0.644711 5:0.48547061 6:0.027181162 
1 1:0.78574843 2:0.34098356 3:0.47654978 4:0.12377506 5:0.66922852 6:0.89128702 
1 1:0.70512505 2:0.37185683 3:0.79999132 4:0.097838607 5:0.40663877 6:0.30053852 
1 1:0.28778004 2:0.61931084 3:0.39784367 4:0.018557644 5:0.46988189 6:0.0060673038 
1 1:0.89164059 2:0.48790924 3:0.43037049 4:0.7826709 5:0.38306642 6:0.45579029 
1 1:0.19353547 2:0.51007157 3:0.5600544 4:0.30169088 5:0.4582556 6:0.53152849 
1 1:0.79405749 2:0.22250795 3:0.45694269 4:0.30183246 5:0.40331602 6:0.26825051 
1 1:0.50245718 2:0.70646226 3:0.777599 4:0.49707957 5:0.43769857 6:0.80192533 
1 1:0.60302417 2:0.64608024 3:0.13445109 4:0.27913355 5:0.27386566 6:0.88177299 
1 1:0.19002751 2:0.45160811 3:0.69998292 4:0.90868436 5:0.76899115 6:0.62527589 
1 1:0.19657794 2:0.26503062 3:0.56985048 4:0.36089227 5:0.75977533 6:0.074472332 
1 1:0.25473795 2:0.55806421 3:0.30119433 4:0.013902419 5:0.26531721 6:0.83730092 
1 1:0.41543785 2:0.39831486 3:0.71364197 4:0.56633522 5:0.31155361 6:0.81216954 
1 1:0.84477873 2:0.30996045 3:0.481981 4:0.95018444 5:0.37876614 6:0.2169361 
1 1:0.61110254 2:0.14758628 3:0.53946907 4:0.56852985 5:0.31878918 6:0.22533452 
1 1:0.42319438 2:0.37587366 3:0.80431279 4:0.81603757 5:0.40382976 6:0.10145478 
1 1:0.35340031 2:0.28475339 3:0.16686045 4:0.65084602 5:0.51724175 6:0.80404271 
1 1:0.34702383 2:0.71354392 3:0.26721998 4:0.19919776 5:0.77131718 6:0.27043183 
1 1:0.5173192 2:0.8114616 3:0.48971621 4:0.59924083 5:0.6806061 6:0.99419354 
1 1:0.58716184 2:0.29292411 3:0.74535218 4:0.56418679 5:0.46287085 6:0.76413791 
1 1:0.49987984 2:0.36082286 3:0.88384733 4:0.45308865 5:0.54715689 6:0.92250956 
1 1:0.2577589 2:0.63642354 3:0.40509328 4:0.21117842 5:0.4900051 6:0.054391977 
1 1:0.62634909 2:0.66471097 3:0.82974299 4:0.40871207 5:0.57257433 6:0.53793986 
1 1:0.55415512 2:0.68884158 3:0.8161312 4:0.88261855 5:0.68464748 6:0.19848217 
1 1:0.65228193 2:0.46287541 3:0.48339315 4:0.84041276 5:0.97917836 6:0.50141904 
1 1:0.64308027 2:0.25741666 3:0.34791942 4:0.95979962 5:0.7451906 6:0.90519038 
1 1:0.15405769 2:0.64894215 3:0.48709293 4:0.68563057 5:0.48067323 6:0.69846029 
1 1:0.60651099 2:0.35742014 3:0.78928867 4:0.60954507 5:0.55003649 6:0.74730788 
1 1:0.62476925 2:0.30340459 3:0.19776419 4:0.05176869 5:0.27886427 6:0.95446427 
1 1:0.38724823 2:0.75905825 3:0.27240721 4:0.026835362 5:0.29222367 6:0.43791048 
1 1:0.46547343 2:0.64659043 3:0.60658645 4:0.89822722 5:0.54387728 6:0.34940436 
1 1:0.48323583 2:0.8567201 3:0.66772497 4:0.51829865 5:0.43392694 6:0.37077355 
1 1:0.48906435 2:0.87608165 3:0.44189678 4:0.1702038 5:0.178505 6:0.27335647 
1 1:0.7357548 2:0.69625546 3:0.44052932 4:0.67104128 5:0.43636045 6:0.14085005 
1 1:0.69805428 2:0.48913758 3:0.18880528 4:0.87601437 5:0.59086619 6:0.70615289 
1 1:0.21656892 2:0.60539942 3:0.28933444 4:0.5725812 5:0.69866644 6:0.077016272 
1 1:0.77153997 2:0.44473078 3:0.23306117 4:0.70263394 5:0.18256348 6:0.53059492 
1 1:0.75190952 2:0.63776476 3:0.52492894 4:0.2578691 5:0.49522969 6:0.10302973 
1 1:0.63732453 2:0.1629169 3:0.60387606 4:0.19855477 5:0.67340326 6:0.51775898 
1 1:0.82974404 2:0.45346839 3:0.67402215 4:0.50154359 5:0.44391874 6:0.94178033 
1 1:0.29551968 2:0.52613145 3:0.34032171 4:0.093286162 5:0.74560995 6:0.97685878 
1 1:0.3055846 2:0.37739105 3:0.16312283 4:0.17741457 5:0.54193764 6:0.50752787 
1 1:0.59567444 2:0.76935789 3:0.22411763 4:0.24605447 5:0.15936777 6:0.84909523 
1 1:0.21778054 2:0.24700934 3:0.34686237 4:0.83087868 5:0.47215203 6:0.34816055 
1 1:0.81702469 2:0.64235283 3:0.33329121 4:0.019186738 5:0.28844585 6:0.4265031 
1 1:0.43860284 2:0.2220925 3:0.34976482 4:0.10420808 5:0.45091282 6:0.0074443062 
1 1:0.78550824 2:0.46365372 3:0.46633494 4:0.28054128 5:0.49782033 6:0.99150388 
1 1:0.23532105 2:0.31329512 3:0.7366467 4:0.18777014 5:0.45751133 6:0.80228069 
1 1:0.50470619 2:0.17756425 3:0.6412081 4:0.26507362 5:0.52943826 6:0.69306275 
1 1:0.15078539 2:0.55177915 3:0.69020772 4:0.39693029 5:0.24609676 6:0.75870062 
1 1:0.24251298 2:0.31762306 3:0.36088832 4:0.45560345 5:0.16104517 6:0.021557473 
1 1:0.50488408 2:0.35405599 3:0.75273586 4:0.92347978 5:0.48305576 6:0.65375292 
1 1:0.17905906 2:0.47330319 3:0.68271209 4:0.83398386 5:0.15695349 6:0.3293404 
1 1:0.61084611 2:0.77044526 3:0.28616287 4:0.49589159 5:0.50080112 6:0.96740095 
1 1:0.15613824 2:0.50453177 3:0.65380923 4:0.029988529 5:0.76467152 6:0.4136929 
1 1:0.23846025 2:0.69269654 3:0.41044479 4:0.50836898 5:0.87992154 6:0.27258497 
1 1:0.64061948 2:0.61959239 3:0.30954832 4:0.42415877 5:0.49667034 6:0.43607163 
1 1:0.46166725 2:0.44415198 3:0.78046351 4:0.38062594 5:0.2895004 6:0.86506318 
1 1:0.5657464 2:0.50977824 3:0.7502755 4:0.36602093 5:0.47098834 6:0.31190257 
1 1:0.28776962 2:0.83323248 3:0.55603173 4:0.19627769 5:0.3391867 6:0.54301496 
1 1:0.3728867 2:0.51267604 3:0.65234636 4:0.65020156 5:0.62273317 6:0.03092749 
1 1:0.34332488 2:0.17543003 3:0.58539161 4:0.27635368 5:0.88546722 6:0.8322049 
1 1:0.29908354 2:0.6066031 3:0.2485871 4:0.19053865 5:0.43427491 6:0.1291109 
1 1:0.77096379 2:0.66797376 3:0.24123028 4:0.54185526 5:0.38264233 6:0.072444216 
1 1:0.38846492 2:0.50309409 3:0.16936183 4:0.56736189 5:0.73527615 6:0.84647799 
1 1:0.4744747 2:0.63818248 3:0.71730923 4:0.37378987 5:0.27920766 6:0.18432879 
1 1:0.33042161 2:0.17128693 3:0.5763056 4:0.75156777 5:0.4364693 6:0.79728977 
1 1:0.61427215 2:0.60654767 3:0.86900956 4:0.9141999 5:0.61848815 6:0.52119128 
1 1:0.25508186 2:0.51473471 3:0.50582514 4:0.83281449 5:0.32171496 6:0.35382606 
1 1:0.54609917 2:0.65671714 3:0.18529972 4:0.14638135 5:0.74619688 6:0.44354197 
1 1:0.34736252 2:0.85068701 3:0.52049037 4:0.14549596 5:0.68247256 6:0.62675293 
1 1:0.54321341 2:0.28260811 3:0.55996093 4:0.12506795 5:0.44823164 6:0.024283732 
1 1:0.52224282 2:0.58235024 3:0.54672672 4:0.47609524 5:0.083718929 6:0.092265355 
1 1:0.40002533 2:0.80182601 3:0.28401594 4:0.49577831 5:0.37991179 6:0.78186837 
1 1:0.62420208 2:0.42785844 3:0.14713399 4:0.46012848 5:0.64789123 6:0.069431767 
1 1:0.30435049 2:0.4685528 3:0.25617967 4:0.73198041 5:0.84442397 6:0.46050962 
1 1:0.53136654 2:0.21725224 3:0.19321843 4:0.5652714 5:0.38567021 6:0.037470193 
1 1:0.27364547 2:0.75498952 3:0.43380715 4:0.27482297 5:0.063370741 6:0.58619867 
1 1:0.4877545 2:0.74942343 3:0.24154835 4:0.53699503 5:0.80829476 6:0.85533636 
1 1:0.54388285 2:0.34273573 3:0.23689081 4:0.61117873 5:0.5607814 6:0.27612547 
1 1:0.35640418 2:0.34588444 3:0.34856751 4:0.22494762 5:0.13106513 6:0.73108653 
1 1:0.27319324 2:0.68672256 3:0.39779133 4:0.37394017 5:0.7013124 6:0.37118854 
1 1:0.68753017 2:0.57279103 3:0.46254102 4:0.67706757 5:0.81394402 6:0.36673401 
1 1:0.83733169 2:0.6365341 3:0.4162807 4:0.27412305 5:0.7586716 6:0.97738686 
1 1:0.2785902 2:0.42982787 3:0.43818524 4:0.69783703 5:0.95190227 6:0.87189429 
1 1:0.48614811 2:0.43569037 3:0.64654208 4:0.096862452 5:0.46422558 6:0.15583314 
1 1:0.63351636 2:0.31859665 3:0.75251463 4:0.95107975 5:0.37930289 6:0.091231792 
1 1:0.56578454 2:0.61324906 3:0.12509892 4:0.45351474 5:0.43021946 6:0.47956572 
1 1:0.22423595 2:0.69525087 3:0.35416972 4:0.80147113 5:0.84340473 6:0.51736913 
1 1:0.39468776 2:0.24794528 3:0.73696349 4:0.81204144 5:0.90665304 6:0.83117246 
1 1:0.26308639 2:0.44315469 3:0.76256359 4:0.60493437 5:0.42820145 6:0.7829335 
1 1:0.22318332 2:0.42992055 3:0.69471313 4:0.087970723 5:0.86951932 6:0.64207367 
1 1:0.73206106 2:0.64494754 3:0.68534413 4:0.37341957 5:0.16597801 6:0.93400711 
1 1:0.48825241 2:0.55072609 3:0.91878017 4:0.79041958 5:0.57940305 6:0.70809499 
1 1:0.48905282 2:0.27297572 3:0.83895036 4:0.76214883 5:0.43502687 6:0.39077698 
1 1:0.80637739 2:0.5762501 3:0.35991994 4:0.8925263 5:0.58450714 6:0.17326727 
1 1:0.52568801 2:0.49163185 3:0.865075 4:0.01673075 5:0.72526842 6:0.68793795 
1 1:0.12616693 2:0.53036204 3:0.54053424 4:0.78273332 5:0.3505409 6:0.61287061 
1 1:0.51985625 2:0.41348853 3:0.39186105 4:0.36473235 5:0.44296183 6:0.64823433 
1 1:0.79169525 2:0.31983568 3:0.57231392 4:0.0033224692 5:0.23322112 6:0.79219528 
1 1:0.35345259 2:0.30437273 3:0.27291267 4:0.86301669 5:0.5970201 6:0.33606154 
1 1:0.40910036 2:0.34860665 3:0.18344392 4:0.11620189 5:0.4715705 6:0.8710814 
1 1:0.8436259 2:0.63730125 3:0.53807018 4:0.87193216 5:0.48079065 6:0.17908969 
1 1:0.14691855 2:0.40575801 3:0.4803972 4:0.13957423 5:0.54255053 6:0.043099071 
1 1:0.61279363 2:0.56454223 3:0.10578838 4:0.68440092 5:0.32608046 6:0.36469171 
1 1:0.54107876 2:0.71175822 3:0.37131668 4:0.15768363 5:0.82590297 6:0.62717139 
1 1:0.6684367 2:0.69139116 3:0.5353582 4:0.040360189 5:0.34933415 6:0.95613827 
1 1:0.53995512 2:0.62133376 3:0.81218003 4:0.40344115 5:0.59313444 6:0.67484434 
1 1:0.31931211 2:0.62208234 3:0.83711899 4:0.88833235 5:0.83331035 6:0.5216347 
1 1:0.80361734 2:0.48815725 3:0.35268139 4:0.66333166 5:0.73108221 6:0.48096221 
1 1:0.55818506 2:0.37779731 3:0.53766326 4:0.63721138 5:0.54536351 6:0.52005653 
1 1:0.66321514 2:0.80599005 3:0.39570505 4:0.50317792 5:0.2851825 6:0.43207615 
1 1:0.26376515 2:0.67676775 3:0.49930131 4:0.79334784 5:0.4559146 6:0.52888294 
1 1:0.73072061 2:0.48178948 3:0.72538283 4:0.13890197 5:0.28440528 6:0.68772379 
1 1:0.62397673 2:0.74114293 3:0.62131155 4:0.54719635 5:0.75708202 6:0.73137784 
1 1:0.39461252 2:0.13755879 3:0.32698759 4:0.63582478 5:0.29440427 6:0.3714351 
1 1:0.40379911 2:0.21539506 3:0.30460572 4:0.30558532 5:0.49417204 6:0.07673417 
1 1:0.20245156 2:0.57371521 3:0.5929877 4:0.10154815 5:0.73688823 6:0.33464138 
1 1:0.3205607 2:0.19395737 3:0.57120296 4:0.16565013 5:0.12170266 6:0.16462551 
1 1:0.24608078 2:0.3174747 3:0.59291634 4:0.44961377 5:0.24342162 6:0.40577537 
1 1:0.40670155 2:0.18669168 3:0.28865937 4:0.86717194 5:0.76451448 6:0.013723509 
1 1:0.60267882 2:0.46280245 3:0.13419095 4:0.4706681 5:0.53864399 6:0.25915307 
1 1:0.49220153 2:0.57564884 3:0.37475438 4:0.95082872 5:0.57331071 6:0.57372031 
1 1:0.50253057 2:0.11519553 3:0.50156319 4:0.31065607 5:0.3083079 6:0.18195496 
1 1:0.18336586 2:0.3252023 3:0.63369583 4:0.30462987 5:0.86720904 6:0.63284713 
1 1:0.6938736 2:0.25397698 3:0.69982316 4:0.82037222 5:0.68398238 6:0.084347532 
1 1:0.23701522 2:0.61150285 3:0.60912995 4:0.31276998 5:0.15237411 6:0.92087956 
1 1:0.80594159 2:0.68813436 3:0.2789274 4:0.23162414 5:0.32628106 6:0.79595481 
1 1:0.51212443 2:0.68794651 3:0.25677164 4:0.59192499 5:0.71576008 6:0.47121089 
1 1:0.46353501 2:0.45600696 3:0.88470313 4:0.56933616 5:0.32568121 6:0.27724956 
1 1:0.42139869 2:0.71120506 3:0.30811512 4:0.59917398 5:0.72244134 6:0.36951954 
1 1:0.73306314 2:0.40156506 3:0.81038863 4:0.44340374 5:0.54781964 6:0.75928031 
1 1:0.36818015 2:0.72386846 3:0.74263828 4:0.60456467 5:0.56620538 6:0.70498737 
1 1:0.7285296 2:0.51427915 3:0.80123447 4:0.35697276 5:0.68937187 6:0.45251422 
1 1:0.5962081 2:0.84608882 3:0.60312139 4:0.4025285 5:0.14967185 6:0.74368484 
1 1:0.61217623 2:0.25954334 3:0.4986526 4:0.62616109 5:0.18193313 6:0.47961734 
1 1:0.3957078 2:0.39411455 3:0.86231497 4:0.31143534 5:0.76446481 6:0.71054009 
1 1:0.70515064 2:0.42637951 3:0.4909259 4:0.27528155 5:0.28324621 6:0.87749126 
1 1:0.56827081 2:0.25189571 3:0.25366358 4:0.68164702 5:0.68211842 6:0.72966079 
1 1:0.39100119 2:0.5973851 3:0.27684793 4:0.78427148 5:0.4050491 6:0.93052399 
1 1:0.37832705 2:0.82568372 3:0.421059 4:0.24797947 5:0.56990908 6:0.58368039 
1 1:0.74899648 2:0.2425876 3:0.5655984 4:0.78379068 5:0.94309807 6:0.17007678 
1 1:0.53877074 2:0.27292696 3:0.51269808 4:0.17269094 5:0.1873764 6:0.98404001 
1 1:0.59071078 2:0.8703455 3:0.48432694 4:0.68151387 5:0.5388782 6:0.072603839 
1 1:0.55945573 2:0.14008044 3:0.35338688 4:0.3664064 5:0.33985563 6:0.61115532 
1 1:0.47938149 2:0.15995498 3:0.60321318 4:0.32595494 5:0.56444158 6:0.31734257 
1 1:0.61274346 2:0.73554891 3:0.58324625 4:0.47661068 5:0.76567604 6:0.062490403 
1 1:0.45328544 2:0.3753129 3:0.19424865 4:0.171574 5:0.54355254 6:0.7833753 
1 1:0.64759827 2:0.58307371 3:0.42672831 4:0.093100653 5:0.68079758 6:0.64234565 
1 1:0.64284178 2:0.69905773 3:0.3384837 4:0.93129636 5:0.8040888 6:0.94936352 
1 1:0.70448399 2:0.43929348 3:0.81970149 4:0.27929983 5:0.57150123 6:0.64818095 
1 1:0.41340506 2:0.43394642 3:0.29658565 4:0.6584444 5:0.5538389 6:0.69190477 
1 1:0.68202404 2:0.3459723 3:0.38769799 4:0.64298946 5:0.30099338 6:0.081440636 
1 1:0.56455255 2:0.69658888 3:0.28497827 4:0.60690079 5:0.21895497 6:0.75768621 
1 1:0.45084833 2:0.56350317 3:0.44492629 4:0.56859808 5:0.69203241 6:0.032382521 
1 1:0.22227833 2:0.27301014 3:0.46256105 4:0.66985069 5:0.744958 6:0.72451993 
1 1:0.47714964 2:0.32466647 3:0.2354363 4:0.43263572 5:0.51336871 6:0.7511012 
1 1:0.35304171 2:0.60861223 3:0.78084197 4:0.8888854 5:0.74451998 6:0.30841981 
1 1:0.40971546 2:0.65918812 3:0.69294653 4:0.98731744 5:0.80762107 6:0.31401365 
1 1:0.41730322 2:0.37242053 3:0.87842624 4:0.5024061 5:0.61873396 6:0.50666492 
1 1:0.63263085 2:0.47087787 3:0.17159099 4:0.51157472 5:0.7951059 6:0.19434317 
1 1:0.48247346 2:0.37474831 3:0.87087981 4:0.14923175 5:0.67976755 6:0.43623059 
1 1:0.84381961 2:0.60501785 3:0.45162259 4:0.75903974 5:0.65394121 6:0.5744384 
1 1:0.4004982 2:0.38678175 3:0.85779372 4:0.99188943 5:0.50708834 6:0.063091142 
1 1:0.8468835 2:0.57633276 3:0.40263202 4:0.55957482 5:0.61815206 6:0.18730117 
1 1:0.253395 2:0.5488763 3:0.28202433 4:0.74242928 5:0.38359445 6:0.86637307 
1 1:0.31390494 2:0.44663174 3:0.65436298 4:0.2066181 5:0.21333814 6:0.04315495 
1 1:0.7074818 2:0.35398966 3:0.20551982 4:0.25162548 5:0.64662279 6:0.39503034 
1 1:0.67362067 2:0.31632351 3:0.54985014 4:0.25739683 5:0.22341683 6:0.37300427 
1 1:0.88654344 2:0.57781631 3:0.59559735 4:0.25354801 5:0.36031588 6:0.92434169 
1 1:0.67534964 2:0.20467149 3:0.60479221 4:0.3405085 5:0.15154048 6:0.1730895 
1 1:0.72798197 2:0.59065717 3:0.79328786 4:0.47379473 5:0.75563764 6:0.95310728 
1 1:0.28383103 2:0.38565016 3:0.51802021 4:0.50108375 5:0.045264813 6:0.46688018 
1 1:0.76824455 2:0.6494967 3:0.61086866 4:0.90832379 5:0.77106306 6:0.53278919 
1 1:0.43217987 2:0.67033579 3:0.61610372 4:0.23956976 5:0.37471831 6:0.39815193 
1 1:0.18139105 2:0.6353615 3:0.63802308 4:0.74866763 5:0.68769706 6:0.64706341 
1 1:0.59594016 2:0.64864217 3:0.14754124 4:0.27134144 5:0.51505721 6:0.31583079 
1 1:0.26861558 2:0.20746946 3:0.58393743 4:0.23668016 5:0.37884544 6:0.71497584 
1 1:0.56863777 2:0.36803018 3:0.8894276 4:0.23277782 5:0.56403398 6:0.29546902 
1 1:0.52819301 2:0.74501567 3:0.33150037 4:0.5849116 5:0.31405115 6:0.99232466 
1 1:0.59186395 2:0.36704958 3:0.78436537 4:0.80915007 5:0.24173059 6:0.79022447 
1 1:0.35916665 2:0.14433067 3:0.49565428 4:0.46815068 5:0.41982206 6:0.28631493 
1 1:0.15939557 2:0.51492941 3:0.30741949 4:0.77950529 5:0.37183903 6:0.73589376 
1 1:0.50891752 2:0.53962027 3:0.80332986 4:0.071434324 5:0.19019462 6:0.65985036 
1 1:0.16664935 2:0.40082617 3:0.41695785 4:0.54180335 5:0.90730983 6:0.16241554 
1 1:0.48632282 2:0.87964409 3:0.55363554 4:0.48190921 5:0.41035744 6:0.45916129 
1 1:0.80506398 2:0.63931304 3:0.31411214 4:0.31666304 5:0.20705094 6:0.81067507 
1 1:0.18244218 2:0.56545814 3:0.36365353 4:0.40260994 5:0.15713869 6:0.86807366 
1 1:0.16355228 2:0.30077841 3:0.46186704 4:0.81682689 5:0.56987828 6:0.77147672 
1 1:0.85073855 2:0.62166881 3:0.38115865 4:0.96146344 5:0.70783814 6:0.7624777 
1 1:0.55721119 2:0.21549068 3:0.23834894 4:0.80296822 5:0.46059378 6:0.2391549 
1 1:0.63996365 2:0.84686077 3:0.44150368 4:0.37631798 5:0.35490308 6:0.63425604 
1 1:0.4836721 2:0.5571663 3:0.16795859 4:0.28866505 5:0.6798599 6:0.79578098 
1 1:0.53346626 2:0.25015788 3:0.4616793 4:0.61698568 5:0.73503414 6:0.68196213 
1 1:0.51911733 2:0.13108229 3:0.43115497 4:0.55931179 5:0.81232647 6:0.088852187 
1 1:0.55412469 2:0.21684859 3:0.52867901 4:0.30598906 5:0.59211645 6:0.89321332 
1 1:0.7311863 2:0.38487758 3:0.34710857 4:0.7160243 5:0.47438554 6:0.031228234 
1 1:0.55540504 2:0.67213392 3:0.72041104 4:0.71523554 5:0.65231283 6:0.71126793 
1 1:0.53449049 2:0.21045979 3:0.64148159 4:0.27149952 5:0.5212583 6:0.77104233 
1 1:0.57843947 2:0.12482572 3:0.51145326 4:0.33892415 5:0.67407263 6:0.850434 
1 1:0.54647033 2:0.2175854 3:0.60429932 4:0.8846692 5:0.077282552 6:0.10974024 
1 1:0.69527311 2:0.7330948 3:0.57547286 4:0.38433572 5:0.48583479 6:0.99291725 
1 1:0.78931432 2:0.46588944 3:0.45223533 4:0.43899865 5:0.60291053 6:0.46137748 
1 1:0.77675705 2:0.57760689 3:0.33722827 4:0.81529455 5:0.60783515 6:0.72995568 
1 1:0.37333859 2:0.72825545 3:0.80754292 4:0.5274203 5:0.31937168 6:0.91864942 
1 1:0.74909972 2:0.65751981 3:0.44743717 4:0.32313311 5:0.3462223 6:0.41657637 
1 1:0.71406266 2:0.4355036 3:0.59452941 4:0.76577665 5:0.81411973 6:0.42111617 
1 1:0.36050639 2:0.70155712 3:0.62579738 4:0.50503054 5:0.66569313 6:0.014799397 
1 1:0.75014716 2:0.2303737 3:0.62392011 4:0.58020808 5:0.72991369 6:0.13794408 
1 1:0.25851565 2:0.72637701 3:0.47176625 4:0.54970426 5:0.41523762 6:0.15181902 
1 1:0.60609918 2:0.29982068 3:0.42507049 4:0.12245592 5:0.4005214 6:0.45011889 
1 1:0.35543471 2:0.56195125 3:0.86737794 4:0.34982057 5:0.64612884 6:0.16698677 
1 1:0.76114697 2:0.77014473 3:0.36455339 4:0.25541419 5:0.6782859 6:0.58830402 
1 1:0.31983673 2:0.58749831 3:0.24309501 4:0.47387472 5:0.68277222 6:0.81514638 
1 1:0.56821672 2:0.83971028 3:0.58171566 4:0.40188381 5:0.826613 6:0.94823866 
1 1:0.41905338 2:0.79604973 3:0.37114119 4:0.33686223 5:0.81249453 6:0.19834028 
1 1:0.33386168 2:0.13873884 3:0.40365514 4:0.65976821 5:0.43364226 6:0.60496586 
1 1:0.64511199 2:0.48674904 3:0.71476517 4:0.40560585 5:0.77675143 6:0.13345267 
1 1:0.59379547 2:0.69199835 3:0.78390262 4:0.66083401 5:0.37064696 6:0.7273559 
1 1:0.65989855 2:0.32541682 3:0.2407767 4:0.15150852 5:0.046223068 6:0.97948599 
1 1:0.8386234 2:0.58165266 3:0.68174943 4:0.20000414 5:0.2124119 6:0.7565871 
1 1:0.47107893 2:0.34798102 3:0.2049744 4:0.61062716 5:0.67340261 6:0.85781307 
1 1:0.737252 2:0.57168645 3:0.39785154 4:0.40233775 5:0.17769264 6:0.91134779 
1 1:0.60103918 2:0.34334813 3:0.75302458 4:0.38314206 5:0.47833221 6:0.92918678 
1 1:0.68965981 2:0.34984613 3:0.49640188 4:0.77034665 5:0.8341177 6:0.69740108 
1 1:0.8835685 2:0.57649975 3:0.55123845 4:0.0089649715 5:0.51423259 6:0.18511446 
1 1:0.16812527 2:0.61530189 3:0.58550666 4:0.77403604 5:0.37836798 6:0.58134808 
1 1:0.20499096 2:0.50905868 3:0.21317313 4:0.2334602 5:0.40211973 6:0.49154677 
1 1:0.67265971 2:0.35159826 3:0.8059687 4:0.23355976 5:0.78268789 6:0.51615243 
1 1:0.289341 2:0.82512928 3:0.50684493 4:0.50942616 5:0.60198081 6:0.82031748 
1 1:0.25255683 2:0.31167401 3:0.35247239 4:0.66988014 5:0.12454031 6:0.18893616 
1 1:0.4354986 2:0.86545764 3:0.35956172 4:0.50173493 5:0.34356023 6:0.67283313 
1 1:0.55440074 2:0.6916732 3:0.60244399 4:0.055536941 5:0.25473289 6:0.39719782 
1 1:0.61766939 2:0.56360615 3:0.10385947 4:0.24515059 5:0.51462432 6:0.73881251 
1 1:0.25474471 2:0.70312298 3:0.68145665 4:0.81792379 5:0.44323847 6:0.35057753 
1 1:0.41885183 2:0.67017089 3:0.260335 4:0.85377693 5:0.49402269 6:0.33384875 
1 1:0.62480133 2:0.57343424 3:0.2195491 4:0.33003315 5:0.77859052 6:0.88257564 
1 1:0.59473427 2:0.34357049 3:0.19635165 4:0.64083547 5:0.60457659 6:0.82176946 
1 1:0.15563137 2:0.46677265 3:0.40528166 4:0.73722342 5:0.30230776 6:0.88767107 
1 1:0.25749819 2:0.17500446 3:0.55955479 4:0.70251155 5:0.52986289 6:0.50557441 
1 1:0.16253626 2:0.51918081 3:0.68143417 4:0.27662837 5:0.58196725 6:0.65813869 
1 1:0.33799505 2:0.51462146 3:0.88770154 4:0.36228909 5:0.49429473 6:0.52874065 
1 1:0.72127034 2:0.6488191 3:0.52938607 4:0.85963531 5:0.14537058 6:0.41670476 
1 1:0.83482901 2:0.48522659 3:0.43713797 4:0.78935975 5:0.11674416 6:0.55318915 
1 1:0.29160861 2:0.74601208 3:0.68701399 4:0.40258795 5:0.67299933 6:0.94632618 
1 1:0.52856056 2:0.33804681 3:0.84909822 4:0.39631201 5:0.55499803 6:0.75781122 
1 1:0.78270075 2:0.68849269 3:0.60666484 4:0.36555595 5:0.59274366 6:0.075810765 
1 1:0.49801042 2:0.84384867 3:0.42127255 4:0.62934593 5:0.28279216 6:0.06512133 
1 1:0.51047203 2:0.17207594 3:0.62914842 4:0.48319515 5:0.74263223 6:0.32727162 
1 1:0.64352993 2:0.69289863 3:0.54513546 4:0.86142353 5:0.33217637 6:0.44779832 
1 1:0.63297789 2:0.78403799 3:0.37698017 4:0.42960456 5:0.73779033 6:0.92802669 
1 1:0.60658786 2:0.52840385 3:0.14360469 4:0.60471073 5:0.45563735 6:0.2444288 
1 1:0.22165464 2:0.34048269 3:0.55862542 4:0.90986371 5:0.85605946 6:0.97505648 
1 1:0.16485715 2:0.50020967 3:0.68571222 4:0.89154136 5:0.63930299 6:0.2958351 
1 1:0.24570654 2:0.50702885 3:0.79739714 4:0.93759654 5:0.93686271 6:0.81839643 
1 1:0.77166572 2:0.72946048 3:0.57456135 4:0.59353155 5:0.7217285 6:0.27823942 
1 1:0.60625988 2:0.68877568 3:0.81134181 4:0.97439622 5:0.4158675 6:0.66043108 
1 1:0.56134865 2:0.37222798 3:0.26226996 4:0.92953569 5:0.61467993 6:0.94281389 
1 1:0.42608687 2:0.47742944 3:0.67055275 4:0.11266695 5:0.61579397 6:0.3405825 
1 1:0.7808837 2:0.32008315 3:0.3943296 4:0.92292105 5:0.89335963 6:0.93834033 
1 1:0.44446129 2:0.57079236 3:0.54916791 4:0.4016792 5:0.44860153 6:0.2243118 
1 1:0.75541709 2:0.4132057 3:0.54016515 4:0.1401785 5:0.72171042 6:0.098941249 
1 1:0.14926319 2:0.37949729 3:0.34784176 4:0.57188819 5:0.43133656 6:0.58433876 
1 1:0.76829684 2:0.36803919 3:0.74087843 4:0.80511584 5:0.8225465 6:0.56400371 
1 1:0.68894576 2:0.29912544 3:0.34815668 4:0.13772787 5:0.88624281 6:0.16296196 
1 1:0.68064206 2:0.67741881 3:0.60676399 4:0.96294989 5:0.82374411 6:0.63553587 
1 1:0.54760976 2:0.31592355 3:0.15403542 4:0.74853293 5:0.73968637 6:0.75525527 
1 1:0.81560082 2:0.45426961 3:0.24795782 4:0.69134192 5:0.68435996 6:0.10177461 
1 1:0.6076578 2:0.65541597 3:0.47712168 4:0.81128848 5:0.69083538 6:0.5001249 
1 1:0.63832827 2:0.79185679 3:0.37716016 4:0.57906224 5:0.062570112 6:0.084415853 
1 1:0.32306523 2:0.58949009 3:0.19952039 4:0.4991739 5:0.20483692 6:0.57461899 
1 1:0.28556379 2:0.39785298 3:0.20867389 4:0.22869272 5:0.27123033 6:0.82208755 
1 1:0.16446445 2:0.43099918 3:0.42288755 4:0.87894991 5:0.59815275 6:0.39098596 
1 1:0.62716397 2:0.52485546 3:0.80693355 4:0.90037262 5:0.22068261 6:0.22023145 
1 1:0.38602874 2:0.21755109 3:0.53632205 4:0.27110168 5:0.12802015 6:0.2487092 
1 1:0.55970181 2:0.60061166 3:0.79598603 4:0.22148929 5:0.36606526 6:0.37062466 
1 1:0.23272917 2:0.69455051 3:0.67383536 4:0.69001201 5:0.62302842 6:0.4631807 
1 1:0.41106494 2:0.66799309 3:0.78962813 4:0.058142541 5:0.3029008 6:0.2706076 
1 1:0.47379552 2:0.56442968 3:0.14067746 4:0.60667233 5:0.65205101 6:0.76805561 
1 1:0.28925333 2:0.32527682 3:0.71974902 4:0.76610147 5:0.4675896 6:0.070021121 
1 1:0.43570708 2:0.098356257 3:0.54586329 4:0.34271253 5:0.54985728 6:0.50865708 
1 1:0.33565237 2:0.26965262 3:0.69721406 4:0.96261675 5:0.49143337 6:0.20658801 
1 1:0.46884011 2:0.72129881 3:0.52873022 4:0.0021894544 5:0.16886589 6:0.092674638 
1 1:0.29005196 2:0.15150433 3:0.558837 4:0.47726704 5:0.56457452 6:0.68261546 
1 1:0.44979221 2:0.47138135 3:0.86138772 4:0.30223519 5:0.77111377 6:0.86808907 
1 1:0.63850708 2:0.76364451 3:0.53710661 4:0.29549886 5:0.92192382 6:0.77326272 
1 1:0.83201052 2:0.38868992 3:0.47886531 4:0.86783654 5:0.77490691 6:0.69250997 
1 1:0.34684143 2:0.18183501 3:0.43241731 4:0.81001682 5:0.41823598 6:0.59303292 
1 1:0.69694457 2:0.72813397 3:0.68601041 4:0.58704031 5:0.92498413 6:0.8177463 
1 1:0.69045928 2:0.47496358 3:0.54494612 4:0.43384423 5:0.74290958 6:0.09352229 
1 1:0.41342452 2:0.14217878 3:0.46873203 4:0.31866045 5:0.55801932 6:0.76270982 
1 1:0.18008558 2:0.67854123 3:0.51725226 4:0.86793496 5:0.41489388 6:0.075435754 
1 1:0.44687019 2:0.5230141 3:0.10012698 4:0.085633517 5:0.14015967 6:0.67359685 
1 1:0.51309312 2:0.36879404 3:0.369321 4:0.89132785 5:0.54622067 6:0.87833506 
1 1:0.49088274 2:0.28566131 3:0.44628761 4:0.42497673 5:0.21300127 6:0.55488595 
1 1:0.48567377 2:0.87712265 3:0.43823136 4:0.45512341 5:0.50908924 6:0.19698082 
1 1:0.41597368 2:0.77719977 3:0.66604811 4:0.10217136 5:0.27163405 6:0.9589747 
1 1:0.28499641 2:0.32621969 3:0.23739501 4:0.91634914 5:0.80659596 6:0.8722014 
1 1:0.54970232 2:0.76965007 3:0.2703945 4:0.10152786 5:0.4149445 6:0.17802333 
1 1:0.52696483 2:0.73689024 3:0.31009791 4:0.23909967 5:0.72615037 6:0.29549759 
1 1:0.48672612 2:0.63089593 3:0.69366894 4:0.42677361 5:0.5938791 6:0.24848524 
1 1:0.47894764 2:0.63818406 3:0.86215717 4:0.38831709 5:0.78425471 6:0.99305045 
1 1:0.36187553 2:0.15059669 3:0.43165882 4:0.81665855 5:0.29572667 6:0.21261622 
1 1:0.76645606 2:0.47792582 3:0.73200775 4:0.14268356 5:0.45146355 6:0.035183102 
1 1:0.49636309 2:0.65032026 3:0.13299181 4:0.89609149 5:0.48554582 6:0.3514025 
1 1:0.31703765 2:0.73636186 3:0.41484096 4:0.55836401 5:0.69192276 6:0.43032359 
1 1:0.51131969 2:0.89353945 3:0.47023526 4:0.0047596944 5:0.29951378 6:0.64578261 
1 1:0.24977442 2:0.40091718 3:0.56616808 4:0.87618601 5:0.3903566 6:0.10199813 
1 1:0.86788436 2:0.47825137 3:0.65442777 4:0.56125625 5:0.4528067 6:0.61268753 
1 1:0.5694309 2:0.29970334 3:0.76584843 4:0.46484612 5:0.337008 6:0.92366297 
1 1:0.48134836 2:0.46785265 3:0.55909958 4:0.999502 5:0.54656718 6:0.12780501 
1 1:0.34689747 2:0.35814173 3:0.58656531 4:0.28112495 5:0.27432806 6:0.578269 
1 1:0.20411043 2:0.72379735 3:0.4204686 4:0.20625737 5:0.069400861 6:0.52124533 
1 1:0.43411868 2:0.14793504 3:0.42093333 4:0.32248667 5:0.5199608 6:0.51869154 
1 1:0.22747846 2:0.71609065 3:0.29916963 4:0.2161703 5:0.30648394 6:0.85996124 
1 1:0.38487923 2:0.41575087 3:0.5334455 4:0.046773734 5:0.86661987 6:0.33297672 
1 1:0.42960839 2:0.18004708 3:0.31691247 4:0.93461607 5:0.62476689 6:0.81171982 
1 1:0.70923387 2:0.66832544 3:0.2422023 4:0.41645306 5:0.43248507 6:0.87767167 
1 1:0.76859848 2:0.37985108 3:0.60861771 4:0.76937038 5:0.76895103 6:0.58210748 
1 1:0.67700586 2:0.59148223 3:0.32964298 4:0.37530525 5:0.34692013 6:0.43131541 
1 1:0.78584944 2:0.65381209 3:0.7273682 4:0.23176961 5:0.60989522 6:0.19866887 
1 1:0.52766668 2:0.22041826 3:0.54278978 4:0.52937439 5:0.48014308 6:0.050193084 
1 1:0.29902085 2:0.72892807 3:0.64874002 4:0.6510059 5:0.70267073 6:0.33316422 
1 1:0.20155302 2:0.32379462 3:0.34174352 4:0.99466196 5:0.4253591 6:0.27210872 
1 1:0.16949079 2:0.63619392 3:0.39484464 4:0.26968962 5:0.52199056 6:0.14738768 
1 1:0.48181926 2:0.30701561 3:0.76141823 4:0.95899252 5:0.97067689 6:0.53728809 
1 1:0.28226972 2:0.40578897 3:0.63762286 4:0.45672437 5:0.24183103 6:0.42044462 
1 1:0.29123438 2:0.47241632 3:0.23736359 4:0.70076882 5:0.42508367 6:0.48846194 
1 1:0.66209662 2:0.37729372 3:0.78932395 4:0.65851513 5:0.55630047 6:0.96566244 
1 1:0.2699579 2:0.35337618 3:0.67433454 4:0.90338464 5:0.8546438 6:0.16504116 
1 1:0.58764414 2:0.78563458 3:0.75673443 4:0.65156082 5:0.54796975 6:0.84379092 
1 1:0.2002912 2:0.2827559 3:0.38849445 4:0.22937765 5:0.20448154 6:0.47863243 
1 1:0.33199 2:0.76999425 3:0.74674521 4:0.25889778 5:0.59041286 6:0.094786785 
1 1:0.43055988 2:0.40792265 3:0.42120651 4:0.69821326 5:0.80277783 6:0.77264836 
1 1:0.18855431 2:0.36067699 3:0.65823256 4:0.12103136 5:0.68864592 6:0.83413873 
1 1:0.54245075 2:0.6156052 3:0.1457679 4:0.1884443 5:0.1772847 6:0.87570075 
1 1:0.33647254 2:0.31749992 3:0.24636397 4:0.21145273 5:0.44706999 6:0.26027005 
1 1:0.6962192 2:0.4111984 3:0.19116231 4:0.83455663 5:0.42612775 6:0.18959949 
1 1:0.5305374 2:0.38510552 3:0.57703366 4:0.98543804 5:0.4869027 6:0.11285566 
1 1:0.24892374 2:0.34660467 3:0.72552951 4:0.046938496 5:0.33322838 6:0.78925802 
1 1:0.68475303 2:0.39173308 3:0.19079837 4:0.50906072 5:0.41397272 6:0.057369883 
1 1:0.2470658 2:0.69822891 3:0.47875435 4:0.4081531 5:0.019065632 6:0.7983962 
1 1:0.47622585 2:0.57654986 3:0.3727556 4:0.54413685 5:0.43894684 6:0.87751354 
1 1:0.34920785 2:0.47872633 3:0.8245355 4:0.9973237 5:0.47972948 6:0.21132831 
1 1:0.49354754 2:0.28849319 3:0.31748758 4:0.88770889 5:0.69277893 6:0.90853187 
1 1:0.60382047 2:0.83183144 3:0.38722407 4:0.11399556 5:0.52121928 6:0.085582706 
1 1:0.51878265 2:0.19140816 3:0.25635665 4:0.8508831 5:0.48559115 6:0.96050688 
1 1:0.50560167 2:0.49796513 3:0.69915692 4:0.85478329 5:0.61772277 6:0.17978692 
1 1:0.65620544 2:0.31504451 3:0.75295143 4:0.74110389 5:0.88067477 6:0.19307113 
1 1:0.82823701 2:0.43203286 3:0.2634531 4:0.63128418 5:0.39961613 6:0.59777165 
1 1:0.46831186 2:0.64190251 3:0.66141621 4:0.10453565 5:0.59216638 6:0.29938365 
1 1:0.4885527 2:0.14501457 3:0.38911063 4:0.89213025 5:0.44716794 6:0.13644112 
1 1:0.63003873 2:0.48572638 3:0.77449888 4:0.6138411 5:0.71793902 6:0.31360153 
1 1:0.590477 2:0.42343685 3:0.46823301 4:0.10346604 5:0.369612 6:0.90002111 
1 1:0.56860038 2:0.17691591 3:0.58020507 4:0.86901841 5:0.92207149 6:0.4483598 
1 1:0.31806345 2:0.65819708 3:0.3218976 4:0.32191278 5:0.63945508 6:0.12839296 
1 1:0.28916722 2:0.3624962 3:0.71449729 4:0.087605975 5:0.62577808 6:0.61032652 
1 1:0.53815466 2:0.77892076 3:0.71052822 4:0.59940299 5:0.54086681 6:0.66192597 
1 1:0.17403792 2:0.2874607 3:0.54556256 4:0.38214414 5:0.56541058 6:0.12952499 
1 1:0.40830509 2:0.2821587 3:0.60116166 4:0.368138 5:0.62212736 6:0.32115208 
1 1:0.72443692 2:0.31334934 3:0.42244064 4:0.083257185 5:0.67828478 6:0.91023138 
1 1:0.52287215 2:0.53637335 3:0.14170714 4:0.1418152 5:0.49331349 6:0.28325752 
1 1:0.71522567 2:0.39632007 3:0.21834123 4:0.39298464 5:0.62875931 6:0.81139492 
1 1:0.89848045 2:0.45254141 3:0.44549984 4:0.29858932 5:0.58303666 6:0.46877639 
1 1:0.31019021 2:0.65832656 3:0.35439413 4:0.23575712 5:0.3191935 6:0.55477069 
1 1:0.64562811 2:0.22394431 3:0.59336663 4:0.54039663 5:0.36517584 6:0.14150765 
1 1:0.68128094 2:0.82925468 3:0.50775174 4:0.93595052 5:0.53018561 6:0.42424598 
1 1:0.20213485 2:0.72063092 3:0.37108992 4:0.68343547 5:0.47669419 6:0.86330863 
1 1:0.1980781 2:0.34293321 3:0.64508849 4:0.81834224 5:0.77545199 6:0.31110079 
1 1:0.47480989 2:0.29223291 3:0.86899252 4:0.45753492 5:0.76729395 6:0.6420348 
1 1:0.58662485 2:0.3408392 3:0.47617474 4:0.70782723 5:0.43233889 6:0.59926636 
1 1:0.60791472 2:0.81888218 3:0.64914141 4:0.64087026 5:0.73838843 6:0.80890914 
1 1:0.29269907 2:0.61665032 3:0.79673123 4:0.77114151 5:0.53615965 6:0.31635021 
1 1:0.16263644 2:0.64567757 3:0.58887461 4:0.42103565 5:0.5474258 6:0.19244923 
1 1:0.7228272 2:0.65300759 3:0.64219521 4:0.82520628 5:0.49168642 6:0.95692809 
1 1:0.71477601 2:0.79371291 3:0.39544463 4:0.82886834 5:0.60805754 6:0.27081305 
1 1:0.73482745 2:0.31078591 3:0.44110705 4:0.56950216 5:0.22443274 6:0.43312398 
1 1:0.81438827 2:0.36883901 3:0.31259485 4:0.46416166 5:0.59560042 6:0.89630564 
1 1:0.32189994 2:0.25454642 3:0.48238286 4:0.029495365 5:0.13011448 6:0.36035839 
1 1:0.18359823 2:0.29150987 3:0.47846176 4:0.67621421 5:0.74559811 6:0.92868853 
1 1:0.84062712 2:0.3795876 3:0.44124407 4:0.28280656 5:0.41854745 6:0.33134372 
1 1:0.87423026 2:0.36511191 3:0.40730809 4:0.56197492 5:0.5521376 6:0.12641559 
1 1:0.80051267 2:0.51961143 3:0.5324659 4:0.55255074 5:0.15254675 6:0.22438497 
1 1:0.63097445 2:0.77630224 3:0.44901387 4:0.24078632 5:0.91799926 6:0.38809452 
1 1:0.41940157 2:0.78814642 3:0.38837891 4:0.15435833 5:0.44706322 6:0.053680107 
1 1:0.48996068 2:0.76979592 3:0.70690648 4:0.45531522 5:0.72211954 6:0.51977775 
1 1:0.48337783 2:0.64919423 3:0.32303742 4:0.94754212 5:0.59356742 6:0.67568281 
1 1:0.47274478 2:0.77760495 3:0.24269403 4:0.85894066 5:0.15871257 6:0.68601829 
1 1:0.28922399 2:0.71804182 3:0.74235009 4:0.72872019 5:0.53888356 6:0.8024197 
1 1:0.71980697 2:0.66724799 3:0.5714008 4:0.36969173 5:0.47761731 6:0.065936636 
1 1:0.38094658 2:0.15782184 3:0.60506992 4:0.73483263 5:0.80736623 6:0.77907809 
1 1:0.23190761 2:0.53768285 3:0.75724323 4:0.54632469 5:0.90623131 6:0.44224705 
