svm_type c_svc
kernel_type rbf
gamma 0.166667
nr_class 2
total_sv 2732
rho -5.75696
label -1 1
nr_sv 1374 1358
SV
1 1:0.84210444 2:0.57965954 3:0.70372115 4:0.401321 5:0.58317301 6:0.63264381 
1 1:0.14536154 2:0.48152704 3:0.3452521 4:0.58029436 5:0.29040797 6:0.20326202 
1 1:0.45776118 2:0.92978181 3:0.50437523 4:0.50134191 5:0.52341391 6:0.78449238 
1 1:0.45037247 2:0.38256763 3:0.28532548 4:0.097348644 5:0.61368897 6:0.046097574 
1 1:0.58327741 2:0.75524606 3:0.75278932 4:0.34528532 5:0.74997947 6:0.55787625 
1 1:0.25128971 2:0.40047832 3:0.33510521 4:0.099707765 5:0.46638891 6:0.77072836 
1 1:0.81963709 2:0.61582524 3:0.61145105 4:0.99785408 5:0.35751255 6:0.83167364 
1 1:0.53224171 2:0.83799272 3:0.62895644 4:0.90581384 5:0.32204745 6:0.59125706 
1 1:0.42958162 2:0.68540361 3:0.37499391 4:0.84626927 5:0.90438491 6:0.27757631 
1 1:0.29283526 2:0.32903241 3:0.69940247 4:0.36557288 5:0.67703325 6:0.26457813 
1 1:0.51386436 2:0.23627516 3:0.61712032 4:0.5135798 5:0.59222493 6:0.79740816 
1 1:0.5400552 2:0.74136236 3:0.34513548 4:0.28513643 5:0.42621674 6:0.31695712 
1 1:0.63161219 2:0.23523832 3:0.74345 4:0.27057578 5:0.46891556 6:0.93577742 
0.003826768976384974 1:0.70576511 2:0.65152691 3:0.20690397 4:0.58616436 5:0.36498456 6:0.71812839 
1 1:0.47230615 2:0.10204971 3:0.35146032 4:0.69043393 5:0.56492974 6:0.70921623 
1 1:0.49039848 2:0.60878972 3:0.2095729 4:0.48729792 5:0.39462273 6:0.067192832 
1 1:0.67262437 2:0.52172876 3:0.29326536 4:0.55638976 5:0.32688953 6:0.70308231 
1 1:0.56258077 2:0.36947843 3:0.27247849 4:0.27858975 5:0.86551582 6:0.047508095 
1 1:0.27517643 2:0.53130019 3:0.7405769 4:0.36254715 5:0.5995267 6:0.58188154 
1 1:0.22899452 2:0.46733659 3:0.33110803 4:0.76196601 5:0.81528449 6:0.29172621 
1 1:0.90498609 2:0.45662031 3:0.48409466 4:0.52704707 5:0.66304286 6:0.63769585 
0.7441712632041485 1:0.91567291 2:0.25906463 3:0.5367746 4:0.68551816 5:0.56019636 6:0.62368788 
1 1:0.59917897 2:0.16964338 3:0.37380646 4:0.91772043 5:0.37844736 6:0.34363631 
0.7047847986247749 1:0.69089045 2:0.60508091 3:0.81299035 4:0.23420142 5:0.41380516 6:0.81597896 
1 1:0.75912678 2:0.43680151 3:0.21636694 4:0.73633007 5:0.6241927 6:0.46284125 
1 1:0.51399972 2:0.42988351 3:0.67100881 4:0.70092835 5:0.082669317 6:0.056941142 
1 1:0.26594154 2:0.53588928 3:0.66813701 4:0.36897592 5:0.62763954 6:0.17829308 
1 1:0.32256065 2:0.29720108 3:0.6954745 4:0.032595802 5:0.21176741 6:0.82957535 
1 1:0.71807536 2:0.54767268 3:0.24612999 4:0.23321269 5:0.44840336 6:0.48061352 
1 1:0.53184837 2:0.45531404 3:0.82417595 4:0.14283798 5:0.4167427 6:0.03279076 
1 1:0.51658557 2:0.49682239 3:0.3071325 4:0.69352079 5:0.8054266 6:0.054654913 
1 1:0.29744791 2:0.43571755 3:0.66914335 4:0.79337671 5:0.96052055 6:0.62410691 
1 1:0.23338535 2:0.6118489 3:0.29868623 4:0.70023849 5:0.72331195 6:0.11882056 
1 1:0.53288786 2:0.67958819 3:0.46843637 4:0.76078849 5:0.028696364 6:0.7780851 
1 1:0.93714796 2:0.54311885 3:0.62868293 4:0.55090932 5:0.54988443 6:0.17890939 
1 1:0.35470562 2:0.26094182 3:0.63599733 4:0.26816443 5:0.18366239 6:0.79928743 
1 1:0.35249355 2:0.8718612 3:0.59220248 4:0.43070925 5:0.7268315 6:0.39185503 
1 1:0.64661079 2:0.6080023 3:0.69383767 4:0.20166483 5:0.68022492 6:0.22074827 
1 1:0.62848119 2:0.50160437 3:0.3389782 4:0.72169196 5:0.86060827 6:0.18359902 
1 1:0.29452204 2:0.67758517 3:0.67197459 4:0.39046925 5:0.52386476 6:0.25721113 
1 1:0.70716333 2:0.57790698 3:0.74819463 4:0.42795791 5:0.13644252 6:0.3420189 
1 1:0.87107364 2:0.38663101 3:0.63270166 4:0.050748499 5:0.39507897 6:0.64203352 
1 1:0.60315507 2:0.13197637 3:0.57884171 4:0.14781488 5:0.61292536 6:0.540548 
1 1:0.54511622 2:0.14457115 3:0.53152261 4:0.83176779 5:0.36294526 6:0.6465748 
1 1:0.39006649 2:0.34762548 3:0.19572588 4:0.56174431 5:0.63873496 6:0.17368089 
1 1:0.37234629 2:0.82107706 3:0.33390515 4:0.32308004 5:0.39948762 6:0.91106086 
1 1:0.80044361 2:0.38455976 3:0.4733455 4:0.24871654 5:0.8101443 6:0.98610106 
1 1:0.41890883 2:0.83573244 3:0.68635372 4:0.2658031 5:0.75360232 6:0.37674584 
1 1:0.60735435 2:0.11070705 3:0.45030558 4:0.42389937 5:0.66604374 6:0.6839421 
1 1:0.55291725 2:0.84846262 3:0.65287731 4:0.3833247 5:0.47954665 6:0.72154976 
1 1:0.52020087 2:0.15859657 3:0.53649583 4:0.67905971 5:0.77203326 6:0.072084418 
1 1:0.51442685 2:0.47185255 3:0.7731078 4:0.71197971 5:0.93274276 6:0.9996527 
1 1:0.66043481 2:0.3429604 3:0.2669421 4:0.055343585 5:0.46173371 6:0.43933574 
1 1:0.3874167 2:0.74420331 3:0.72387878 4:0.28465641 5:0.51140313 6:0.59732596 
1 1:0.36825196 2:0.61881358 3:0.25971465 4:0.6229984 5:0.59247992 6:0.044492662 
1 1:0.12198362 2:0.31233343 3:0.49422797 4:0.22416316 5:0.81892668 6:0.620531 
1 1:0.31521376 2:0.10725173 3:0.43298595 4:0.53208761 5:0.63809633 6:0.80661364 
1 1:0.45141981 2:0.81219656 3:0.61518691 4:0.20571655 5:0.85898072 6:0.97297728 
1 1:0.59675991 2:0.090571691 3:0.63535115 4:0.24577055 5:0.30443455 6:0.47422485 
1 1:0.28708852 2:0.22478119 3:0.66046547 4:0.71390562 5:0.53709186 6:0.33021398 
1 1:0.24210478 2:0.38306014 3:0.74863308 4:0.094924563 5:0.31435281 6:0.54120446 
1 1:0.58580623 2:0.89273179 3:0.46554127 4:0.8174307 5:0.7751712 6:0.57112519 
1 1:0.43555558 2:0.16565301 3:0.36504701 4:0.18122019 5:0.35161475 6:0.4365398 
0.07415252961213016 1:0.52439588 2:0.81724864 3:0.27196986 4:0.94434306 5:0.41370392 6:0.57665716 
1 1:0.8360393 2:0.58623946 3:0.39761494 4:0.35137806 5:0.44551801 6:0.29196743 
1 1:0.72473173 2:0.73161361 3:0.32743516 4:0.65246126 5:0.69534018 6:0.30466322 
1 1:0.36121307 2:0.86497505 3:0.6754525 4:0.73005606 5:0.53927145 6:0.7048367 
1 1:0.27441659 2:0.21690116 3:0.32979531 4:0.60942568 5:0.17727247 6:0.69649614 
1 1:0.71814484 2:0.31345808 3:0.71249527 4:0.57480068 5:0.44841982 6:0.551779 
1 1:0.32704661 2:0.52166049 3:0.2694878 4:0.82365168 5:0.78656105 6:0.35435736 
0.05286959447198962 1:0.19634262 2:0.66558966 3:0.28580625 4:0.036108085 5:0.41811668 6:0.62196935 
1 1:0.59860868 2:0.095059297 3:0.58816296 4:0.44170519 5:0.52360215 6:0.97770492 
1 1:0.61950665 2:0.47069076 3:0.51264509 4:0.4136468 5:0.55966662 6:0.74625918 
1 1:0.91001195 2:0.50901607 3:0.32660398 4:0.75269482 5:0.41224845 6:0.60999165 
1 1:0.37654831 2:0.29550128 3:0.24544293 4:0.43399031 5:0.13975766 6:0.46511622 
1 1:0.58726477 2:0.75468374 3:0.64357686 4:0.88763114 5:0.54620907 6:0.80247725 
1 1:0.27972915 2:0.78228096 3:0.27586341 4:0.61550561 5:0.42585045 6:0.36520115 
1 1:0.77377125 2:0.79399087 3:0.36842552 4:0.70108408 5:0.27339562 6:0.66352959 
1 1:0.55955192 2:0.57067397 3:0.28075609 4:0.90691581 5:0.30729883 6:0.79882928 
1 1:0.60028563 2:0.5568379 3:0.78540447 4:0.24786174 5:0.37533578 6:0.42728378 
1 1:0.46849288 2:0.64164818 3:0.29339027 4:0.5518718 5:0.73160177 6:0.69671576 
1 1:0.68697108 2:0.46098987 3:0.31764214 4:0.34341916 5:0.1614516 6:0.84041536 
1 1:0.45249807 2:0.51519771 3:0.23823153 4:0.52801892 5:0.37438696 6:0.9881111 
1 1:0.31591716 2:0.59342557 3:0.36835443 4:0.7724786 5:0.33133198 6:0.28306902 
1 1:0.64772955 2:0.66748774 3:0.33630748 4:0.83448518 5:0.13463105 6:0.013397618 
1 1:0.48245004 2:0.68259733 3:0.29830093 4:0.63643808 5:0.60105059 6:0.86471052 
1 1:0.21357327 2:0.58493513 3:0.71728419 4:0.85836548 5:0.28078053 6:0.20811702 
1 1:0.14613426 2:0.46349579 3:0.41463115 4:0.59523538 5:0.13949654 6:0.57947755 
1 1:0.27975025 2:0.7930169 3:0.67702509 4:0.61936182 5:0.36432873 6:0.042771516 
1 1:0.10112673 2:0.45664946 3:0.57434338 4:0.84693505 5:0.65166365 6:0.93297606 
1 1:0.29765501 2:0.76430972 3:0.30455592 4:0.63294455 5:0.50456379 6:0.38634663 
1 1:0.29369221 2:0.54396991 3:0.32645118 4:0.12255695 5:0.20166227 6:0.95027199 
1 1:0.73417649 2:0.78644527 3:0.32519714 4:0.015279694 5:0.57154879 6:0.67143404 
1 1:0.36412872 2:0.34037016 3:0.33688545 4:0.34245159 5:0.76706957 6:0.67628626 
1 1:0.58681319 2:0.61360072 3:0.80752987 4:0.36473006 5:0.3079478 6:0.55440259 
1 1:0.44596027 2:0.5962399 3:0.66696508 4:0.49786731 5:0.2215759 6:0.38661881 
1 1:0.32024748 2:0.88639927 3:0.46346791 4:0.76215754 5:0.42806413 6:0.48078177 
1 1:0.43410256 2:0.83749088 3:0.68093526 4:0.5910829 5:0.16301017 6:0.51149517 
1 1:0.39742761 2:0.41359504 3:0.30347132 4:0.58419976 5:0.56211536 6:0.87653653 
1 1:0.68667566 2:0.42154176 3:0.3298393 4:0.12627367 5:0.15348324 6:0.53167275 
1 1:0.15895387 2:0.41593942 3:0.29930978 4:0.30666884 5:0.437758 6:0.50139464 
1 1:0.69649058 2:0.51459081 3:0.26059268 4:0.42279783 5:0.34395673 6:0.68298381 
1 1:0.59838599 2:0.41251372 3:0.66659462 4:0.93693218 5:0.4109608 6:0.75615037 
1 1:0.59876911 2:0.64731089 3:0.29856909 4:0.076556565 5:0.43417869 6:0.60847722 
0.7443261351207165 1:0.23460624 2:0.35421835 3:0.75121902 4:0.2041745 5:0.29929133 6:0.30171662 
1 1:0.34534053 2:0.48765346 3:0.2391283 4:0.5930458 5:0.66136977 6:0.64626263 
1 1:0.65887239 2:0.50127953 3:0.68617266 4:0.7847335 5:0.14628471 6:0.42822754 
1 1:0.58962803 2:0.41833226 3:0.81839138 4:0.13163012 5:0.77855997 6:0.56418842 
1 1:0.19496006 2:0.62239204 3:0.62983094 4:0.78783623 5:0.1199251 6:0.6902098 
1 1:0.31650179 2:0.679396 3:0.25503944 4:0.90910085 5:0.33238399 6:0.76922189 
1 1:0.84689014 2:0.35199186 3:0.36366459 4:0.50906407 5:0.71705457 6:0.10567443 
1 1:0.38163176 2:0.38072456 3:0.49288553 4:0.96927379 5:0.54903326 6:0.78868049 
1 1:0.55950099 2:0.60896777 3:0.72973855 4:0.19726151 5:0.48882604 6:0.81968772 
1 1:0.35739879 2:0.45863834 3:0.78298933 4:0.69905047 5:0.5410672 6:0.13776758 
1 1:0.93405044 2:0.45687998 3:0.44855464 4:0.77881131 5:0.50288005 6:0.82125634 
1 1:0.63311785 2:0.85934056 3:0.45579728 4:0.88923871 5:0.56367563 6:0.34304423 
1 1:0.38758513 2:0.47555309 3:0.65842632 4:0.71141065 5:0.67434823 6:0.72710685 
1 1:0.79726455 2:0.55033735 3:0.31622791 4:0.1250295 5:0.23545958 6:0.97536453 
1 1:0.89608897 2:0.49521556 3:0.64479338 4:0.27394349 5:0.3720308 6:0.15788896 
1 1:0.42385563 2:0.87406523 3:0.41802762 4:0.72434866 5:0.70804935 6:0.26786638 
1 1:0.54524327 2:0.45936566 3:0.26154486 4:0.64930821 5:0.36917963 6:0.68774345 
1 1:0.4722665 2:0.71407827 3:0.30700527 4:0.70581268 5:0.30896588 6:0.5062014 
1 1:0.41507894 2:0.8107574 3:0.57440176 4:0.71984009 5:0.76394771 6:0.195536 
1 1:0.31702098 2:0.43167385 3:0.71518215 4:0.48992173 5:0.79769835 6:0.34845728 
1 1:0.55370499 2:0.33861014 3:0.27620468 4:0.67550948 5:0.55935876 6:0.096372991 
1 1:0.36186814 2:0.61647391 3:0.48432694 4:0.59845267 5:0.91245981 6:0.24122072 
1 1:0.055873204 2:0.39555912 3:0.55581493 4:0.47700698 5:0.4339812 6:0.76855165 
1 1:0.55721991 2:0.55193534 3:0.21801343 4:0.86229837 5:0.30574433 6:0.60747158 
1 1:0.64292658 2:0.49455502 3:0.18748226 4:0.78768965 5:0.52314963 6:0.036960203 
1 1:0.91139367 2:0.68560012 3:0.47884579 4:0.18572337 5:0.61894489 6:0.5777252 
1 1:0.52991331 2:0.21207107 3:0.64435695 4:0.80382793 5:0.69655737 6:0.95835569 
1 1:0.29787986 2:0.71631417 3:0.69978262 4:0.13704165 5:0.71464331 6:0.024042373 
1 1:0.67335894 2:0.58810457 3:0.22677066 4:0.85283674 5:0.44541765 6:0.3518705 
1 1:0.47514207 2:0.78189589 3:0.68163072 4:0.8768751 5:0.40660341 6:0.80473286 
1 1:0.36230854 2:0.08763401 3:0.54568829 4:0.081284012 5:0.5210942 6:0.62727656 
1 1:0.5658376 2:0.75546654 3:0.7445242 4:0.70270046 5:0.39792538 6:0.38739447 
1 1:0.63506061 2:0.40121965 3:0.27679202 4:0.48771757 5:0.65955189 6:0.024315186 
1 1:0.78526286 2:0.19036554 3:0.54688557 4:0.18188191 5:0.43198457 6:0.97755781 
1 1:0.4490279 2:0.58401813 3:0.17698728 4:0.80924959 5:0.38686228 6:0.49791557 
1 1:0.65379155 2:0.68553594 3:0.25637262 4:0.37887203 5:0.32416991 6:0.50828932 
1 1:0.38454049 2:0.50569009 3:0.81885225 4:0.21812854 5:0.21443691 6:0.34457022 
1 1:0.66776772 2:0.50332664 3:0.22763774 4:0.079498087 5:0.64297274 6:0.38086962 
1 1:0.55139661 2:0.50269142 3:0.26420263 4:0.48495035 5:0.76928968 6:0.90130367 
1 1:0.41463159 2:0.61911125 3:0.83192725 4:0.19022914 5:0.54861131 6:0.85949431 
1 1:0.88143377 2:0.60897783 3:0.40597814 4:0.85410863 5:0.37709119 6:0.24854598 
1 1:0.93553299 2:0.56787443 3:0.47538029 4:0.40599648 5:0.60096209 6:0.37704954 
1 1:0.46754091 2:0.24504298 3:0.65229721 4:0.67950024 5:0.62832831 6:0.91877274 
1 1:0.57610782 2:0.37747351 3:0.28370992 4:0.012434111 5:0.50679476 6:0.39523087 
1 1:0.34603178 2:0.3087108 3:0.74938911 4:0.3493512 5:0.3799734 6:0.77052066 
1 1:0.8208326 2:0.5212072 3:0.63709266 4:0.59337563 5:0.63970013 6:0.42059257 
1 1:0.61955346 2:0.56724639 3:0.49673829 4:0.70931915 5:0.34732683 6:0.70745453 
1 1:0.68244095 2:0.38958549 3:0.69298006 4:0.44937308 5:0.082406263 6:0.88441399 
1 1:0.35508295 2:0.71524822 3:0.74201274 4:0.39486202 5:0.29986846 6:0.21666972 
1 1:0.74663252 2:0.75156361 3:0.33317884 4:0.736107 5:0.80406912 6:0.53556507 
1 1:0.69285865 2:0.43095031 3:0.21853913 4:0.73417008 5:0.71978965 6:0.66823476 
1 1:0.20676855 2:0.36401635 3:0.72669808 4:0.14943692 5:0.63541991 6:0.65054306 
1 1:0.82238005 2:0.38380658 3:0.38120994 4:0.10838963 5:0.43218462 6:0.38084662 
1 1:0.68635041 2:0.46574297 3:0.26497744 4:0.73389465 5:0.34723227 6:0.45203484 
1 1:0.26291649 2:0.43162135 3:0.78408847 4:0.57140751 5:0.27371168 6:0.22671808 
1 1:0.1223813 2:0.60871162 3:0.66289298 4:0.31318973 5:0.51752691 6:0.51302773 
1 1:0.30215965 2:0.65504113 3:0.30434395 4:0.652544 5:0.15778217 6:0.63531268 
1 1:0.14812226 2:0.449304 3:0.39352287 4:0.3856331 5:0.76792585 6:0.69175938 
1 1:0.23796079 2:0.71362977 3:0.72155073 4:0.15960757 5:0.62725929 6:0.58842485 
1 1:0.45335956 2:0.11395702 3:0.42814455 4:0.79654788 5:0.75690908 6:0.71479489 
1 1:0.48732061 2:0.82329877 3:0.2914101 4:0.25778124 5:0.22424767 6:0.10258498 
1 1:0.90989925 2:0.33733941 3:0.65001002 4:0.41650241 5:0.343073 6:0.42702648 
1 1:0.82840128 2:0.48029524 3:0.36058144 4:0.92182381 5:0.21885557 6:0.89781342 
1 1:0.26308626 2:0.62100857 3:0.32931936 4:0.50700823 5:0.25712439 6:0.4000687 
1 1:0.80158566 2:0.43547439 3:0.72277424 4:0.83958694 5:0.62590656 6:0.10517661 
1 1:0.61364282 2:0.39825538 3:0.31707831 4:0.57136692 5:0.88596215 6:0.75992224 
1 1:0.20949671 2:0.46823171 3:0.62296637 4:0.010212214 5:0.62095793 6:0.78223858 
1 1:0.27304322 2:0.30203442 3:0.29909039 4:0.33706514 5:0.30864826 6:0.98020715 
1 1:0.46329201 2:0.45043635 3:0.71166009 4:0.43666284 5:0.66846543 6:0.39256289 
1 1:0.23092561 2:0.71699662 3:0.71076957 4:0.36424826 5:0.4942614 6:0.89686348 
1 1:0.53448973 2:0.33934783 3:0.24632194 4:0.16711535 5:0.37792806 6:0.2108901 
1 1:0.68598387 2:0.45461934 3:0.71059325 4:0.70495112 5:0.68897141 6:0.21450105 
1 1:0.85209427 2:0.55974234 3:0.41207738 4:0.28578799 5:0.47805146 6:0.58360673 
1 1:0.30398978 2:0.63017433 3:0.21348638 4:0.43771636 5:0.32509985 6:0.77796592 
1 1:0.11583073 2:0.35333757 3:0.43740802 4:0.31789552 5:0.5385765 6:0.79029977 
1 1:0.25140724 2:0.61206327 3:0.26297405 4:0.82667379 5:0.78736046 6:0.72361296 
1 1:0.86853412 2:0.25767335 3:0.54811446 4:0.51919629 5:0.29337464 6:0.65691394 
1 1:0.34635014 2:0.61231482 3:0.75110843 4:0.49200706 5:0.83374788 6:0.510931 
1 1:0.55514936 2:0.81746073 3:0.35049139 4:0.34088521 5:0.59703973 6:0.43697226 
1 1:0.76360519 2:0.37619878 3:0.32905132 4:0.9176891 5:0.21183187 6:0.82027869 
1 1:0.26749328 2:0.31327981 3:0.71963619 4:0.28266797 5:0.60729327 6:0.13545615 
1 1:0.32820524 2:0.26949176 3:0.32469632 4:0.45655754 5:0.24612588 6:0.097395204 
1 1:0.41653433 2:0.37684348 3:0.5380328 4:0.4503655 5:0.34830951 6:0.74405075 
1 1:0.42495182 2:0.54432911 3:0.72027997 4:0.95184815 5:0.531006 6:0.17177835 
1 1:0.63831372 2:0.11851179 3:0.4625663 4:0.30623594 5:0.61463984 6:0.3550438 
1 1:0.49622021 2:0.73295698 3:0.23009785 4:0.41657662 5:0.77491348 6:0.33074432 
1 1:0.4970395 2:0.13101234 3:0.60632496 4:0.40484735 5:0.21040702 6:0.032793428 
1 1:0.31103522 2:0.8274104 3:0.67514238 4:0.38338249 5:0.67588528 6:0.17700905 
1 1:0.58235932 2:0.36973604 3:0.73045222 4:0.52719552 5:0.69862542 6:0.82944696 
1 1:0.096044177 2:0.42463546 3:0.54364092 4:0.73793429 5:0.51469331 6:0.1290714 
1 1:0.45442897 2:0.5667111 3:0.80679523 4:0.86728306 5:0.48248311 6:0.7301182 
1 1:0.53122815 2:0.47989522 3:0.22169986 4:0.86556931 5:0.40454894 6:0.043083915 
1 1:0.12604257 2:0.41972631 3:0.50392297 4:0.98245956 5:0.33886688 6:0.13382283 
1 1:0.54534976 2:0.38854132 3:0.18258016 4:0.52163794 5:0.61609202 6:0.74983411 
1 1:0.54135476 2:0.68981404 3:0.6406103 4:0.77477812 5:0.67638004 6:0.22512182 
1 1:0.78708269 2:0.15768528 3:0.56414821 4:0.68170841 5:0.62138652 6:0.89608688 
1 1:0.627708 2:0.54874804 3:0.68740231 4:0.33229614 5:0.74748748 6:0.12940518 
0.6534548189702178 1:0.53084537 2:0.053408041 3:0.43594455 4:0.1672579 5:0.61665871 6:0.52379397 
1 1:0.57706555 2:0.87421695 3:0.67615734 4:0.60575537 5:0.51008491 6:0.25151439 
1 1:0.51133062 2:0.27132403 3:0.69666643 4:0.15522727 5:0.63488753 6:0.34878198 
1 1:0.16146725 2:0.27250598 3:0.52895242 4:0.30336715 5:0.74360893 6:0.056274351 
1 1:0.37630084 2:0.64105752 3:0.69490158 4:0.59476364 5:0.23783065 6:0.09897431 
1 1:0.62674052 2:0.51446045 3:0.25632511 4:0.89372492 5:0.084331186 6:0.10181548 
1 1:0.44595056 2:0.13994958 3:0.43020961 4:0.59908597 5:0.86302621 6:0.066954603 
1 1:0.088839654 2:0.56554378 3:0.55273572 4:0.76173992 5:0.50630221 6:0.30774632 
1 1:0.60761554 2:0.70911918 3:0.7743449 4:0.48342504 5:0.31642223 6:0.55707205 
1 1:0.44186369 2:0.25628703 3:0.69434185 4:0.10754159 5:0.81659587 6:0.41703057 
1 1:0.44237207 2:0.49994196 3:0.73538845 4:0.67547114 5:0.46754086 6:0.2195717 
1 1:0.62180165 2:0.8851093 3:0.51397629 4:0.77082483 5:0.62186791 6:0.76518981 
1 1:0.47721581 2:0.17477338 3:0.65415203 4:0.38743005 5:0.27474886 6:0.80056025 
1 1:0.91494593 2:0.50031969 3:0.49628755 4:0.77956271 5:0.70610015 6:0.24973566 
1 1:0.58201132 2:0.48416211 3:0.49625696 4:0.43585146 5:0.092037987 6:0.25735714 
0.8770169185406637 1:0.6484521 2:0.18928556 3:0.61448992 4:0.90799083 5:0.92462405 6:0.561891 
1 1:0.10622629 2:0.58334952 3:0.57137454 4:0.22070053 5:0.39652774 6:0.18258253 
1 1:0.50911338 2:0.24032611 3:0.63870407 4:0.29027054 5:0.32427529 6:0.76968633 
1 1:0.41243913 2:0.84572124 3:0.42422891 4:0.40003556 5:0.53889463 6:0.071480432 
1 1:0.53974722 2:0.50234905 3:0.8062142 4:0.85815344 5:0.51173569 6:0.19742051 
1 1:0.4514126 2:0.50914172 3:0.24174296 4:0.34493205 5:0.89879249 6:0.15310497 
1 1:0.35618936 2:0.21627407 3:0.29825877 4:0.41905711 5:0.66491072 6:0.6668364 
1 1:0.73330798 2:0.51318356 3:0.71955159 4:0.85663878 5:0.053144275 6:0.28452087 
1 1:0.54892546 2:0.29252892 3:0.75787921 4:0.53074518 5:0.59861544 6:0.53857668 
1 1:0.59369769 2:0.26072827 3:0.2377019 4:0.60089583 5:0.50736014 6:0.20633863 
1 1:0.56627561 2:0.35338772 3:0.47527771 4:0.75816333 5:0.9329999 6:0.11319196 
0.9940244099296535 1:0.60395538 2:0.67120095 3:0.79034333 4:0.12255358 5:0.77640508 6:0.33717139 
1 1:0.48791761 2:0.35201991 3:0.21643643 4:0.052205234 5:0.66696562 6:0.94093682 
1 1:0.50251418 2:0.82260234 3:0.62713186 4:0.20094189 5:0.65473336 6:0.97741907 
1 1:0.32246686 2:0.35529255 3:0.32673552 4:0.47711687 5:0.18348868 6:0.63889375 
1 1:0.53214005 2:0.15257983 3:0.61041826 4:0.10605799 5:0.49532559 6:0.72942636 
1 1:0.53788757 2:0.30265809 3:0.77302092 4:0.25039459 5:0.86484537 6:0.49833527 
1 1:0.87833752 2:0.46749512 3:0.50614965 4:0.4672566 5:0.57627344 6:0.80536593 
1 1:0.62624351 2:0.41557485 3:0.19669105 4:0.13580523 5:0.1737108 6:0.37682984 
1 1:0.28311479 2:0.49675681 3:0.75004666 4:0.61389633 5:0.8055721 6:0.56391082 
1 1:0.86074041 2:0.2883664 3:0.48247611 4:0.45027404 5:0.40261804 6:0.99503755 
1 1:0.37453136 2:0.26108277 3:0.2396729 4:0.32742904 5:0.42849993 6:0.52330641 
1 1:0.45642193 2:0.13548335 3:0.67554671 4:0.29729323 5:0.6113176 6:0.34784916 
0.820944197004783 1:0.90796067 2:0.63861224 3:0.57000972 4:0.052788303 5:0.29013681 6:0.17260445 
1 1:0.63073319 2:0.59613288 3:0.22126452 4:0.81789647 5:0.241251 6:0.42311602 
1 1:0.66737105 2:0.67411531 3:0.23616611 4:0.22940362 5:0.40707586 6:0.13992701 
1 1:0.48739124 2:0.86898959 3:0.61666614 4:0.036908931 5:0.86377241 6:0.64662388 
1 1:0.5336047 2:0.85174888 3:0.67946213 4:0.3167815 5:0.38737004 6:0.1722653 
1 1:0.75796429 2:0.54070348 3:0.25553443 4:0.50976579 5:0.235605 6:0.23017692 
1 1:0.71363074 2:0.50538241 3:0.67890088 4:0.19097682 5:0.3802684 6:0.69157969 
1 1:0.37919766 2:0.24823202 3:0.29116779 4:0.50961459 5:0.65991412 6:0.75842721 
1 1:0.59644811 2:0.22142112 3:0.37234026 4:0.033977577 5:0.40225185 6:0.86765373 
1 1:0.58313406 2:0.58346579 3:0.67893237 4:0.85512 5:0.70308584 6:0.17132795 
1 1:0.56872513 2:0.27594211 3:0.7636297 4:0.85882585 5:0.70233173 6:0.95153513 
1 1:0.45905411 2:0.8093485 3:0.62671786 4:0.054348976 5:0.84536499 6:0.77614685 
1 1:0.41506634 2:0.42411341 3:0.7800802 4:0.62101856 5:0.30760566 6:0.95083135 
1 1:0.12431376 2:0.53348312 3:0.67951276 4:0.44183902 5:0.61539738 6:0.46887796 
1 1:0.52938922 2:0.58221769 3:0.15286536 4:0.40518083 5:0.41480273 6:0.56223155 
1 1:0.51904688 2:0.18959685 3:0.74442997 4:0.31496714 5:0.4183071 6:0.073693181 
1 1:0.098990264 2:0.32541042 3:0.57004922 4:0.42287738 5:0.66008857 6:0.25277887 
1 1:0.47168413 2:0.43646256 3:0.71458089 4:0.96645489 5:0.72508568 6:0.17288321 
1 1:0.63542853 2:0.07817931 3:0.43762011 4:0.58401338 5:0.42925966 6:0.26352444 
1 1:0.41462231 2:0.67302314 3:0.77722642 4:0.33444561 5:0.37871091 6:0.042228433 
1 1:0.62266885 2:0.16785074 3:0.39893758 4:0.41607572 5:0.5405678 6:0.17355451 
1 1:0.69489516 2:0.52096644 3:0.29490164 4:0.98214777 5:0.34124886 6:0.12869612 
1 1:0.58753649 2:0.48547844 3:0.19965889 4:0.85997045 5:0.33967439 6:0.44226055 
1 1:0.64822534 2:0.50449492 3:0.33699802 4:0.65960237 5:0.59934007 6:0.83137552 
1 1:0.65764327 2:0.18096032 3:0.32855144 4:0.25737931 5:0.55305458 6:0.26870848 
1 1:0.49994138 2:0.19083176 3:0.59416392 4:0.66500266 5:0.18796111 6:0.84416827 
1 1:0.37122359 2:0.54384895 3:0.82676028 4:0.4254209 5:0.5251535 6:0.96057026 
1 1:0.47169279 2:0.14019457 3:0.47344095 4:0.33996284 5:0.38123468 6:0.26778935 
1 1:0.11682568 2:0.62224245 3:0.54553449 4:0.73293438 5:0.084646051 6:0.55893121 
1 1:0.86478691 2:0.28916477 3:0.57381262 4:0.29038837 5:0.85108339 6:0.67519252 
1 1:0.65481784 2:0.37305644 3:0.76110591 4:0.33453334 5:0.12715232 6:0.31225808 
1 1:0.34098142 2:0.22111712 3:0.65129445 4:0.069154877 5:0.65777428 6:0.10394069 
1 1:0.84375042 2:0.60110513 3:0.43980164 4:0.98167379 5:0.71504592 6:0.64410539 
1 1:0.60383888 2:0.10601616 3:0.63303056 4:0.69687285 5:0.3463592 6:0.31609763 
1 1:0.46197199 2:0.155947 3:0.70304672 4:0.37334998 5:0.26234445 6:0.28687088 
1 1:0.42110737 2:0.073378794 3:0.48206824 4:0.68152083 5:0.44088973 6:0.4195008 
1 1:0.41183735 2:0.16265354 3:0.44264074 4:0.50230483 5:0.36424386 6:0.070110286 
1 1:0.76808119 2:0.3820518 3:0.72367617 4:0.13562436 5:0.66665601 6:0.11294868 
1 1:0.45661458 2:0.21905214 3:0.6893572 4:0.43566352 5:0.62673033 6:0.27748918 
1 1:0.42142235 2:0.5600687 3:0.30532404 4:0.76510356 5:0.11469343 6:0.28160316 
1 1:0.82668834 2:0.64098759 3:0.57652564 4:0.83658379 5:0.62365024 6:0.90662392 
1 1:0.65875257 2:0.48999144 3:0.24990062 4:0.068417326 5:0.59894444 6:0.86645087 
1 1:0.57478593 2:0.69038256 3:0.27991405 4:0.83653033 5:0.2655873 6:0.30546987 
1 1:0.44670958 2:0.81598142 3:0.71433201 4:0.51721465 5:0.53352546 6:0.64133773 
1 1:0.42073612 2:0.52912677 3:0.79232205 4:0.14184121 5:0.8290596 6:0.24278789 
1 1:0.79413815 2:0.61988586 3:0.33307007 4:0.83877673 5:0.7970222 6:0.1166649 
1 1:0.61721076 2:0.4821084 3:0.2174376 4:0.97626841 5:0.42460049 6:0.54566325 
1 1:0.16478595 2:0.65484158 3:0.40235568 4:0.068933175 5:0.72591949 6:0.99692355 
1 1:0.53784558 2:0.70897279 3:0.20585331 4:0.43605386 5:0.69522085 6:0.93342822 
1 1:0.13795677 2:0.43655966 3:0.63890775 4:0.5768857 5:0.59271111 6:0.77813465 
1 1:0.47197257 2:0.5902149 3:0.24701612 4:0.062388027 5:0.70041672 6:0.37591691 
1 1:0.40718918 2:0.69506932 3:0.3121509 4:0.65875744 5:0.57112993 6:0.87818107 
1 1:0.57100332 2:0.35692866 3:0.23240102 4:0.11499551 5:0.50448603 6:0.68075956 
1 1:0.18934044 2:0.76257819 3:0.39438733 4:0.57848988 5:0.48826924 6:0.96013465 
1 1:0.57036981 2:0.92859073 3:0.39537477 4:0.49888475 5:0.34596971 6:0.20573893 
1 1:0.84213682 2:0.41092446 3:0.34456735 4:0.53625478 5:0.51415918 6:0.017007321 
1 1:0.5369947 2:0.22186652 3:0.25128765 4:0.23342212 5:0.57227554 6:0.76429517 
1 1:0.10948263 2:0.48130737 3:0.50099475 4:0.43252751 5:0.46813046 6:0.6783819 
1 1:0.33419835 2:0.56675605 3:0.20019827 4:0.44427733 5:0.5917419 6:0.97198589 
1 1:0.56121254 2:0.73061859 3:0.72756235 4:0.65216939 5:0.59606792 6:0.72956637 
1 1:0.65253601 2:0.54945324 3:0.67590792 4:0.17843158 5:0.66435058 6:0.77250793 
1 1:0.17648334 2:0.28687198 3:0.39429277 4:0.71792995 5:0.56761788 6:0.91823562 
1 1:0.35435327 2:0.34614045 3:0.28506338 4:0.046970454 5:0.25517193 6:0.88889698 
1 1:0.87733177 2:0.38858226 3:0.4675989 4:0.73395886 5:0.29760281 6:0.41759712 
1 1:0.90469791 2:0.57423369 3:0.53772504 4:0.83861463 5:0.57003383 6:0.71666732 
1 1:0.42100072 2:0.73674035 3:0.33663861 4:0.019214942 5:0.8778123 6:0.78175847 
1 1:0.2582501 2:0.3276006 3:0.25236243 4:0.7824676 5:0.6563979 6:0.86785972 
1 1:0.73524376 2:0.53445554 3:0.31014564 4:0.93905421 5:0.49372393 6:0.85452076 
1 1:0.63168859 2:0.71839487 3:0.75607004 4:0.12928542 5:0.57360798 6:0.32855467 
1 1:0.70073508 2:0.83021495 3:0.34532522 4:0.25076068 5:0.46059056 6:0.14607939 
1 1:0.24090919 2:0.41389899 3:0.65607929 4:0.68083438 5:0.28348812 6:0.23604999 
1 1:0.73926505 2:0.7611919 3:0.70538924 4:0.61907377 5:0.24005578 6:0.68417331 
1 1:0.65078423 2:0.56544208 3:0.71511019 4:0.50039844 5:0.82036151 6:0.12302102 
1 1:0.33826098 2:0.66111433 3:0.77026501 4:0.44505131 5:0.75691213 6:0.66094909 
1 1:0.38760014 2:0.20491176 3:0.68978863 4:0.81899618 5:0.16637445 6:0.20903703 
1 1:0.57620966 2:0.70875053 3:0.30110231 4:0.9130868 5:0.40963089 6:0.2611865 
1 1:0.13966787 2:0.40523062 3:0.35777764 4:0.48108484 5:0.42388071 6:0.84862174 
1 1:0.87227789 2:0.42651089 3:0.52084492 4:0.76855081 5:0.62296694 6:0.58992875 
1 1:0.5839422 2:0.50814342 3:0.52356885 4:0.35557766 5:0.59565687 6:0.74593122 
1 1:0.82403398 2:0.47485501 3:0.41293933 4:0.48729216 5:0.490159 6:0.43903003 
1 1:0.38145535 2:0.47252607 3:0.26689974 4:0.43093001 5:0.60738216 6:0.97331058 
1 1:0.58304775 2:0.16541232 3:0.68953666 4:0.7226275 5:0.3911586 6:0.45289908 
1 1:0.26059876 2:0.38382272 3:0.29150743 4:0.94345006 5:0.83023035 6:0.91109878 
1 1:0.40304975 2:0.16268568 3:0.6409638 4:0.82718989 5:0.60458743 6:0.25038775 
1 1:0.75230738 2:0.58185719 3:0.71213665 4:0.19348245 5:0.3211605 6:0.97224467 
1 1:0.52555398 2:0.65035254 3:0.6652808 4:0.81652707 5:0.4421395 6:0.79242275 
0.6868511677475128 1:0.66742195 2:0.14474273 3:0.68925468 4:0.78030426 5:0.51561898 6:0.56044831 
1 1:0.92407965 2:0.58541781 3:0.61813292 4:0.37343635 5:0.28094909 6:0.43892758 
1 1:0.58501573 2:0.37564613 3:0.70347106 4:0.81474707 5:0.72529838 6:0.43887291 
1 1:0.65473229 2:0.80247587 3:0.58614394 4:0.44079447 5:0.71242551 6:0.98377305 
1 1:0.18200852 2:0.35227365 3:0.31526796 4:0.20471488 5:0.59298791 6:0.52447508 
1 1:0.68497045 2:0.41613952 3:0.31892258 4:0.49267319 5:0.10742042 6:0.52081934 
1 1:0.63800143 2:0.84592555 3:0.38301484 4:0.21682686 5:0.46078192 6:0.7662312 
1 1:0.39830338 2:0.11180979 3:0.56461764 4:0.670248 5:0.31684382 6:0.87020567 
1 1:0.91904969 2:0.57548048 3:0.5663154 4:0.57319312 5:0.15537172 6:0.5474277 
1 1:0.46451749 2:0.32866139 3:0.32897308 4:0.325147 5:0.21145108 6:0.86610348 
1 1:0.64497305 2:0.89896873 3:0.46735152 4:0.56853953 5:0.66728664 6:0.2877847 
1 1:0.42601411 2:0.092059392 3:0.58543884 4:0.95568563 5:0.58757862 6:0.6081465 
1 1:0.69503562 2:0.36729819 3:0.79648647 4:0.54865545 5:0.55859528 6:0.32432252 
1 1:0.58047973 2:0.79478313 3:0.34161648 4:0.8241261 5:0.61345732 6:0.81616799 
1 1:0.44240094 2:0.55063191 3:0.82111751 4:0.74618416 5:0.30439987 6:0.67667776 
1 1:0.33824006 2:0.51340584 3:0.21460276 4:0.87351607 5:0.33543773 6:0.86329916 
1 1:0.5338537 2:0.49620178 3:0.49369151 4:0.31787868 5:0.24475688 6:0.81236539 
1 1:0.14916921 2:0.51592289 3:0.39799794 4:0.57587144 5:0.048112463 6:0.76886563 
1 1:0.69652008 2:0.33261542 3:0.29193723 4:0.20525456 5:0.65224586 6:0.56832477 
1 1:0.61247473 2:0.58390215 3:0.71991655 4:0.41109308 5:0.770773 6:0.75518656 
1 1:0.60775384 2:0.47363984 3:0.79297629 4:0.71951263 5:0.30317345 6:0.69777983 
1 1:0.1529462 2:0.61848576 3:0.30955516 4:0.19404295 5:0.42442022 6:0.58761488 
1 1:0.58469523 2:0.12347585 3:0.49417436 4:0.23392148 5:0.26894324 6:0.9859431 
1 1:0.47027746 2:0.173561 3:0.44165578 4:0.70643392 5:0.35926829 6:0.5511952 
1 1:0.56947132 2:0.17028164 3:0.72095788 4:0.31914293 5:0.67592656 6:0.33193935 
1 1:0.44531398 2:0.80156294 3:0.70463675 4:0.63329613 5:0.47891641 6:0.31731825 
1 1:0.89554375 2:0.42984383 3:0.58484443 4:0.50164542 5:0.29836902 6:0.14841498 
1 1:0.60330794 2:0.80994031 3:0.67640435 4:0.36218522 5:0.34554723 6:0.20403635 
1 1:0.74773687 2:0.51390529 3:0.22436322 4:0.68635681 5:0.46356854 6:0.77552127 
1 1:0.61502092 2:0.62733385 3:0.77375527 4:0.10783431 5:0.31156091 6:0.88517559 
1 1:0.73790036 2:0.41307087 3:0.64713363 4:0.98750409 5:0.82133804 6:0.25834083 
1 1:0.71397182 2:0.50321182 3:0.78793353 4:0.038634878 5:0.45389097 6:0.93807329 
1 1:0.34297009 2:0.84411219 3:0.36633103 4:0.20391261 5:0.8504582 6:0.6843179 
1 1:0.66293705 2:0.65551941 3:0.73515036 4:0.92432419 5:0.43462576 6:0.095559392 
1 1:0.21040122 2:0.25794084 3:0.62208091 4:0.60204541 5:0.69154594 6:0.049640617 
1 1:0.88555014 2:0.42035723 3:0.3442137 4:0.62126186 5:0.49011748 6:0.97000679 
1 1:0.32860546 2:0.57073089 3:0.73970526 4:0.6903949 5:0.66940436 6:0.47106996 
1 1:0.096626817 2:0.53835869 3:0.53317566 4:0.15874784 5:0.2389023 6:0.88916162 
1 1:0.51005502 2:0.3530994 3:0.25344108 4:0.73225702 5:0.16434774 6:0.053457353 
1 1:0.49678337 2:0.71623187 3:0.31651378 4:0.89834847 5:0.67792136 6:0.8753146 
1 1:0.54926283 2:0.38436843 3:0.7799607 4:0.79117502 5:0.73938131 6:0.37361846 
1 1:0.89684124 2:0.37287078 3:0.50903965 4:0.43027069 5:0.73759612 6:0.84739183 
1 1:0.66068401 2:0.64748654 3:0.76074847 4:0.60716442 5:0.39269257 6:0.5921083 
1 1:0.89591227 2:0.36086788 3:0.58258466 4:0.93271969 5:0.48654668 6:0.40142651 
1 1:0.36460938 2:0.60433532 3:0.64663457 4:0.7697358 5:0.44521737 6:0.80278851 
1 1:0.44021575 2:0.19906604 3:0.62662287 4:0.23011872 5:0.51559518 6:0.052210832 
1 1:0.59173292 2:0.40214119 3:0.49479347 4:0.3454876 5:0.59722558 6:0.731318 
1 1:0.43777194 2:0.86601964 3:0.38214414 4:0.11946043 5:0.23101789 6:0.30231044 
1 1:0.26947614 2:0.82357175 3:0.55511404 4:0.46715691 5:0.90599272 6:0.48210886 
1 1:0.43349856 2:0.50254523 3:0.20789774 4:0.77239659 5:0.73557668 6:0.13612985 
1 1:0.43242202 2:0.68806765 3:0.624734 4:0.22276469 5:0.1842296 6:0.25944006 
1 1:0.29383995 2:0.36248985 3:0.70829261 4:0.25020605 5:0.18564984 6:0.17984157 
1 1:0.31986343 2:0.82922786 3:0.44002535 4:0.71097133 5:0.65381974 6:0.43802823 
1 1:0.20240679 2:0.70588343 3:0.39260724 4:0.70228593 5:0.38073325 6:0.87879831 
1 1:0.74628649 2:0.36859953 3:0.64293143 4:0.45060475 5:0.066526389 6:0.88873975 
1 1:0.80246389 2:0.705834 3:0.36234696 4:0.074549425 5:0.3984374 6:0.83037276 
1 1:0.58377861 2:0.20399784 3:0.36457465 4:0.78601917 5:0.59539609 6:0.72795645 
1 1:0.37488173 2:0.42440159 3:0.6546158 4:0.51890486 5:0.18139928 6:0.27955679 
1 1:0.58580794 2:0.38344497 3:0.29091656 4:0.79397274 5:0.78817123 6:0.25559598 
1 1:0.57497939 2:0.54397321 3:0.65866357 4:0.99865689 5:0.71529562 6:0.71929164 
1 1:0.71972206 2:0.14976324 3:0.62945198 4:0.4499523 5:0.43789424 6:0.76643269 
1 1:0.22588294 2:0.20510712 3:0.48229962 4:0.41918196 5:0.31321925 6:0.00074010728 
1 1:0.39523063 2:0.5718988 3:0.28212265 4:0.32469724 5:0.79926966 6:0.15087115 
1 1:0.6742254 2:0.071253729 3:0.5635677 4:0.4964543 5:0.62039589 6:0.73026321 
1 1:0.76046813 2:0.28486316 3:0.71271848 4:0.74188685 5:0.48795344 6:0.45668136 
1 1:0.56034561 2:0.60110395 3:0.72297202 4:0.49205524 5:0.30388428 6:0.27597053 
1 1:0.30473085 2:0.47767741 3:0.6592543 4:0.55211297 5:0.23924107 6:0.75070996 
1 1:0.24386327 2:0.57874792 3:0.25548936 4:0.77625038 5:0.61070935 6:0.58644911 
1 1:0.14571654 2:0.6488111 3:0.3730948 4:0.57591789 5:0.38709558 6:0.73906336 
1 1:0.63346922 2:0.25364714 3:0.61739084 4:0.9329141 5:0.37031027 6:0.24219088 
1 1:0.71442853 2:0.58157953 3:0.20487163 4:0.58080175 5:0.71287806 6:0.29584876 
1 1:0.86918134 2:0.62990237 3:0.53904785 4:0.36062466 5:0.62438804 6:0.61000912 
1 1:0.48959443 2:0.86484357 3:0.40312171 4:0.24963513 5:0.63011531 6:0.30153823 
1 1:0.74863559 2:0.29051874 3:0.67870786 4:0.15150317 5:0.34567219 6:0.65044789 
1 1:0.59250319 2:0.17438442 3:0.31049337 4:0.25446174 5:0.60455349 6:0.40671046 
1 1:0.53482224 2:0.17766642 3:0.73174286 4:0.82234399 5:0.458292 6:0.31846073 
1 1:0.88550304 2:0.38881215 3:0.56054932 4:0.034546555 5:0.19901067 6:0.054457511 
1 1:0.48111919 2:0.41310858 3:0.27241835 4:0.32286228 5:0.26073861 6:0.54834265 
1 1:0.50997098 2:0.8182163 3:0.71307558 4:0.096067678 5:0.69335674 6:0.6179302 
1 1:0.53500633 2:0.30513557 3:0.33415234 4:0.35840881 5:0.04873074 6:0.59562899 
1 1:0.43287116 2:0.35116353 3:0.25307492 4:0.029444399 5:0.88571702 6:0.5922515 
1 1:0.089442528 2:0.50476972 3:0.43506545 4:0.3405822 5:0.51551042 6:0.78571283 
1 1:0.57370779 2:0.17552136 3:0.31866629 4:0.049267369 5:0.26491296 6:0.12111093 
1 1:0.56619012 2:0.31078887 3:0.71365487 4:0.71083166 5:0.34894968 6:0.58919182 
1 1:0.29444106 2:0.6123046 3:0.74420792 4:0.091293943 5:0.74411235 6:0.53374235 
1 1:0.13096846 2:0.61354794 3:0.5094314 4:0.77284934 5:0.42681181 6:0.44749696 
1 1:0.69448553 2:0.32808977 3:0.70804703 4:0.092045595 5:0.38615897 6:0.70563413 
1 1:0.38853071 2:0.61213534 3:0.80306306 4:0.3399833 5:0.44080155 6:0.54590506 
1 1:0.15608346 2:0.41620933 3:0.71566893 4:0.65554191 5:0.66769106 6:0.41378425 
1 1:0.41078007 2:0.13849758 3:0.47150451 4:0.66957532 5:0.19847999 6:0.76428481 
1 1:0.37761824 2:0.43239562 3:0.70207942 4:0.49972955 5:0.52219294 6:0.28530142 
1 1:0.38404373 2:0.93189181 3:0.48141964 4:0.40498886 5:0.43233491 6:0.33711119 
1 1:0.68371494 2:0.49895759 3:0.28044028 4:0.13612884 5:0.53616478 6:0.24608363 
1 1:0.6252169 2:0.48480365 3:0.19015188 4:0.19026837 5:0.60789639 6:0.08580949 
1 1:0.1250043 2:0.71423974 3:0.50158503 4:0.13556815 5:0.42074482 6:0.46269013 
1 1:0.24132635 2:0.55417831 3:0.34933986 4:0.95034367 5:0.76947441 6:0.056004354 
1 1:0.16260106 2:0.55275711 3:0.43343579 4:0.97166794 5:0.7982768 6:0.76162852 
1 1:0.40529228 2:0.85105895 3:0.67578917 4:0.71080312 5:0.71915514 6:0.33520202 
1 1:0.62151551 2:0.85404614 3:0.44055395 4:0.66679554 5:0.49690306 6:0.82079941 
1 1:0.55102681 2:0.54903806 3:0.29265826 4:0.093027553 5:0.065852647 6:0.38705464 
1 1:0.2548107 2:0.7267459 3:0.74415348 4:0.47673447 5:0.34925884 6:0.39687439 
1 1:0.65012493 2:0.75278665 3:0.26928048 4:0.47570196 5:0.82979519 6:0.42866138 
1 1:0.54828538 2:0.6270096 3:0.78785383 4:0.69550426 5:0.90492736 6:0.66374676 
1 1:0.36069575 2:0.60291032 3:0.75101354 4:0.84564228 5:0.76013017 6:0.84576571 
1 1:0.57589795 2:0.12303248 3:0.41601483 4:0.20149123 5:0.61666909 6:0.42510144 
1 1:0.55086928 2:0.3087685 3:0.77275133 4:0.63170494 5:0.20798748 6:0.77768884 
1 1:0.30535029 2:0.63995517 3:0.74799319 4:0.75496176 5:0.40442065 6:0.62868423 
1 1:0.35795651 2:0.72621913 3:0.26822411 4:0.25254848 5:0.11091141 6:0.3449174 
1 1:0.66896767 2:0.74034025 3:0.63408817 4:0.98380588 5:0.39792034 6:0.29666822 
1 1:0.27284504 2:0.36100023 3:0.68346157 4:0.47684355 5:0.18375249 6:0.18127875 
1 1:0.36447236 2:0.68834784 3:0.19525919 4:0.6045565 5:0.48224675 6:0.31726263 
1 1:0.099816208 2:0.67353873 3:0.45930831 4:0.33188031 5:0.58572695 6:0.32427449 
1 1:0.4428556 2:0.172807 3:0.35417547 4:0.80078483 5:0.48396541 6:0.091626319 
1 1:0.54456464 2:0.10882778 3:0.61070415 4:0.43280944 5:0.40115855 6:0.75214187 
1 1:0.2580668 2:0.56559517 3:0.34994168 4:0.34373341 5:0.39017764 6:0.18349732 
1 1:0.76323133 2:0.30864589 3:0.73493255 4:0.69015706 5:0.37344179 6:0.33331773 
1 1:0.46342313 2:0.87996509 3:0.49694885 4:0.15974893 5:0.33724291 6:0.68752101 
1 1:0.69444224 2:0.21938037 3:0.3222921 4:0.3011306 5:0.50983259 6:0.14232932 
1 1:0.71154972 2:0.19477084 3:0.35067597 4:0.43394829 5:0.14121346 6:0.085127773 
1 1:0.77053396 2:0.54680458 3:0.7140489 4:0.063196554 5:0.6098816 6:0.71352681 
1 1:0.55306453 2:0.73383298 3:0.27224269 4:0.10391715 5:0.77976792 6:0.78291966 
1 1:0.75842166 2:0.6272383 3:0.66080354 4:0.44235856 5:0.17111502 6:0.83646905 
1 1:0.79238917 2:0.39681666 3:0.31140085 4:0.13388219 5:0.46636124 6:0.20090746 
1 1:0.86833873 2:0.64063762 3:0.4332118 4:0.33766265 5:0.5109589 6:0.60914716 
1 1:0.42387685 2:0.24768543 3:0.33603918 4:0.30899671 5:0.35670029 6:0.17474291 
1 1:0.35306273 2:0.29076835 3:0.25035766 4:0.4903495 5:0.4290441 6:0.83550103 
1 1:0.29046782 2:0.16584542 3:0.39688098 4:0.57974619 5:0.20736732 6:0.11435129 
1 1:0.14666089 2:0.27711405 3:0.54575908 4:0.44022716 5:0.65274361 6:0.45831934 
1 1:0.23488107 2:0.26004875 3:0.34700222 4:0.22436566 5:0.23817233 6:0.21911989 
1 1:0.57309558 2:0.33915157 3:0.50652899 4:0.81496458 5:0.73138789 6:0.23170357 
1 1:0.6570029 2:0.65808772 3:0.71139459 4:0.9531079 5:0.38031066 6:0.32013043 
1 1:0.63180308 2:0.46722181 3:0.69817898 4:0.45808999 5:0.69208257 6:0.17253644 
0.2484078607257753 1:0.4372023 2:0.30369895 3:0.27640814 4:0.99545279 5:0.85063246 6:0.99144051 
1 1:0.51629439 2:0.41451703 3:0.22057042 4:0.75116258 5:0.65563322 6:0.89919112 
1 1:0.62209382 2:0.39158592 3:0.3087744 4:0.98517642 5:0.74577997 6:0.25638057 
1 1:0.50045975 2:0.53463009 3:0.30239511 4:0.48168266 5:0.72397156 6:0.41690955 
1 1:0.58305302 2:0.73404482 3:0.30787889 4:0.66456917 5:0.33680812 6:0.76508757 
1 1:0.41395582 2:0.54406261 3:0.28378426 4:0.57914826 5:0.3717785 6:0.89746184 
1 1:0.55375848 2:0.58061751 3:0.74123701 4:0.62857717 5:0.5957101 6:0.058548932 
1 1:0.65064541 2:0.89653638 3:0.62032947 4:0.53316347 5:0.66669062 6:0.35966829 
1 1:0.40693828 2:0.2014539 3:0.7276444 4:0.15470756 5:0.60054796 6:0.63205822 
1 1:0.89545052 2:0.45417557 3:0.47243348 4:0.86030879 5:0.67434278 6:0.047375534 
1 1:0.35581329 2:0.4023416 3:0.6825297 4:0.66805724 5:0.46976322 6:0.71925043 
1 1:0.66492947 2:0.48411914 3:0.69393106 4:0.84270609 5:0.91049783 6:0.19131105 
0.4305130876652544 1:0.63805915 2:0.6201775 3:0.18883101 4:0.057308726 5:0.52623375 6:0.67649368 
1 1:0.50569436 2:0.23779616 3:0.28866949 4:0.46237746 5:0.57390588 6:0.79379071 
1 1:0.49225316 2:0.69558317 3:0.28863198 4:0.9702551 5:0.4027266 6:0.82996655 
1 1:0.81405441 2:0.46094557 3:0.5949059 4:0.0037002191 5:0.42573559 6:0.86497643 
1 1:0.2872673 2:0.44118096 3:0.25764035 4:0.66496366 5:0.59282148 6:0.51422704 
1 1:0.87999835 2:0.4972863 3:0.45032811 4:0.018918753 5:0.44989466 6:0.41332366 
1 1:0.55038995 2:0.17250672 3:0.68840021 4:0.012429191 5:0.32755267 6:0.77097987 
1 1:0.66510481 2:0.89900066 3:0.46950292 4:0.026063165 5:0.38588409 6:0.53675383 
1 1:0.73487228 2:0.68263281 3:0.35166359 4:0.91565457 5:0.52279468 6:0.78069137 
1 1:0.86827267 2:0.65327279 3:0.41774172 4:0.80584595 5:0.60084307 6:0.62976287 
1 1:0.72434921 2:0.50696846 3:0.2342704 4:0.65271989 5:0.20338832 6:0.84710129 
1 1:0.2775839 2:0.57230449 3:0.28756668 4:0.15956161 5:0.67639114 6:0.6075405 
1 1:0.61215983 2:0.15618066 3:0.52106064 4:0.70258657 5:0.18801301 6:0.33399904 
1 1:0.50608115 2:0.72633476 3:0.31863117 4:0.23420391 5:0.47487469 6:0.78063147 
1 1:0.61426314 2:0.61790098 3:0.22608534 4:0.31950667 5:0.40293256 6:0.2203077 
1 1:0.47519742 2:0.62663093 3:0.46722443 4:0.81579862 5:0.02987121 6:0.66897206 
1 1:0.66829816 2:0.39714216 3:0.25730108 4:0.70935273 5:0.60360478 6:0.63715627 
1 1:0.41564218 2:0.8372062 3:0.60740316 4:0.29886227 5:0.77440128 6:0.23943986 
1 1:0.33266163 2:0.7292603 3:0.72127875 4:0.052874518 5:0.40272922 6:0.49738488 
1 1:0.86166811 2:0.55427488 3:0.57391745 4:0.65108796 5:0.39966027 6:0.83633039 
1 1:0.7732709 2:0.61330181 3:0.34622523 4:0.0049210688 5:0.077904429 6:0.40675652 
1 1:0.71372693 2:0.82086472 3:0.54559 4:0.67209023 5:0.73214652 6:0.61447768 
1 1:0.68509521 2:0.36793979 3:0.71138821 4:0.36843971 5:0.2870607 6:0.20687042 
1 1:0.56797745 2:0.44416237 3:0.71530565 4:0.27244255 5:0.16661976 6:0.63561697 
1 1:0.2834716 2:0.3861759 3:0.76065166 4:0.12986232 5:0.70128947 6:0.41108047 
1 1:0.15991091 2:0.30814882 3:0.41984386 4:0.73528781 5:0.79898011 6:0.46108299 
1 1:0.84914978 2:0.25535647 3:0.51239758 4:0.66405847 5:0.16047818 6:0.60751134 
1 1:0.28684765 2:0.47170894 3:0.36826372 4:0.87686908 5:0.6130586 6:0.74307086 
0.1515743125978476 1:0.9314598 2:0.57274593 3:0.61724617 4:0.67537025 5:0.64107606 6:0.2355174 
1 1:0.89574182 2:0.5975996 3:0.52714008 4:0.43265712 5:0.50243064 6:0.78851727 
1 1:0.38099839 2:0.16562906 3:0.54850309 4:0.19216496 5:0.37377097 6:0.62568217 
1 1:0.83542584 2:0.3805101 3:0.28884281 4:0.69906202 5:0.3176673 6:0.76305834 
1 1:0.13632029 2:0.3836486 3:0.66073941 4:0.80467554 5:0.70589182 6:0.83879049 
1 1:0.61827409 2:0.14731726 3:0.30512748 4:0.40297219 5:0.2791902 6:0.64519862 
1 1:0.31740432 2:0.66731116 3:0.74320187 4:0.60006297 5:0.34390504 6:0.80080818 
1 1:0.21874669 2:0.60891146 3:0.76047441 4:0.38294586 5:0.71416851 6:0.87806105 
1 1:0.86020719 2:0.73267283 3:0.41984247 4:0.41882281 5:0.71661528 6:0.21368533 
1 1:0.63018693 2:0.89427631 3:0.44279002 4:0.60619505 5:0.33497097 6:0.63534332 
1 1:0.61046544 2:0.86531698 3:0.38695024 4:0.40305269 5:0.55298309 6:0.52801887 
1 1:0.28404834 2:0.41222034 3:0.24342912 4:0.041877252 5:0.46929282 6:0.15409086 
1 1:0.32631231 2:0.8352766 3:0.67718107 4:0.75200412 5:0.57976248 6:0.6282025 
1 1:0.22635597 2:0.69799173 3:0.3395894 4:0.90904862 5:0.45105905 6:0.67732745 
1 1:0.78132124 2:0.86332989 3:0.51463274 4:0.20772972 5:0.53064 6:0.36773536 
1 1:0.11398025 2:0.48888606 3:0.42766905 4:0.97178291 5:0.27503695 6:0.92338911 
1 1:0.57058804 2:0.50351008 3:0.22519018 4:0.24418396 5:0.086061101 6:0.18479125 
1 1:0.66077513 2:0.48528239 3:0.71618912 4:0.079671525 5:0.57103131 6:0.18648963 
1 1:0.45203154 2:0.16571822 3:0.6247284 4:0.71250373 5:0.38392384 6:0.3949025 
1 1:0.31417008 2:0.60673044 3:0.76368688 4:0.028147876 5:0.77130951 6:0.261272 
1 1:0.4518658 2:0.67034289 3:0.33073491 4:0.57219047 5:0.62887493 6:0.21127163 
1 1:0.52756954 2:0.52105093 3:0.21383981 4:0.099874043 5:0.67969622 6:0.64854071 
1 1:0.34702094 2:0.35957275 3:0.24442241 4:0.22811781 5:0.68857254 6:0.69246635 
0.5918015753187328 1:0.10354596 2:0.7598134 3:0.50792562 4:0.25520836 5:0.60519663 6:0.70129481 
1 1:0.37331403 2:0.31307629 3:0.25467583 4:0.76899541 5:0.55012347 6:0.046936883 
1 1:0.55488382 2:0.1100591 3:0.62508288 4:0.010702398 5:0.50961184 6:0.21597305 
1 1:0.65118524 2:0.36153119 3:0.79216988 4:0.82889129 5:0.37145971 6:0.30343418 
1 1:0.32221871 2:0.26327873 3:0.73951419 4:0.80671447 5:0.45563527 6:0.22514106 
1 1:0.5843923 2:0.13768042 3:0.3967154 4:0.50743192 5:0.36775844 6:0.69606571 
1 1:0.65008959 2:0.700035 3:0.24386084 4:0.72172754 5:0.5260368 6:0.090722224 
1 1:0.4717061 2:0.52386343 3:0.63575706 4:0.56364784 5:0.48287542 6:0.72456512 
1 1:0.14468245 2:0.37904454 3:0.48657801 4:0.19345036 5:0.98431891 6:0.53003035 
1 1:0.6544493 2:0.60627476 3:0.2231042 4:0.6221125 5:0.55905826 6:0.23823361 
1 1:0.81340422 2:0.37609741 3:0.61793506 4:0.37096109 5:0.23982103 6:0.1198951 
1 1:0.88170764 2:0.65702091 3:0.52204798 4:0.66807536 5:0.61645658 6:0.37155803 
1 1:0.8980122 2:0.58370835 3:0.37850513 4:0.63322855 5:0.37271767 6:0.44513724 
1 1:0.39433849 2:0.38673184 3:0.20825363 4:0.061052485 5:0.44384506 6:0.1774607 
1 1:0.86180789 2:0.6362414 3:0.54598858 4:0.96790574 5:0.59195402 6:0.85699825 
1 1:0.12168447 2:0.47508351 3:0.48502645 4:0.10015522 5:0.55585912 6:0.12481531 
1 1:0.37741354 2:0.32164955 3:0.76465218 4:0.43795919 5:0.45844689 6:0.50431897 
1 1:0.38114356 2:0.62683449 3:0.20158312 4:0.73329465 5:0.59671384 6:0.7635821 
1 1:0.28959962 2:0.64937368 3:0.30158023 4:0.91410445 5:0.53281759 6:0.16497186 
1 1:0.66144979 2:0.57105579 3:0.69170635 4:0.47046385 5:0.54890523 6:0.7884876 
1 1:0.54799132 2:0.39303426 3:0.28039661 4:0.36991085 5:0.24177314 6:0.17035096 
1 1:0.61141298 2:0.47338452 3:0.22379601 4:0.46311221 5:0.523223 6:0.23619713 
1 1:0.71581108 2:0.63811432 3:0.66905654 4:0.80797917 5:0.5815396 6:0.83102795 
1 1:0.68354586 2:0.64141159 3:0.25605044 4:0.91306358 5:0.65075452 6:0.50801194 
1 1:0.40716284 2:0.79866292 3:0.26715507 4:0.45619559 5:0.52746992 6:0.90253436 
1 1:0.10350049 2:0.55245964 3:0.44556926 4:0.87173719 5:0.65161893 6:0.25845783 
1 1:0.37502074 2:0.57846304 3:0.79339351 4:0.66493492 5:0.62346791 6:0.38357526 
1 1:0.13019974 2:0.68859656 3:0.59998009 4:0.40341928 5:0.46829258 6:0.29346394 
1 1:0.82698524 2:0.64254431 3:0.30175126 4:0.501313 5:0.57672762 6:0.89888986 
1 1:0.14315847 2:0.49665747 3:0.35386838 4:0.87820589 5:0.69617165 6:0.7262523 
1 1:0.37308688 2:0.54023519 3:0.79838203 4:0.26034813 5:0.31824576 6:0.94038593 
1 1:0.57344309 2:0.67943974 3:0.71053271 4:0.071532514 5:0.71357949 6:0.50125091 
1 1:0.48147767 2:0.86878175 3:0.48904838 4:0.40131792 5:0.35011512 6:0.068768535 
1 1:0.12236466 2:0.66204411 3:0.53315803 4:0.52236077 5:0.84339504 6:0.74542722 
1 1:0.84559611 2:0.60256437 3:0.35527667 4:0.58267669 5:0.58665613 6:0.23971016 
1 1:0.85927734 2:0.66364577 3:0.32075899 4:0.5033973 5:0.48995003 6:0.39064279 
1 1:0.12874127 2:0.35995028 3:0.53959091 4:0.24652213 5:0.35742286 6:0.50849549 
1 1:0.3877386 2:0.71760743 3:0.76581287 4:0.18741968 5:0.58208153 6:0.61551181 
1 1:0.5989815 2:0.57900353 3:0.18137342 4:0.64096051 5:0.57277105 6:0.27739547 
1 1:0.43204951 2:0.62197207 3:0.80497076 4:0.55645329 5:0.21856367 6:0.60977543 
1 1:0.30741307 2:0.65610206 3:0.2433576 4:0.44618484 5:0.62990937 6:0.81674019 
1 1:0.69565545 2:0.35446706 3:0.73158185 4:0.20853813 5:0.52044209 6:0.40115354 
1 1:0.64488726 2:0.85111206 3:0.60796912 4:0.78034703 5:0.43250465 6:0.34277232 
1 1:0.31148316 2:0.53381254 3:0.67935096 4:0.4673017 5:0.13068437 6:0.22173462 
1 1:0.31253579 2:0.41310633 3:0.65552791 4:0.7842654 5:0.31644706 6:0.78907542 
1 1:0.30661118 2:0.88675408 3:0.48526298 4:0.46183129 5:0.64721224 6:0.69846329 
1 1:0.40245466 2:0.28072243 3:0.6757793 4:0.84194022 5:0.21621862 6:0.25361917 
1 1:0.53553985 2:0.38403286 3:0.71606036 4:0.82833232 5:0.57536997 6:0.79331027 
1 1:0.172395 2:0.53484834 3:0.30060332 4:0.0032428502 5:0.6678369 6:0.66129782 
1 1:0.17712488 2:0.46131916 3:0.64570807 4:0.61903108 5:0.76726877 6:0.10397715 
1 1:0.64262991 2:0.83866532 3:0.57859693 4:0.63269634 5:0.43202886 6:0.89223779 
1 1:0.59967276 2:0.84551257 3:0.64682337 4:0.41730765 5:0.53178985 6:0.2574876 
1 1:0.26199317 2:0.16696782 3:0.44215667 4:0.69238115 5:0.49042885 6:0.25166699 
1 1:0.12445262 2:0.58184031 3:0.57341154 4:0.98207276 5:0.19838206 6:0.25209723 
1 1:0.6068754 2:0.37296715 3:0.52075909 4:0.28026275 5:0.63286397 6:0.72912103 
1 1:0.55509426 2:0.24415023 3:0.34557776 4:0.55450014 5:0.9557924 6:0.23853258 
1 1:0.1519375 2:0.56762045 3:0.2696244 4:0.27204331 5:0.64507824 6:0.46355072 
1 1:0.46274458 2:0.65597311 3:0.78621971 4:0.88437126 5:0.4178684 6:0.24282507 
1 1:0.55720054 2:0.84421443 3:0.33515498 4:0.21313935 5:0.65499638 6:0.11706355 
1 1:0.20798207 2:0.59543829 3:0.3890056 4:0.78667113 5:0.81038791 6:0.44309963 
1 1:0.78458951 2:0.55240002 3:0.31326037 4:0.60471121 5:0.37299247 6:0.77559669 
1 1:0.27840842 2:0.84482961 3:0.48813967 4:0.75791533 5:0.54315102 6:0.78822965 
1 1:0.35620884 2:0.17656171 3:0.69346477 4:0.71076746 5:0.51040948 6:0.48163559 
1 1:0.48731028 2:0.30907121 3:0.68912171 4:0.50711494 5:0.61913132 6:0.19190789 
1 1:0.33160523 2:0.81166949 3:0.44459347 4:0.71630646 5:0.53341332 6:0.56104359 
1 1:0.56573093 2:0.60753164 3:0.79993219 4:0.047662142 5:0.55505069 6:0.028461325 
1 1:0.42636758 2:0.14224869 3:0.43685423 4:0.85956852 5:0.4770396 6:0.96725328 
1 1:0.68869786 2:0.68353719 3:0.28383856 4:0.57781548 5:0.34869211 6:0.84134389 
1 1:0.77644013 2:0.3769606 3:0.66935 4:0.13856086 5:0.17711841 6:0.22179992 
1 1:0.081732192 2:0.45931459 3:0.50926828 4:0.28129373 5:0.13258177 6:0.44497374 
1 1:0.83518422 2:0.4680085 3:0.31036324 4:0.65601459 5:0.25354728 6:0.82313764 
1 1:0.89762089 2:0.35736814 3:0.36246763 4:0.31581481 5:0.4390711 6:0.38387784 
1 1:0.50054889 2:0.66298763 3:0.6748801 4:0.7877085 5:0.63138236 6:0.73657954 
1 1:0.49634945 2:0.78219435 3:0.64591313 4:0.76167809 5:0.10913138 6:0.21826125 
1 1:0.6634257 2:0.14220035 3:0.49094595 4:0.058269007 5:0.44777589 6:0.96300568 
1 1:0.38657108 2:0.29722827 3:0.2464783 4:0.4540243 5:0.61770747 6:0.30155143 
1 1:0.51536926 2:0.84893718 3:0.31192402 4:0.63653274 5:0.34762946 6:0.74459063 
1 1:0.69713411 2:0.25003452 3:0.2410747 4:0.57142924 5:0.43897095 6:0.51735108 
1 1:0.48115329 2:0.21846477 3:0.3886811 4:0.070105746 5:0.40609892 6:0.79889369 
1 1:0.90323077 2:0.52722834 3:0.55214545 4:0.46267954 5:0.93988281 6:0.50894308 
1 1:0.15418048 2:0.37446817 3:0.42382268 4:0.024236094 5:0.60895533 6:0.41038027 
1 1:0.40071267 2:0.4352974 3:0.73319745 4:0.82992633 5:0.65248006 6:0.81425103 
1 1:0.69432374 2:0.43942275 3:0.26899208 4:0.0042524101 5:0.65333453 6:0.4537933 
1 1:0.30285948 2:0.72410365 3:0.64554309 4:0.53846991 5:0.7584518 6:0.18848719 
1 1:0.12850687 2:0.38846512 3:0.35553479 4:0.23542842 5:0.57627039 6:0.6846177 
1 1:0.30856164 2:0.49240828 3:0.3281035 4:0.50610841 5:0.70999308 6:0.78741323 
1 1:0.06873915 2:0.42406035 3:0.4095795 4:0.58913407 5:0.4856014 6:0.55730287 
1 1:0.21171983 2:0.38758741 3:0.63922427 4:0.42942244 5:0.29292643 6:0.28929189 
1 1:0.50594729 2:0.33330956 3:0.30728171 4:0.98651899 5:0.29776948 6:0.67147464 
1 1:0.61090095 2:0.31277293 3:0.75397052 4:0.76865301 5:0.42264647 6:0.5558177 
1 1:0.34449325 2:0.88674025 3:0.46505373 4:0.64348186 5:0.3661852 6:0.80105804 
1 1:0.40164017 2:0.85445592 3:0.5984153 4:0.68050051 5:0.24616196 6:0.76075403 
1 1:0.35734397 2:0.48900504 3:0.66112019 4:0.44479212 5:0.60430355 6:0.18216368 
1 1:0.34019389 2:0.72834652 3:0.74313791 4:0.29651447 5:0.58977105 6:0.96453281 
1 1:0.85984695 2:0.50061632 3:0.5595025 4:0.35052687 5:0.63866787 6:0.015975226 
1 1:0.42277473 2:0.23045112 3:0.70579277 4:0.76182897 5:0.56293424 6:0.56152199 
1 1:0.34603578 2:0.22130587 3:0.26729711 4:0.24534399 5:0.69744985 6:0.36347808 
1 1:0.58102398 2:0.82723732 3:0.66139499 4:0.75293614 5:0.21160812 6:0.30845664 
1 1:0.41393329 2:0.36495804 3:0.22058906 4:0.39173659 5:0.66370663 6:0.44744558 
1 1:0.59132586 2:0.82117655 3:0.5782737 4:0.98896387 5:0.36271013 6:0.47582398 
1 1:0.5369211 2:0.32720705 3:0.76537023 4:0.55294394 5:0.72511626 6:0.098417251 
1 1:0.28331822 2:0.36366813 3:0.68495825 4:0.17690382 5:0.87044887 6:0.9352234 
1 1:0.36976803 2:0.23390919 3:0.72870204 4:0.65227828 5:0.30924011 6:0.94094326 
1 1:0.30132541 2:0.86964309 3:0.44927791 4:0.25605344 5:0.62527261 6:0.48496873 
1 1:0.1781087 2:0.56183707 3:0.70291362 4:0.7657833 5:0.5406519 6:0.97336985 
1 1:0.57704402 2:0.2123532 3:0.35307616 4:0.95204219 5:0.84693678 6:0.66904698 
1 1:0.62240598 2:0.46416336 3:0.28907681 4:0.84866579 5:0.41008806 6:0.75061334 
1 1:0.42874335 2:0.88339761 3:0.55076548 4:0.23783431 5:0.54786318 6:0.64694543 
1 1:0.49408129 2:0.64190951 3:0.28510218 4:0.073449637 5:0.63473104 6:0.45568902 
1 1:0.089786975 2:0.51217886 3:0.56381217 4:0.71296044 5:0.31189413 6:0.75508398 
1 1:0.49497679 2:0.20963717 3:0.63624796 4:0.14948004 5:0.35164601 6:0.7601382 
1 1:0.63054934 2:0.50790636 3:0.48829313 4:0.79144766 5:0.43940124 6:0.19956267 
1 1:0.73999438 2:0.41498841 3:0.75142044 4:0.088165398 5:0.35049061 6:0.0087561318 
1 1:0.10398905 2:0.65023518 3:0.55991921 4:0.31638386 5:0.5783848 6:0.044560803 
1 1:0.5955537 2:0.46458338 3:0.27943008 4:0.49153567 5:0.70766799 6:0.71029376 
1 1:0.55781634 2:0.40840535 3:0.23760083 4:0.10608562 5:0.87116836 6:0.88766674 
1 1:0.55992553 2:0.16276781 3:0.55116045 4:0.78872486 5:0.63946128 6:0.89959625 
1 1:0.41458762 2:0.3511838 3:0.69267828 4:0.44540962 5:0.3207741 6:0.25521904 
1 1:0.49833814 2:0.50189074 3:0.71832723 4:0.16624254 5:0.13267211 6:0.35998878 
1 1:0.76636991 2:0.58231917 3:0.27169833 4:0.48765453 5:0.38560937 6:0.8882342 
1 1:0.78551597 2:0.36557878 3:0.27808427 4:0.62827165 5:0.52735453 6:0.87623943 
1 1:0.87410207 2:0.46974105 3:0.54818433 4:0.44997682 5:0.6421304 6:0.23024708 
1 1:0.30432381 2:0.32058943 3:0.69948067 4:0.53443717 5:0.75272741 6:0.74122707 
1 1:0.41580439 2:0.24279498 3:0.65012243 4:0.88435166 5:0.85392536 6:0.45927199 
1 1:0.18144167 2:0.58738036 3:0.61101546 4:0.60307712 5:0.38363187 6:0.68848026 
1 1:0.54584107 2:0.13757892 3:0.62412626 4:0.17505411 5:0.59963322 6:0.33677581 
1 1:0.23464243 2:0.4601436 3:0.67009615 4:0.22771694 5:0.36788672 6:0.8053872 
1 1:0.71231727 2:0.7336554 3:0.29182638 4:0.48508425 5:0.44499617 6:0.53273327 
1 1:0.71187274 2:0.2413884 3:0.71252605 4:0.63041078 5:0.28479556 6:0.76564325 
1 1:0.47632882 2:0.48007022 3:0.16807614 4:0.40083051 5:0.24270852 6:0.13707812 
1 1:0.70089327 2:0.67884661 3:0.66414305 4:0.491052 5:0.13760352 6:0.91060812 
1 1:0.61514521 2:0.71999808 3:0.66950327 4:0.20103888 5:0.99358 6:0.3878855 
1 1:0.41592663 2:0.70915521 3:0.70535944 4:0.081039614 5:0.23564145 6:0.69384648 
1 1:0.5376711 2:0.20491741 3:0.34373055 4:0.45674624 5:0.51554142 6:0.15964444 
0.3291987657876451 1:0.54735426 2:0.757471 3:0.28514824 4:0.6338128 5:0.076069723 6:0.8244136 
1 1:0.91524258 2:0.5322409 3:0.56451109 4:0.36990469 5:0.29326628 6:0.40242114 
1 1:0.48573257 2:0.31093015 3:0.70800344 4:0.66208643 5:0.77073957 6:0.27827085 
1 1:0.36802272 2:0.23555415 3:0.69967046 4:0.73238129 5:0.66037239 6:0.16830645 
1 1:0.29727736 2:0.5488043 3:0.76684906 4:0.69688079 5:0.80211013 6:0.76743515 
1 1:0.14438191 2:0.44488382 3:0.43927037 4:0.22692404 5:0.43768101 6:0.11988107 
1 1:0.90834434 2:0.5558157 3:0.37700355 4:0.31609033 5:0.66508015 6:0.67927829 
1 1:0.41480686 2:0.34875822 3:0.73484634 4:0.6846925 5:0.27146183 6:0.98442917 
1 1:0.27189411 2:0.16281767 3:0.53880148 4:0.10666105 5:0.59569946 6:0.57842911 
1 1:0.44921078 2:0.90956848 3:0.47973483 4:0.6379978 5:0.41743151 6:0.78111311 
1 1:0.56999144 2:0.3014151 3:0.80287447 4:0.51175402 5:0.56736191 6:0.11161362 
1 1:0.47515572 2:0.84258647 3:0.28718547 4:0.78769366 5:0.40764042 6:0.25490227 
1 1:0.22251728 2:0.56492048 3:0.27560528 4:0.87018009 5:0.61810547 6:0.7641855 
1 1:0.48394503 2:0.20884137 3:0.71515286 4:0.11644365 5:0.7480256 6:0.47751539 
1 1:0.5296712 2:0.467621 3:0.30440253 4:0.94803056 5:0.45912967 6:0.38352282 
1 1:0.50549604 2:0.50671011 3:0.26196544 4:0.24759697 5:0.54143318 6:0.30805182 
1 1:0.35895091 2:0.5220005 3:0.3092431 4:0.028935194 5:0.2299013 6:0.12247144 
0.01938477518285232 1:0.863389 2:0.21013847 3:0.49659151 4:0.4940505 5:0.59204754 6:0.065124219 
1 1:0.43475668 2:0.88828755 3:0.37534044 4:0.80941254 5:0.40518659 6:0.74913941 
1 1:0.070974589 2:0.52507663 3:0.54627613 4:0.82403281 5:0.26724879 6:0.84307637 
1 1:0.51859459 2:0.66227708 3:0.30899647 4:0.2549292 5:0.99026971 6:0.61132027 
1 1:0.14347695 2:0.54819192 3:0.46695477 4:0.59535282 5:0.20890725 6:0.54652187 
1 1:0.5291295 2:0.50897338 3:0.53208504 4:0.64533028 5:0.45375456 6:0.75111459 
1 1:0.74801023 2:0.6656693 3:0.32101891 4:0.15232518 5:0.80903679 6:0.16566247 
1 1:0.51417172 2:0.34685793 3:0.20754913 4:0.50357412 5:0.4464993 6:0.93330076 
1 1:0.69620932 2:0.52813498 3:0.32390418 4:0.96984891 5:0.69806327 6:0.75460535 
1 1:0.1364061 2:0.41155032 3:0.42942937 4:0.37304833 5:0.63603611 6:0.14742877 
1 1:0.45455715 2:0.15098437 3:0.52078918 4:0.75742887 5:0.55407558 6:0.96153684 
1 1:0.83643549 2:0.77762269 3:0.45490315 4:0.15579806 5:0.74802774 6:0.78251667 
1 1:0.21140995 2:0.3651528 3:0.31071333 4:0.25445191 5:0.19464583 6:0.55778588 
1 1:0.5458657 2:0.3021138 3:0.73745363 4:0.81659442 5:0.9041545 6:0.85353068 
1 1:0.36739941 2:0.76482231 3:0.70753099 4:0.22387819 5:0.6896862 6:0.72158175 
1 1:0.30047285 2:0.65297693 3:0.77605185 4:0.30107833 5:0.74800973 6:0.315787 
0.890098342615437 1:0.43558632 2:0.66846588 3:0.17355397 4:0.40010435 5:0.47965879 6:0.16811798 
1 1:0.63806069 2:0.51730512 3:0.78338599 4:0.6206908 5:0.30771454 6:0.45195781 
1 1:0.34125836 2:0.62284707 3:0.34937596 4:0.43397066 5:0.39027418 6:0.79095879 
1 1:0.36812029 2:0.34560039 3:0.24194195 4:0.55750202 5:0.5317912 6:0.1052316 
1 1:0.50486607 2:0.55446078 3:0.25667107 4:0.46622684 5:0.76042554 6:0.019188253 
0.827483379380933 1:0.7910905 2:0.79056511 3:0.67010015 4:0.46397819 5:0.51219581 6:0.20138797 
1 1:0.34917206 2:0.41240854 3:0.76468828 4:0.28800975 5:0.30665301 6:0.20703724 
1 1:0.35338291 2:0.51050893 3:0.70936328 4:0.52975978 5:0.58876455 6:0.95616083 
1 1:0.63166191 2:0.28038231 3:0.7458014 4:0.46193473 5:0.38715865 6:0.11177166 
1 1:0.64947454 2:0.66134947 3:0.28059815 4:0.092198648 5:0.33537891 6:0.49546434 
1 1:0.39302893 2:0.10105989 3:0.38707355 4:0.61201959 5:0.40514413 6:0.60331774 
1 1:0.8951002 2:0.59043352 3:0.5369364 4:0.24342555 5:0.358837 6:0.41379998 
1 1:0.3889784 2:0.68554405 3:0.79041258 4:0.49487075 5:0.34658128 6:0.59782018 
1 1:0.37652933 2:0.39156863 3:0.76501345 4:0.49508323 5:0.35803628 6:0.37061662 
1 1:0.50508765 2:0.17157513 3:0.66239217 4:0.66586558 5:0.787536 6:0.65360733 
1 1:0.45474489 2:0.1290236 3:0.46006783 4:0.21913537 5:0.756511 6:0.30205288 
1 1:0.71480383 2:0.60068803 3:0.72787777 4:0.11862042 5:0.30840552 6:0.95529456 
1 1:0.49427837 2:0.36917755 3:0.73151078 4:0.97221022 5:0.43593339 6:0.92193966 
1 1:0.76352549 2:0.46929544 3:0.74557677 4:0.93747785 5:0.27935183 6:0.45624122 
1 1:0.53522857 2:0.6647349 3:0.7064048 4:0.9607808 5:0.68966302 6:0.81936465 
1 1:0.18512987 2:0.4444125 3:0.66833315 4:0.17374916 5:0.39269222 6:0.3161796 
1 1:0.5610537 2:0.84325252 3:0.32104951 4:0.50694217 5:0.23007028 6:0.71456562 
1 1:0.61813945 2:0.34431731 3:0.23581374 4:0.089161765 5:0.4163402 6:0.55932695 
1 1:0.44210051 2:0.90800728 3:0.46637587 4:0.77505734 5:0.59723533 6:0.95669734 
1 1:0.8109717 2:0.62428356 3:0.3303971 4:0.24414618 5:0.8122018 6:0.8468477 
1 1:0.32739488 2:0.36051802 3:0.71210177 4:0.0725685 5:0.50848924 6:0.18895441 
1 1:0.71506941 2:0.64345085 3:0.3087392 4:0.63938659 5:0.45487033 6:0.76097963 
1 1:0.51243119 2:0.3159524 3:0.72516794 4:0.01855765 5:0.37229099 6:0.18484923 
1 1:0.43097236 2:0.12077225 3:0.60110007 4:0.52985707 5:0.41494203 6:0.61811567 
1 1:0.91736452 2:0.35974896 3:0.47738709 4:0.31832035 5:0.36513715 6:0.6554902 
1 1:0.61658304 2:0.67241113 3:0.74745349 4:0.54675499 5:0.49045861 6:0.40250637 
1 1:0.91238718 2:0.63654418 3:0.43407528 4:0.069893752 5:0.69263136 6:0.7862696 
1 1:0.67395173 2:0.52371322 3:0.20987505 4:0.46179361 5:0.22544972 6:0.61983606 
1 1:0.55815765 2:0.381449 3:0.78838236 4:0.51503239 5:0.26998481 6:0.068172495 
1 1:0.65531972 2:0.6404195 3:0.67002489 4:0.79117676 5:0.86905862 6:0.2061659 
1 1:0.8876049 2:0.69890627 3:0.40142753 4:0.60663845 5:0.32632803 6:0.23881822 
1 1:0.87273911 2:0.26022202 3:0.5992245 4:0.63678969 5:0.48352556 6:0.74180546 
1 1:0.78622995 2:0.25225852 3:0.62660624 4:0.91877271 5:0.58807796 6:0.4695555 
1 1:0.56790764 2:0.88671821 3:0.54955392 4:0.19453724 5:0.83416412 6:0.77123047 
1 1:0.83629766 2:0.40798977 3:0.29471941 4:0.82672652 5:0.74205598 6:0.44435761 
1 1:0.61041158 2:0.51544119 3:0.80050873 4:0.1451556 5:0.45945509 6:0.31541919 
1 1:0.49335062 2:0.84780555 3:0.2866059 4:0.26139354 5:0.50921098 6:0.3188911 
1 1:0.50638709 2:0.66661019 3:0.19039795 4:0.17798933 5:0.33827791 6:0.32605815 
1 1:0.86292343 2:0.24419339 3:0.60183964 4:0.5758032 5:0.46580021 6:0.42512573 
1 1:0.8472722 2:0.4480974 3:0.48970236 4:0.99167272 5:0.28197216 6:0.9172169 
1 1:0.43692431 2:0.56585033 3:0.218696 4:0.37000196 5:0.5872492 6:0.44599969 
1 1:0.34487735 2:0.79323643 3:0.39325043 4:0.28874121 5:0.17818259 6:0.2253106 
1 1:0.068288224 2:0.51679181 3:0.35703108 4:0.63480389 5:0.35966284 6:0.61566038 
1 1:0.8596634 2:0.6989078 3:0.55968106 4:0.065446323 5:0.38397266 6:0.09766389 
1 1:0.73715725 2:0.63637055 3:0.7243289 4:0.95551231 5:0.72561081 6:0.48152731 
1 1:0.47756017 2:0.82812789 3:0.50984826 4:0.27796404 5:0.49755438 6:0.40731 
1 1:0.50544407 2:0.2361425 3:0.28780974 4:0.20027927 5:0.81925432 6:0.35305677 
1 1:0.21169727 2:0.51781234 3:0.63435272 4:0.84253773 5:0.42047847 6:0.015617759 
0.4345708491009694 1:0.46580922 2:0.39086306 3:0.18716585 4:0.018478496 5:0.65389612 6:0.7721519 
1 1:0.43429948 2:0.54836965 3:0.2501892 4:0.58852461 5:0.62092439 6:0.15040201 
1 1:0.22794644 2:0.63552341 3:0.33634919 4:0.27569821 5:0.94605174 6:0.21645849 
1 1:0.53967785 2:0.31373339 3:0.65472389 4:0.74140426 5:0.64862631 6:0.80235886 
1 1:0.46305737 2:0.16407958 3:0.37037931 4:0.18625131 5:0.77411675 6:0.016624635 
1 1:0.36952371 2:0.82097579 3:0.62148263 4:0.69423721 5:0.42936903 6:0.61224224 
1 1:0.38106719 2:0.12835378 3:0.46390794 4:0.31855589 5:0.80652212 6:0.4880036 
1 1:0.21340461 2:0.20739304 3:0.40312274 4:0.48909148 5:0.18061416 6:0.66913664 
1 1:0.61974969 2:0.65465761 3:0.25127912 4:0.76424089 5:0.83134349 6:0.40749946 
1 1:0.52224888 2:0.88099024 3:0.58667228 4:0.63411307 5:0.71352132 6:0.7361777 
1 1:0.34461822 2:0.78174551 3:0.32652008 4:0.39161092 5:0.44968023 6:0.47006936 
1 1:0.59716938 2:0.26566341 3:0.34931317 4:0.68067281 5:0.33223018 6:0.71343996 
1 1:0.68723356 2:0.42667717 3:0.23204296 4:0.38173911 5:0.36715366 6:0.11451312 
1 1:0.51411558 2:0.17889869 3:0.70263851 4:0.8168844 5:0.34675917 6:0.38019359 
1 1:0.55452687 2:0.52382459 3:0.23480064 4:0.91419152 5:0.77256675 6:0.25684901 
1 1:0.56602428 2:0.41216721 3:0.71200165 4:0.32485311 5:0.58389086 6:0.3492195 
1 1:0.54554565 2:0.50461434 3:0.84708553 4:0.65410106 5:0.38412553 6:0.56584279 
1 1:0.4787441 2:0.16629917 3:0.41367566 4:0.41170158 5:0.16992549 6:0.082868266 
1 1:0.8277223 2:0.63684923 3:0.37564029 4:0.53377096 5:0.71979062 6:0.91877753 
1 1:0.93360706 2:0.59213442 3:0.55559295 4:0.40925904 5:0.38375492 6:0.96816349 
1 1:0.45272001 2:0.18367612 3:0.69542471 4:0.69415645 5:0.5270821 6:0.56152188 
1 1:0.84355379 2:0.5020386 3:0.63082772 4:0.15094544 5:0.57399356 6:0.052203511 
1 1:0.15003686 2:0.42968714 3:0.64758369 4:0.21593138 5:0.16893652 6:0.87648699 
1 1:0.59186306 2:0.80702075 3:0.71011498 4:0.4618028 5:0.58998485 6:0.10203683 
1 1:0.52382194 2:0.82575537 3:0.34252771 4:0.032688736 5:0.68635261 6:0.12476348 
1 1:0.48257184 2:0.93280844 3:0.47230241 4:0.098301845 5:0.61779362 6:0.70037703 
1 1:0.5848303 2:0.44524151 3:0.25439212 4:0.58573775 5:0.6809744 6:0.70864257 
1 1:0.55519797 2:0.8833176 3:0.61338097 4:0.407162 5:0.21117438 6:0.086635992 
1 1:0.50797199 2:0.70258351 3:0.69758844 4:0.57820714 5:0.82645607 6:0.43811591 
1 1:0.54860647 2:0.55415234 3:0.49635921 4:0.25369026 5:0.51272365 6:0.71610139 
1 1:0.4910306 2:0.35766012 3:0.2900473 4:0.50994796 5:0.46213197 6:0.48338094 
1 1:0.7028934 2:0.48227823 3:0.27323431 4:0.51614103 5:0.23003794 6:0.05586356 
1 1:0.097998513 2:0.38264643 3:0.60332651 4:0.22192843 5:0.60458082 6:0.17761912 
1 1:0.69803371 2:0.30092384 3:0.63053061 4:0.46969613 5:0.79611018 6:0.76607876 
0.4467325682201513 1:0.56551057 2:0.066831777 3:0.42253968 4:0.66427394 5:0.25113645 6:0.57443606 
1 1:0.67005381 2:0.75185652 3:0.33771994 4:0.90987827 5:0.26502519 6:0.77068026 
1 1:0.8047355 2:0.31044452 3:0.31211768 4:0.53067829 5:0.30240716 6:0.68284029 
1 1:0.40113001 2:0.58008006 3:0.81550312 4:0.21990532 5:0.20291992 6:0.55430857 
1 1:0.91159149 2:0.36277565 3:0.53052503 4:0.28634447 5:0.56328052 6:0.99636048 
1 1:0.17728448 2:0.3172868 3:0.55831414 4:0.95020748 5:0.49671785 6:0.25116381 
1 1:0.32886376 2:0.70709583 3:0.70080485 4:0.015926042 5:0.40807855 6:0.57861804 
1 1:0.50269038 2:0.38743914 3:0.72756635 4:0.4535942 5:0.4747609 6:0.13602871 
1 1:0.31029815 2:0.13020416 3:0.63156871 4:0.4102958 5:0.64503998 6:0.84963391 
1 1:0.54704353 2:0.61214231 3:0.75325931 4:0.83672198 5:0.71148904 6:0.0082407196 
1 1:0.42579819 2:0.49123963 3:0.22843799 4:0.40724922 5:0.21990658 6:0.31432351 
1 1:0.12950028 2:0.25822736 3:0.50058106 4:0.2285842 5:0.54023188 6:0.43422375 
1 1:0.43615697 2:0.38919339 3:0.36052332 4:0.18951956 5:0.1553874 6:0.27872419 
1 1:0.17086475 2:0.45925313 3:0.32413541 4:0.98498654 5:0.48274597 6:0.363309 
1 1:0.60575284 2:0.38877162 3:0.1999436 4:0.20039264 5:0.53536182 6:0.046707444 
1 1:0.73622896 2:0.61511299 3:0.32393732 4:0.8569863 5:0.33273622 6:0.69812208 
1 1:0.46471683 2:0.21516567 3:0.66747213 4:0.034025159 5:0.4814988 6:0.15363072 
1 1:0.86146588 2:0.46690873 3:0.65846684 4:0.25131769 5:0.40471265 6:0.48417093 
1 1:0.66192877 2:0.18649481 3:0.5846027 4:0.26183344 5:0.40604393 6:0.91545695 
1 1:0.74231719 2:0.52162886 3:0.29675024 4:0.19722158 5:0.63651467 6:0.97058928 
1 1:0.24435689 2:0.70182623 3:0.32183636 4:0.53487098 5:0.16269015 6:0.64879276 
1 1:0.19161645 2:0.40995113 3:0.63831666 4:0.27584374 5:0.86483223 6:0.34539728 
1 1:0.39711874 2:0.69414893 3:0.31481434 4:0.68183904 5:0.63416827 6:0.64719844 
1 1:0.64189416 2:0.23784265 3:0.26467426 4:0.55503088 5:0.54722973 6:0.70516818 
1 1:0.36429284 2:0.44048104 3:0.19650028 4:0.65576262 5:0.40527887 6:0.012275422 
1 1:0.35180951 2:0.84458761 3:0.51947416 4:0.78065976 5:0.45221925 6:0.13443381 
1 1:0.43331393 2:0.68149628 3:0.23753663 4:0.26421214 5:0.20270934 6:0.68589443 
1 1:0.89213579 2:0.45036254 3:0.53676964 4:0.67355797 5:0.86008507 6:0.44755404 
1 1:0.88279662 2:0.35700538 3:0.53022869 4:0.82433676 5:0.81473436 6:0.42802793 
1 1:0.80417044 2:0.60481829 3:0.34503324 4:0.96595301 5:0.5580571 6:0.79736658 
1 1:0.38361962 2:0.58554729 3:0.82641653 4:0.39553833 5:0.37911512 6:0.61950158 
1 1:0.24764119 2:0.57301513 3:0.73921408 4:0.66164496 5:0.72825593 6:0.1031348 
1 1:0.21396731 2:0.55085517 3:0.71430541 4:0.40276212 5:0.14595486 6:0.30284187 
1 1:0.1408628 2:0.61864882 3:0.34388295 4:0.25100268 5:0.58129793 6:0.061383276 
1 1:0.46325821 2:0.46462025 3:0.69107294 4:0.56547758 5:0.50339509 6:0.13071296 
1 1:0.33726262 2:0.58119164 3:0.29813019 4:0.44368426 5:0.13260621 6:0.70326682 
1 1:0.3734344 2:0.33811919 3:0.32781028 4:0.22280483 5:0.23540053 6:0.37775199 
1 1:0.41517111 2:0.52505145 3:0.21680745 4:0.36274588 5:0.26371877 6:0.28654205 
1 1:0.55176224 2:0.53577982 3:0.70524921 4:0.48619921 5:0.74738331 6:0.57660792 
1 1:0.44315788 2:0.91468607 3:0.50595548 4:0.014151453 5:0.64689435 6:0.9205679 
1 1:0.58447663 2:0.53678083 3:0.76599176 4:0.028559277 5:0.92224551 6:0.53615476 
1 1:0.57339926 2:0.60472823 3:0.66666419 4:0.44944981 5:0.59563043 6:0.82080518 
1 1:0.80621241 2:0.25370177 3:0.56956644 4:0.91685561 5:0.47698685 6:0.66359642 
1 1:0.74956718 2:0.35516497 3:0.72472798 4:0.039600063 5:0.59324218 6:0.10403059 
1 1:0.88222621 2:0.75381829 3:0.52705312 4:0.29945822 5:0.43258043 6:0.14036139 
1 1:0.71328458 2:0.83522353 3:0.63943082 4:0.16400305 5:0.62016032 6:0.23023841 
1 1:0.53593109 2:0.74830574 3:0.29220171 4:0.23185073 5:0.77970681 6:0.42287683 
1 1:0.92659442 2:0.43120086 3:0.45404246 4:0.024814058 5:0.71164822 6:0.32073914 
1 1:0.46866011 2:0.76396616 3:0.3312078 4:0.93541778 5:0.20233472 6:0.6297744 
1 1:0.56590189 2:0.39084333 3:0.2215805 4:0.87032875 5:0.60766787 6:0.6562691 
1 1:0.55304279 2:0.60747964 3:0.78736271 4:0.35642951 5:0.75207911 6:0.11761009 
1 1:0.67220914 2:0.50368843 3:0.74810518 4:0.86701072 5:0.21502377 6:0.58038254 
1 1:0.35109439 2:0.13144822 3:0.621209 4:0.41961665 5:0.62583713 6:0.47889966 
1 1:0.22677817 2:0.29906384 3:0.38635258 4:0.18350773 5:0.65187139 6:0.74262202 
1 1:0.41905859 2:0.61216309 3:0.47882415 4:0.96210011 5:0.89183703 6:0.79107279 
1 1:0.45980884 2:0.59156279 3:0.75761862 4:0.25829621 5:0.43486918 6:0.11466191 
1 1:0.32506533 2:0.39863311 3:0.72042787 4:0.82960649 5:0.6380729 6:0.52379308 
1 1:0.55318351 2:0.18548167 3:0.31926366 4:0.10222595 5:0.61887638 6:0.14521245 
1 1:0.11424405 2:0.70186392 3:0.56784166 4:0.35581745 5:0.54936325 6:0.17885365 
0.3937090438942694 1:0.38093687 2:0.87790495 3:0.30947261 4:0.68164117 5:0.49740631 6:0.54107768 
1 1:0.3864959 2:0.75185004 3:0.66803314 4:0.45735784 5:0.80212355 6:0.29247558 
1 1:0.59174755 2:0.50279073 3:0.70241552 4:0.069866455 5:0.26656581 6:0.4769804 
1 1:0.56686419 2:0.93776756 3:0.56144777 4:0.62259157 5:0.56674353 6:0.60942381 
1 1:0.57766267 2:0.25236042 3:0.30609622 4:0.60579979 5:0.7076674 6:0.45986803 
1 1:0.523711 2:0.34875367 3:0.22261407 4:0.073550437 5:0.5928662 6:0.9422454 
1 1:0.042442669 2:0.44208486 3:0.53720203 4:0.35595043 5:0.61402264 6:0.69088098 
1 1:0.30584792 2:0.54439891 3:0.75964165 4:0.3116306 5:0.23397819 6:0.8985608 
0.7080736624829217 1:0.25806602 2:0.69417398 3:0.67376575 4:0.96253763 5:0.85431814 6:0.87423958 
1 1:0.50678994 2:0.18966625 3:0.71344945 4:0.36778222 5:0.29674413 6:0.055051173 
1 1:0.43843924 2:0.83588767 3:0.41034506 4:0.8826251 5:0.73682335 6:0.87224282 
1 1:0.81708227 2:0.46803913 3:0.31512024 4:0.76400966 5:0.29871842 6:0.6765857 
1 1:0.69868758 2:0.76667136 3:0.70813656 4:0.4477372 5:0.57626087 6:0.88052605 
1 1:0.80530871 2:0.47725398 3:0.62346949 4:0.11194824 5:0.22945117 6:0.63077299 
1 1:0.52797386 2:0.66747262 3:0.32844313 4:0.63579418 5:0.6942683 6:0.85423968 
1 1:0.77400344 2:0.39393278 3:0.33115995 4:0.87414334 5:0.42852731 6:0.24083102 
1 1:0.33399195 2:0.86929852 3:0.6109605 4:0.23183153 5:0.51890678 6:0.62239191 
1 1:0.72756928 2:0.14979885 3:0.42617907 4:0.45076543 5:0.83851104 6:0.38842865 
1 1:0.3335856 2:0.84667558 3:0.46686909 4:0.048377043 5:0.3306849 6:0.067558749 
1 1:0.70303785 2:0.8823787 3:0.42094653 4:0.5812235 5:0.52866082 6:0.0951464 
1 1:0.5134218 2:0.88216102 3:0.30322763 4:0.43141988 5:0.51151592 6:0.70046768 
1 1:0.19570336 2:0.50060312 3:0.55523018 4:0.49385347 5:0.49784865 6:0.73792068 
1 1:0.43853803 2:0.59249518 3:0.52233676 4:0.33826671 5:0.39918209 6:0.75397122 
1 1:0.34649918 2:0.48947701 3:0.73168228 4:0.63368465 5:0.27586523 6:0.22884223 
1 1:0.49283923 2:0.30298898 3:0.200705 4:0.38216765 5:0.59694779 6:0.86386116 
1 1:0.51652423 2:0.65892728 3:0.51661567 4:0.12391925 5:0.14922136 6:0.28717705 
1 1:0.22398758 2:0.67954434 3:0.3217786 4:0.420148 5:0.25367125 6:0.40052143 
1 1:0.70687792 2:0.27538288 3:0.62716504 4:0.47356007 5:0.41086512 6:0.74378403 
1 1:0.19681438 2:0.70346958 3:0.6788348 4:0.14637754 5:0.37445313 6:0.24422149 
1 1:0.71558328 2:0.46038829 3:0.2126175 4:0.24742251 5:0.73830325 6:0.16905257 
1 1:0.70666839 2:0.29610108 3:0.25532667 4:0.64129896 5:0.46849227 6:0.92110352 
1 1:0.6858851 2:0.51991371 3:0.68733488 4:0.65472252 5:0.24667701 6:0.44351696 
1 1:0.50049664 2:0.47772836 3:0.50298698 4:0.90952668 5:0.46724532 6:0.19728444 
1 1:0.6672906 2:0.19698471 3:0.47470886 4:0.82356892 5:0.41890078 6:0.56844057 
1 1:0.53045027 2:0.19989475 3:0.34027708 4:0.65550638 5:0.10752714 6:0.54241255 
1 1:0.79633455 2:0.61702073 3:0.7416149 4:0.1050053 5:0.3152004 6:0.28783978 
1 1:0.12447762 2:0.41665934 3:0.53747936 4:0.050456667 5:0.43192557 6:0.36632947 
1 1:0.65446321 2:0.24098588 3:0.71643853 4:0.26162742 5:0.20268831 6:0.834177 
1 1:0.66544208 2:0.13886113 3:0.44923152 4:0.75238281 5:0.46825173 6:0.78668559 
1 1:0.46881408 2:0.35693411 3:0.5153391 4:0.74593083 5:0.31055064 6:0.76791951 
1 1:0.46322783 2:0.82014864 3:0.74863783 4:0.37158321 5:0.54437172 6:0.48842627 
1 1:0.32375097 2:0.74003763 3:0.34998936 4:0.59349555 5:0.85018057 6:0.85971121 
1 1:0.62991118 2:0.3877594 3:0.18910594 4:0.54727239 5:0.48226429 6:0.58813919 
1 1:0.44639655 2:0.88226601 3:0.40660744 4:0.16525107 5:0.17233394 6:0.30571375 
1 1:0.34310488 2:0.35216993 3:0.30088454 4:0.56037229 5:0.79221928 6:0.39850861 
1 1:0.27351147 2:0.63164709 3:0.75777296 4:0.86673219 5:0.5162646 6:0.27327127 
1 1:0.29668704 2:0.56884998 3:0.67505708 4:0.51485291 5:0.36933529 6:0.76905727 
1 1:0.56530312 2:0.27904551 3:0.37436676 4:0.095681753 5:0.16092947 6:0.72769988 
1 1:0.50634854 2:0.62260402 3:0.72180604 4:0.32987545 5:0.48990747 6:0.97712132 
1 1:0.10289485 2:0.39634603 3:0.40421177 4:0.47676625 5:0.31694899 6:0.93044066 
1 1:0.85847084 2:0.27135447 3:0.51481668 4:0.32870689 5:0.74231408 6:0.0089541241 
1 1:0.64349233 2:0.30123942 3:0.7271283 4:0.31000405 5:0.77050499 6:0.55598167 
1 1:0.3825634 2:0.77433233 3:0.62214607 4:0.60521937 5:0.10676756 6:0.21148325 
1 1:0.71953312 2:0.20109726 3:0.3359468 4:0.3145844 5:0.78699021 6:0.88967203 
1 1:0.67264251 2:0.88339714 3:0.47721802 4:0.16505132 5:0.54787048 6:0.47866903 
1 1:0.79573577 2:0.62540434 3:0.73473728 4:0.64467187 5:0.48538543 6:0.027056926 
1 1:0.5409956 2:0.19903454 3:0.64428813 4:0.37607572 5:0.51369277 6:0.19494762 
1 1:0.76708167 2:0.43697662 3:0.70400839 4:0.98244298 5:0.70439929 6:0.72756667 
1 1:0.37166305 2:0.46069865 3:0.3463737 4:0.64268716 5:0.012417695 6:0.043894479 
1 1:0.8916144 2:0.48798177 3:0.43014318 4:0.78264696 5:0.38210154 6:0.45575043 
1 1:0.50233695 2:0.70660216 3:0.77751025 4:0.49702417 5:0.437203 6:0.80195361 
1 1:0.18983179 2:0.45166946 3:0.6998632 4:0.9086743 5:0.77134158 6:0.62526939 
1 1:0.19638379 2:0.26503445 3:0.56967882 4:0.36082187 5:0.7620466 6:0.074357406 
1 1:0.25455786 2:0.55815837 3:0.30091547 4:0.013793797 5:0.26334078 6:0.83733616 
1 1:0.41529659 2:0.39835978 3:0.7135277 4:0.56628745 5:0.30997439 6:0.81219984 
0.02107674429132454 1:0.080179209 2:0.60423336 3:0.62869857 4:0.71324362 5:0.50615896 6:0.92224898 
1 1:0.55605438 2:0.21511832 3:0.6223958 4:0.24946071 5:0.32535735 6:0.59082692 
1 1:0.84474123 2:0.30997814 3:0.48177428 4:0.95017895 5:0.37776431 6:0.21684922 
1 1:0.40873145 2:0.40215923 3:0.25086449 4:0.61711448 5:0.24287916 6:0.21019738 
0.8986972115997158 1:0.423055 2:0.37591166 3:0.8042347 4:0.81601731 5:0.40304324 6:0.10134517 
1 1:0.34686604 2:0.71368601 3:0.26692755 4:0.19910955 5:0.7736876 6:0.27035548 
1 1:0.58706208 2:0.29293654 3:0.74525056 4:0.56413878 5:0.46259152 6:0.76415875 
1 1:0.54978508 2:0.53678617 3:0.29376617 4:0.63194135 5:0.53690553 6:0.37364458 
1 1:0.6521979 2:0.46294022 3:0.48318699 4:0.84039518 5:0.98333443 6:0.50138816 
1 1:0.6064159 2:0.35745245 3:0.78920458 4:0.60950206 5:0.55050597 6:0.7473254 
1 1:0.38710016 2:0.75921436 3:0.27211686 4:0.026728165 5:0.29047839 6:0.4378671 
1 1:0.48311096 2:0.85690631 3:0.66759237 4:0.51824559 5:0.43339897 6:0.37071695 
1 1:0.48894088 2:0.87627384 3:0.44167407 4:0.1701124 5:0.1757828 6:0.2732807 
1 1:0.48227302 2:0.79900435 3:0.68780151 4:0.34715894 5:0.63301978 6:0.67806192 
1 1:0.21637961 2:0.60550817 3:0.28905084 4:0.57253412 5:0.70041274 6:0.076901846 
1 1:0.59495368 2:0.10260239 3:0.65328314 4:0.78726422 5:0.44030973 6:0.5924254 
1 1:0.96361568 2:0.48446854 3:0.45574937 4:0.46060339 5:0.35295988 6:0.13551641 
1 1:0.61633119 2:0.39933877 3:0.75535962 4:0.47712176 5:0.32612621 6:0.32049588 
1 1:0.8297029 2:0.45353031 3:0.67389206 4:0.50148868 5:0.44347661 6:0.94183614 
1 1:0.49003653 2:0.9048299 3:0.59293754 4:0.9591826 5:0.34380721 6:0.58615028 
1 1:0.21759152 2:0.24700762 3:0.34660173 4:0.83086005 5:0.47195244 6:0.3480995 
1 1:0.81698048 2:0.64247297 3:0.33302516 4:0.019078699 5:0.28666811 6:0.42645748 
1 1:0.45936766 2:0.47520031 3:0.50679886 4:0.66351049 5:0.50792658 6:0.71420756 
1 1:0.23513627 2:0.31331383 3:0.73654161 4:0.18768067 5:0.45718597 6:0.80230904 
1 1:0.50458651 2:0.17754112 3:0.64106492 4:0.26499266 5:0.52973079 6:0.6930696 
1 1:0.15058018 2:0.55187137 3:0.6900841 4:0.39686386 5:0.24395522 6:0.75872039 
1 1:0.47219096 2:0.43006836 3:0.21731816 4:0.62954473 5:0.29096448 6:0.56211611 
1 1:0.5045112 2:0.35597075 3:0.67648405 4:0.58802744 5:0.66783425 6:0.75143106 
1 1:0.88587354 2:0.35924361 3:0.62689872 4:0.21565774 5:0.68931004 6:0.14597121 
1 1:0.24232994 2:0.31764311 3:0.36063328 4:0.45554348 5:0.15817299 6:0.02143213 
1 1:0.59014442 2:0.66911515 3:0.71887913 4:0.21427865 5:0.6308023 6:0.43411971 
1 1:0.50476443 2:0.35408726 3:0.75263719 4:0.92347135 5:0.48294984 6:0.65375203 
1 1:0.17886069 2:0.47337122 3:0.68258548 4:0.83396557 5:0.15404616 6:0.32927564 
1 1:0.61075208 2:0.77060489 3:0.28587801 4:0.49583606 5:0.50084764 6:0.9674618 
1 1:0.16626474 2:0.43078962 3:0.32258197 4:0.52492886 5:0.46454684 6:0.023945271 
1 1:0.15593432 2:0.50460943 3:0.65367108 4:0.02988168 5:0.76698484 6:0.41364476 
1 1:0.46153717 2:0.44421103 3:0.7803759 4:0.38055772 5:0.28773172 6:0.86510388 
1 1:0.56564146 2:0.50985752 3:0.75017585 4:0.36595109 5:0.47077875 6:0.31183439 
1 1:0.70382341 2:0.87364817 3:0.595404 4:0.38275849 5:0.60769091 6:0.80406804 
1 1:0.68185868 2:0.15458267 3:0.62055775 4:0.2009213 5:0.25453329 6:0.50817414 
1 1:0.8130743 2:0.46105448 3:0.41211315 4:0.96722085 5:0.40800392 6:0.22700649 
1 1:0.29891417 2:0.60671222 3:0.24828725 4:0.19044949 5:0.43374993 6:0.12900673 
1 1:0.3569361 2:0.11422404 3:0.44061452 4:0.53252486 5:0.38301758 6:0.03235485 
1 1:0.097755446 2:0.5200534 3:0.56376097 4:0.93395846 5:0.64090203 6:0.92980029 
1 1:0.43957968 2:0.59658218 3:0.30645889 4:0.31687917 5:0.71241213 6:0.58280389 
1 1:0.8645364 2:0.20271003 3:0.56154741 4:0.3624247 5:0.53368821 6:0.50929097 
1 1:0.47434771 2:0.63830133 3:0.71719642 4:0.37372089 5:0.27735056 6:0.18423549 
1 1:0.33025981 2:0.17126187 3:0.57613652 4:0.75154041 5:0.43596317 6:0.79731714 
1 1:0.70544771 2:0.26145456 3:0.35172891 4:0.27856876 5:0.46165369 6:0.69489716 
1 1:0.34720482 2:0.85087137 3:0.52029902 4:0.14540184 5:0.68407974 6:0.62674672 
1 1:0.46971585 2:0.81472234 3:0.31795033 4:0.61692555 5:0.68957448 6:0.81411345 
1 1:0.9494038 2:0.53581311 3:0.56679953 4:0.66332129 5:0.49958893 6:0.80064136 
1 1:0.71559828 2:0.4719324 3:0.35488631 4:0.96616713 5:0.97897496 6:0.48747049 
1 1:0.39988035 2:0.80199531 3:0.28373022 4:0.49572277 5:0.3789198 6:0.7818927 
1 1:0.39798981 2:0.36735089 3:0.25075724 4:0.5141168 5:0.32840836 6:0.07190274 
1 1:0.30418239 2:0.46861937 3:0.25588284 4:0.73195089 5:0.84742242 6:0.46047069 
1 1:0.48763071 2:0.74957658 3:0.24124568 4:0.53694403 5:0.81098284 6:0.85537516 
1 1:0.54377263 2:0.34276351 3:0.23658628 4:0.6111359 5:0.56134319 6:0.27605024 
1 1:0.35624866 2:0.3459132 3:0.34830755 4:0.22486224 5:0.1279354 6:0.73110086 
1 1:0.77269955 2:0.13978235 3:0.42619953 4:0.38354132 5:0.55579155 6:0.32353548 
1 1:0.83729238 2:0.63665244 3:0.41604776 4:0.27404309 5:0.76093339 6:0.97744968 
1 1:0.52915495 2:0.19356101 3:0.29728992 4:0.85302917 5:0.21282459 6:0.73494635 
1 1:0.39329527 2:0.85716313 3:0.58501035 4:0.84234232 5:0.38363121 6:0.28612313 
1 1:0.61915413 2:0.57103905 3:0.23636744 4:0.16297294 5:0.39686309 6:0.99205627 
1 1:0.6334278 2:0.318617 3:0.75241587 4:0.95107436 5:0.37830567 6:0.091120165 
1 1:0.22404849 2:0.69538732 3:0.353912 4:0.80144926 5:0.84639442 6:0.51734139 
1 1:0.13408771 2:0.4041121 3:0.32812868 4:0.63790455 5:0.38333844 6:0.26204212 
1 1:0.044057366 2:0.52713555 3:0.41427098 4:0.57541649 5:0.63191624 6:0.4789171 
1 1:0.44470236 2:0.51715993 3:0.7276697 4:0.57169063 5:0.15727437 6:0.78227747 
1 1:0.26290832 2:0.44321342 3:0.76246884 4:0.60489085 5:0.4276243 6:0.78295804 
1 1:0.22299561 2:0.42997521 3:0.6945913 4:0.087870261 5:0.87273335 6:0.64207048 
1 1:0.73199631 2:0.64506848 3:0.68521857 4:0.37335055 5:0.1631482 6:0.93406139 
1 1:0.8063306 2:0.57634986 3:0.35966451 4:0.89251446 5:0.58527274 6:0.17317179 
1 1:0.12595577 2:0.53044766 3:0.54035089 4:0.78270939 5:0.3492966 6:0.61286167 
1 1:0.47159564 2:0.89090071 3:0.49208199 4:0.31001833 5:0.26592399 6:0.030912435 
1 1:0.89038071 2:0.50016784 3:0.68810375 4:0.46009462 5:0.3366628 6:0.84319543 
1 1:0.68838054 2:0.10721932 3:0.40353001 4:0.76488242 5:0.4717122 6:0.82945492 
1 1:0.35329636 2:0.30438869 3:0.27262252 4:0.8630016 5:0.5978932 6:0.33599811 
1 1:0.50611159 2:0.43154524 3:0.24883625 4:0.31033779 5:0.28211093 6:0.56883339 
1 1:0.37708329 2:0.60271405 3:0.73642435 4:0.16760497 5:0.62961312 6:0.54550151 
1 1:0.12020025 2:0.57480885 3:0.61162876 4:0.51858645 5:0.71705986 6:0.071096135 
1 1:0.25609084 2:0.44734781 3:0.26217189 4:0.65010185 5:0.49137114 6:0.075528184 
1 1:0.14671241 2:0.40580522 3:0.48018985 4:0.13947946 5:0.5429557 6:0.042977969 
1 1:0.53984395 2:0.62144742 3:0.81210508 4:0.40337544 5:0.59397416 6:0.6748476 
1 1:0.62640063 2:0.50112138 3:0.77985844 4:0.64278553 5:0.89250693 6:0.59377993 
1 1:0.80356988 2:0.48822986 3:0.35242308 4:0.66329457 5:0.73310698 6:0.4809273 
1 1:0.54739941 2:0.32576932 3:0.49224577 4:0.70477616 5:0.86990203 6:0.21468893 
1 1:0.48593929 2:0.81064879 3:0.2955561 4:0.97940841 5:0.38206756 6:0.71834448 
1 1:0.094818826 2:0.38367528 3:0.38859654 4:0.43725872 5:0.35217686 6:0.76496105 
1 1:0.66313376 2:0.80616063 3:0.3954639 4:0.50312319 5:0.28337673 6:0.43203162 
1 1:0.73065554 2:0.48186012 3:0.72527324 4:0.13880711 5:0.28259283 6:0.68772959 
1 1:0.62388586 2:0.74129352 3:0.62116043 4:0.54714647 5:0.75933014 6:0.73139223 
1 1:0.38672013 2:0.94165114 3:0.43279463 4:0.50632584 5:0.45077054 6:0.79516628 
1 1:0.53682122 2:0.18124646 3:0.38088968 4:0.054839454 5:0.53236406 6:0.24488739 
1 1:0.39446623 2:0.13752333 3:0.32671902 4:0.63578467 5:0.29267772 6:0.37137863 
1 1:0.40365504 2:0.21538359 3:0.30432822 4:0.30550883 5:0.49416162 6:0.076619689 
1 1:0.20225884 2:0.57381419 3:0.59282528 4:0.10144918 5:0.73896288 6:0.33457767 
1 1:0.52084678 2:0.31578664 3:0.21353012 4:0.87260848 5:0.46837518 6:0.098934196 
1 1:0.45634754 2:0.55551226 3:0.30540701 4:0.61441133 5:0.39805577 6:0.25147143 
1 1:0.55384758 2:0.62006671 3:0.71268977 4:0.44005583 5:0.47532479 6:0.77992324 
1 1:0.25741639 2:0.82440482 3:0.49262989 4:0.26926626 5:0.42705555 6:0.0087876214 
1 1:0.51292145 2:0.2468301 3:0.26932445 4:0.29834612 5:0.61270682 6:0.51513394 
1 1:0.41791962 2:0.4454525 3:0.75877586 4:0.21129012 5:0.87939075 6:0.969559 
1 1:0.50241036 2:0.11515318 3:0.50136428 4:0.31058014 5:0.30670079 6:0.1818612 
1 1:0.45551678 2:0.7797986 3:0.73058756 4:0.68266996 5:0.55533274 6:0.41251633 
1 1:0.69379962 2:0.25397741 3:0.69970337 4:0.82035243 5:0.68560253 6:0.08423455 
1 1:0.89789016 2:0.62975199 3:0.54385246 4:0.4858164 5:0.49791837 6:0.14740197 
1 1:0.61358915 2:0.10485128 3:0.54306657 4:0.55003886 5:0.28376764 6:0.27556967 
1 1:0.51200654 2:0.6880807 3:0.25647505 4:0.59188004 5:0.71765323 6:0.47117406 
1 1:0.42125887 2:0.71134642 3:0.30783902 4:0.59912983 5:0.72439189 6:0.36946269 
0.4772021769781206 1:0.73299864 2:0.40161098 3:0.81031297 4:0.44334243 5:0.54827008 6:0.75930019 
1 1:0.36802747 2:0.72401372 3:0.74253558 4:0.60452111 5:0.56681377 6:0.70499656 
1 1:0.65247378 2:0.54084574 3:0.28944558 4:0.8890906 5:0.1968869 6:0.38971628 
1 1:0.86938443 2:0.51819451 3:0.29794639 4:0.48867617 5:0.28485588 6:0.078018904 
1 1:0.38105322 2:0.42707532 3:0.6708708 4:0.93518929 5:0.056026331 6:0.87098895 
1 1:0.30576497 2:0.46111105 3:0.66882086 4:0.55852405 5:0.60293917 6:0.20981142 
1 1:0.728464 2:0.51435981 3:0.80115515 4:0.35690193 5:0.69103832 6:0.45247371 
1 1:0.70756521 2:0.53646755 3:0.29180157 4:0.74534321 5:0.35107675 6:0.92456376 
1 1:0.13596585 2:0.29664132 3:0.60395262 4:0.31056236 5:0.79193086 6:0.57858357 
1 1:0.66986317 2:0.1348813 3:0.55642489 4:0.29592054 5:0.66077654 6:0.92162294 
1 1:0.56816648 2:0.25189549 3:0.25336575 4:0.68161195 5:0.68372257 6:0.72967484 
1 1:0.39085403 2:0.59749138 3:0.27655935 4:0.78424772 5:0.40427305 6:0.93057758 
1 1:0.37817683 2:0.82586037 3:0.42082797 4:0.24789663 5:0.57054928 6:0.58366571 
1 1:0.56522874 2:0.10480856 3:0.4245006 4:0.41326228 5:0.63451994 6:0.013770353 
1 1:0.18651859 2:0.54228584 3:0.67693141 4:0.69119527 5:0.14553202 6:0.87031977 
1 1:0.59061187 2:0.87053591 3:0.48412116 4:0.68147879 5:0.53925183 6:0.072488545 
1 1:0.55934927 2:0.14004576 3:0.35312885 4:0.36633661 5:0.33851953 6:0.61114604 
1 1:0.47925568 2:0.15992642 3:0.60305484 4:0.3258807 5:0.56503481 6:0.31727546 
1 1:0.56210289 2:0.48403119 3:0.76694196 4:0.39345444 5:0.68326563 6:0.62070718 
1 1:0.45315333 2:0.37535072 3:0.19392711 4:0.17148274 5:0.54396632 6:0.78339993 
1 1:0.70441258 2:0.43935103 3:0.81962954 4:0.27922044 5:0.57215511 6:0.64817896 
1 1:0.41326331 2:0.43400232 3:0.29630495 4:0.65840678 5:0.55434105 6:0.69191139 
1 1:0.12359652 2:0.6419924 3:0.61210552 4:0.6969889 5:0.17679218 6:0.44750522 
1 1:0.71435237 2:0.86728462 3:0.50091395 4:0.70961367 5:0.38622113 6:0.67227338 
1 1:0.68018139 2:0.43309972 3:0.72337222 4:0.68190955 5:0.50785843 6:0.57138992 
1 1:0.56444733 2:0.69672574 3:0.28469293 4:0.60685749 5:0.21658026 6:0.75770578 
1 1:0.4770233 2:0.32468868 3:0.2351312 4:0.43257322 5:0.51352319 6:0.75111947 
1 1:0.40957283 2:0.65931344 3:0.692824 4:0.98731605 5:0.81030335 6:0.31394588 
1 1:0.27386135 2:0.15515456 3:0.57614521 4:0.98027262 5:0.43235773 6:0.47321961 
1 1:0.84378187 2:0.60512648 3:0.45140376 4:0.7590132 5:0.6553033 6:0.57442189 
1 1:0.90307221 2:0.58815685 3:0.43626343 4:0.89615957 5:0.41159868 6:0.75990575 
1 1:0.8468465 2:0.57643255 3:0.40239363 4:0.55952631 5:0.6192067 6:0.18720846 
1 1:0.25321458 2:0.54896762 3:0.28173781 4:0.74240091 5:0.38263409 6:0.86641403 
1 1:0.48328626 2:0.27565198 3:0.35914848 4:0.6482099 5:0.16823455 6:0.22231774 
1 1:0.32622153 2:0.11860802 3:0.53486878 4:0.19452844 5:0.39449916 6:0.6498979 
1 1:0.70741111 2:0.35402091 3:0.20520277 4:0.25154305 5:0.64792201 6:0.39497851 
1 1:0.88651603 2:0.57791656 3:0.59543597 4:0.25346579 5:0.35915555 6:0.92439406 
1 1:0.068345524 2:0.56268065 3:0.55604097 4:0.29814208 5:0.32109164 6:0.086671762 
1 1:0.85139375 2:0.5137588 3:0.37832981 4:0.39619328 5:0.62336569 6:0.18087611 
1 1:0.18119324 2:0.63547949 3:0.63787863 4:0.74863994 5:0.68934913 6:0.6470612 
1 1:0.26843884 2:0.20745555 3:0.5837714 4:0.23659608 5:0.37784429 6:0.714987 
1 1:0.69280125 2:0.8952337 3:0.4058491 4:0.53145032 5:0.63252793 6:0.80141961 
1 1:0.85664478 2:0.18501407 3:0.48798348 4:0.37886978 5:0.36396835 6:0.4454907 
1 1:0.59176533 2:0.36708486 3:0.78427932 4:0.80912905 5:0.23955154 6:0.79025045 
1 1:0.46833812 2:0.9005376 3:0.56609903 4:0.61309534 5:0.16976389 6:0.86206078 
1 1:0.64394062 2:0.86628732 3:0.42342352 4:0.78808742 5:0.5992512 6:0.89764893 
1 1:0.15919244 2:0.51501028 3:0.30714311 4:0.77948101 5:0.37077769 6:0.73590904 
1 1:0.50879885 2:0.53970874 3:0.80325137 4:0.07133204 5:0.18757284 6:0.65985067 
1 1:0.29427418 2:0.44184442 3:0.30209429 4:0.20746018 5:0.66346343 6:0.38265793 
1 1:0.62697015 2:0.28635125 3:0.21414539 4:0.34895307 5:0.54736256 6:0.88001285 
1 1:0.66768169 2:0.69969711 3:0.6387105 4:0.048085951 5:0.066949454 6:0.61792492 
1 1:0.34165038 2:0.80472377 3:0.34233716 4:0.11891884 5:0.9001963 6:0.51105065 
1 1:0.48619869 2:0.87983737 3:0.55345741 4:0.48185214 5:0.409627 6:0.45912209 
1 1:0.51838236 2:0.35351802 3:0.75431882 4:0.64393996 5:0.64053435 6:0.16508173 
1 1:0.80501688 2:0.63943225 3:0.31383843 4:0.31658777 5:0.20457398 6:0.81070507 
1 1:0.38452612 2:0.41230896 3:0.28856738 4:0.93391253 5:0.40233207 6:0.62778166 
1 1:0.18224462 2:0.56555457 3:0.36339959 4:0.40254413 5:0.15423295 6:0.86811495 
1 1:0.35824164 2:0.75446362 3:0.2769858 4:0.29294088 5:0.50917105 6:0.87586708 
1 1:0.71918724 2:0.53529355 3:0.74045757 4:0.15266674 5:0.6586713 6:0.31878141 
1 1:0.85070248 2:0.62178257 3:0.3809117 4:0.9614592 5:0.70966323 6:0.76249821 
1 1:0.33676338 2:0.4785406 3:0.24955933 4:0.67696699 5:0.7240458 6:0.17448223 
1 1:0.5571042 2:0.21547925 3:0.238045 4:0.80294652 5:0.4602949 6:0.2390724 
1 1:0.63987664 2:0.84704395 3:0.4412808 4:0.37624927 5:0.35369625 6:0.63425131 
1 1:0.52502781 2:0.46718418 3:0.51518001 4:0.12585114 5:0.11311073 6:0.84532337 
1 1:0.24156393 2:0.44482741 3:0.6882846 4:0.57873658 5:0.87362242 6:0.14581428 
1 1:0.48354733 2:0.55726018 3:0.16762655 4:0.2885867 5:0.68144464 6:0.79580805 
1 1:0.95560994 2:0.4565743 3:0.42136588 4:0.51312413 5:0.60574459 6:0.28455848 
1 1:0.6317635 2:0.37764699 3:0.69111012 4:0.31131918 5:0.34760765 6:0.28791404 
1 1:0.37871485 2:0.38589649 3:0.21134268 4:0.87265802 5:0.64031667 6:0.51533412 
1 1:0.51900113 2:0.13104484 3:0.43092797 4:0.55926325 5:0.81504918 6:0.088740091 
1 1:0.47523014 2:0.87533816 3:0.64155313 4:0.89729578 5:0.40048835 6:0.43740002 
1 1:0.5552976 2:0.67226324 3:0.72029947 4:0.71520417 5:0.65366093 6:0.71127836 
1 1:0.534378 2:0.2104468 3:0.64133852 4:0.27141928 5:0.52148056 6:0.77106452 
1 1:0.15282542 2:0.7382302 3:0.47019339 4:0.89891147 5:0.44349515 6:0.44612132 
1 1:0.5783376 2:0.12478634 3:0.5112583 4:0.33885133 5:0.67560766 6:0.85047183 
1 1:0.52426646 2:0.91769872 3:0.50096364 4:0.55782926 5:0.65616627 6:0.51568655 
1 1:0.27603031 2:0.54638955 3:0.7670324 4:0.12857816 5:0.45034671 6:0.5723454 
1 1:0.31314992 2:0.6703101 3:0.26478417 4:0.30649598 5:0.6276026 6:0.3975294 
1 1:0.48109679 2:0.60672149 3:0.70904577 4:0.36110487 5:0.66843197 6:0.1256574 
1 1:0.56980704 2:0.63490558 3:0.66045476 4:0.35157684 5:0.85134397 6:0.12018239 
1 1:0.77670311 2:0.57770708 3:0.33696378 4:0.81527421 5:0.60880116 6:0.72996979 
1 1:0.31967237 2:0.58760155 3:0.24279296 4:0.47381677 5:0.68438198 6:0.81517726 
1 1:0.58586114 2:0.23496102 3:0.26016264 4:0.48638614 5:0.58767036 6:0.82589537 
1 1:0.56811238 2:0.83989125 3:0.58154874 4:0.40181792 5:0.82945843 6:0.94829574 
1 1:0.50673268 2:0.9243047 3:0.40903376 4:0.4114895 5:0.60745796 6:0.54231696 
1 1:0.56800249 2:0.41113613 3:0.7024798 4:0.77791526 5:0.36136938 6:0.54959696 
1 1:0.0680555 2:0.42248694 3:0.5207392 4:0.4291445 5:0.41896904 6:0.8857133 
1 1:0.53604502 2:0.075845174 3:0.47382867 4:0.12350074 5:0.34006624 6:0.61289063 
1 1:0.54028066 2:0.88813892 3:0.436518 4:0.33310364 5:0.62840277 6:0.10708855 
1 1:0.33370071 2:0.13870375 3:0.40341716 4:0.65973073 5:0.43311185 6:0.60495537 
1 1:0.64502623 2:0.48682122 3:0.71465134 4:0.40554037 5:0.77916853 6:0.13334936 
1 1:0.41174395 2:0.92092031 3:0.53134522 4:0.67298414 5:0.55112083 6:0.3459988 
1 1:0.37765473 2:0.51436637 3:0.69119267 4:0.093608353 5:0.63565348 6:0.14888893 
1 1:0.59369731 2:0.6921338 3:0.78381638 4:0.66079665 5:0.36957538 6:0.72736949 
1 1:0.8385844 2:0.58175409 3:0.68162243 4:0.19991602 5:0.20998099 6:0.75660645 
1 1:0.47095112 2:0.34801042 3:0.20465714 4:0.61058427 5:0.67493188 6:0.85785235 
1 1:0.5263768 2:0.49501129 3:0.28522946 4:0.31759451 5:0.065042912 6:0.97209827 
1 1:0.54133861 2:0.30264758 3:0.70270992 4:0.1346592 5:0.35122812 6:0.39450681 
1 1:0.79382111 2:0.48259275 3:0.30964473 4:0.92220156 5:0.45611439 6:0.7848044 
1 1:0.60094278 2:0.3433761 3:0.75292602 4:0.38307411 5:0.47818571 6:0.92924011 
1 1:0.45631813 2:0.57030671 3:0.4868016 4:0.1311261 5:0.062143706 6:0.77402408 
1 1:0.88354036 2:0.57659959 3:0.55105937 4:0.0088558063 5:0.5143945 6:0.18502132 
1 1:0.67082294 2:0.54374316 3:0.66105288 4:0.52413202 5:0.27291904 6:0.32369797 
1 1:0.16792425 2:0.61541369 3:0.58534126 4:0.77401115 5:0.37736273 6:0.58133293 
1 1:0.8363651 2:0.66060844 3:0.60486416 4:0.11575752 5:0.62826664 6:0.2199651 
1 1:0.83133458 2:0.23836682 3:0.61080298 4:0.53441099 5:0.69621417 6:0.7957011 
1 1:0.54950637 2:0.28169029 3:0.69025765 4:0.18981224 5:0.86575367 6:0.40481155 
1 1:0.25237622 2:0.31169222 3:0.35221399 4:0.66984378 5:0.12135453 6:0.18884377 
1 1:0.53095378 2:0.38123583 3:0.72249052 4:0.2585032 5:0.36588845 6:0.61394848 
1 1:0.43536219 2:0.86564655 3:0.35930615 4:0.50168004 5:0.34225596 6:0.672836 
1 1:0.1502088 2:0.74795291 3:0.46717794 4:0.87694109 5:0.69309904 6:0.72586712 
0.8597558943670875 1:0.65287175 2:0.27090477 3:0.2668371 4:0.99703079 5:0.30122318 6:0.79692512 
1 1:0.25456463 2:0.70326185 3:0.68132953 4:0.81790373 5:0.44279049 6:0.35051696 
1 1:0.93037036 2:0.38330583 3:0.44967607 4:0.33307252 5:0.23458155 6:0.73742427 
1 1:0.11658879 2:0.70384888 3:0.499704 4:0.27719111 5:0.32899833 6:0.52444033 
1 1:0.4187114 2:0.67029961 3:0.26003983 4:0.85376083 5:0.49401098 6:0.33378488 
1 1:0.62471066 2:0.57353313 3:0.21923766 4:0.32995935 5:0.78102341 6:0.88261979 
1 1:0.59463634 2:0.34359853 3:0.19603094 4:0.64079591 5:0.60551461 6:0.82180164 
1 1:0.15542733 2:0.46683866 3:0.40504433 4:0.73719447 5:0.30064911 6:0.88771622 
1 1:0.25731876 2:0.17498054 3:0.55937903 4:0.70247878 5:0.53015907 6:0.50554435 
1 1:0.16233389 2:0.51926299 3:0.68130704 4:0.27654869 5:0.58271104 6:0.65813867 
1 1:0.43875027 2:0.78708248 3:0.69172189 4:0.7939333 5:0.41803502 6:0.10522321 
1 1:0.4466396 2:0.70744505 3:0.76208988 4:0.46521146 5:0.60177998 6:0.3310245 
1 1:0.28402799 2:0.791518 3:0.39965595 4:0.45549451 5:0.82522328 6:0.94168485 
1 1:0.35678346 2:0.52133709 3:0.19517529 4:0.29930301 5:0.57729555 6:0.48316676 
1 1:0.51035373 2:0.17205112 3:0.62900043 4:0.48313823 5:0.74475622 6:0.32720646 
1 1:0.6328892 2:0.7842018 3:0.37673155 4:0.42954173 5:0.73987273 6:0.92807979 
1 1:0.61037338 2:0.80723201 3:0.27613359 4:0.50057729 5:0.70868853 6:0.30270877 
1 1:0.16091917 2:0.66489563 3:0.59992574 4:0.027677758 5:0.55823964 6:0.20005963 
1 1:0.29104073 2:0.35015116 3:0.25326914 4:0.39478433 5:0.1896856 6:0.27978048 
1 1:0.83230777 2:0.78651777 3:0.45372456 4:0.064460993 5:0.3358238 6:0.2354764 
1 1:0.16465534 2:0.500286 3:0.6855868 4:0.89152942 5:0.64053932 6:0.29576375 
1 1:0.19242661 2:0.32902442 3:0.6519895 4:0.40087766 5:0.87951891 6:0.76091982 
1 1:0.45029776 2:0.1076865 3:0.66053981 4:0.25196007 5:0.58055825 6:0.61419497 
1 1:0.60265954 2:0.64150561 3:0.6940079 4:0.87836218 5:0.31326495 6:0.56340032 
1 1:0.56124265 2:0.37226486 3:0.26197556 4:0.92952793 5:0.61570473 6:0.9428699 
1 1:0.42594819 2:0.47749874 3:0.67042128 4:0.1125692 5:0.61682835 6:0.34051996 
1 1:0.27852086 2:0.62416199 3:0.29764813 4:0.78003837 5:0.26025666 6:0.059946623 
1 1:0.14905761 2:0.37953641 3:0.34758151 4:0.57184103 5:0.43078634 6:0.58432421 
1 1:0.30289043 2:0.52247573 3:0.74904265 4:0.47772221 5:0.48206233 6:0.45901227 
1 1:0.44330569 2:0.63800598 3:0.68912417 4:0.83815541 5:0.1580123 6:0.26481306 
1 1:0.6888706 2:0.29913979 3:0.34789656 4:0.13763289 5:0.8896005 6:0.16286446 
1 1:0.86881194 2:0.58331851 3:0.39374951 4:0.841718 5:0.73651146 6:0.98951271 
1 1:0.60357067 2:0.82282927 3:0.73430181 4:0.5673799 5:0.28137815 6:0.50721673 
1 1:0.51975887 2:0.24713237 3:0.71943869 4:0.28990372 5:0.40349295 6:0.57855314 
1 1:0.28166187 2:0.45834734 3:0.24246091 4:0.64930911 5:0.30824035 6:0.4929021 
1 1:0.22017509 2:0.20401072 3:0.56771016 4:0.11074532 5:0.44504623 6:0.38052083 
1 1:0.4411337 2:0.93583403 3:0.4578852 4:0.10841823 5:0.37307783 6:0.66496386 
1 1:0.37228005 2:0.87549592 3:0.42602125 4:0.570783 5:0.81336414 6:0.6295338 
1 1:0.32290165 2:0.58959393 3:0.19920095 4:0.49911873 5:0.20234093 6:0.57460252 
1 1:0.57549759 2:0.38239639 3:0.65979227 4:0.59999124 5:0.74939969 6:0.75682219 
1 1:0.16426255 2:0.43105418 3:0.42265725 4:0.87893657 5:0.59903557 6:0.39093334 
1 1:0.58069848 2:0.0860775 3:0.45857081 4:0.68902107 5:0.82318756 6:0.55519858 
1 1:0.51919134 2:0.80151913 3:0.30971158 4:0.1874122 5:0.55678217 6:0.84537882 
1 1:0.55959541 2:0.60071893 3:0.79590462 4:0.22140354 5:0.36495432 6:0.37056803 
1 1:0.53092295 2:0.17067792 3:0.65646258 4:0.19242127 5:0.093081947 6:0.3650515 
1 1:0.79807736 2:0.52484977 3:0.69953078 4:0.23570588 5:0.88152748 6:0.75862441 
1 1:0.41092263 2:0.66812113 3:0.78954418 4:0.058038793 5:0.30124724 6:0.27053129 
1 1:0.81881269 2:0.252102 3:0.30831353 4:0.59667088 5:0.34625357 6:0.57085043 
1 1:0.28908159 2:0.32529922 3:0.71963719 4:0.76607571 5:0.46735082 6:0.069905318 
1 1:0.43557072 2:0.098308714 3:0.54568206 4:0.34264013 5:0.55032522 6:0.50862763 
1 1:0.33549184 2:0.26965787 3:0.69709323 4:0.96261264 5:0.49139942 6:0.20649909 
1 1:0.98095539 2:0.48299494 3:0.5208102 4:0.2715089 5:0.56620329 6:0.26427482 
1 1:0.22386214 2:0.19537008 3:0.62948036 4:0.7908356 5:0.40786614 6:0.5216989 
1 1:0.34668359 2:0.18181319 3:0.43219081 4:0.8099959 5:0.41757321 6:0.59302008 
1 1:0.69687134 2:0.72828055 3:0.68588511 4:0.58699482 5:0.92867463 6:0.8177777 
1 1:0.36208731 2:0.13026213 3:0.4192248 4:0.23576554 5:0.57806506 6:0.92224341 
1 1:0.29698748 2:0.5639633 3:0.21512514 4:0.37703952 5:0.49504309 6:0.89353567 
1 1:0.41328278 2:0.14214475 3:0.46852002 4:0.3185854 5:0.55855738 6:0.76273038 
1 1:0.68346186 2:0.30779149 3:0.75079329 4:0.9158493 5:0.64975991 6:0.36567229 
1 1:0.30776671 2:0.55359416 3:0.22845923 4:0.44578022 5:0.2218285 6:0.21149729 
1 1:0.51059963 2:0.40876688 3:0.2730083 4:0.038430716 5:0.40492594 6:0.49697512 
1 1:0.48525306 2:0.55318537 3:0.2817137 4:0.86820377 5:0.68939795 6:0.91488638 
1 1:0.83858719 2:0.39241225 3:0.62261109 4:0.93094994 5:0.49644639 6:0.94499744 
1 1:0.54959351 2:0.76980945 3:0.27010334 4:0.10142889 5:0.41425347 6:0.17792879 
1 1:0.52685052 2:0.73703952 3:0.3098226 4:0.23901585 5:0.72813278 6:0.29542618 
1 1:0.58152618 2:0.65948948 3:0.51701618 4:0.24704598 5:0.2703627 6:0.79366431 
1 1:0.38133609 2:0.2883882 3:0.69984338 4:0.74827876 5:0.80273103 6:0.48338278 
1 1:0.48660209 2:0.63101254 3:0.6935467 4:0.42671047 5:0.59472522 6:0.24840457 
1 1:0.9593316 2:0.56144481 3:0.41505551 4:0.2102283 5:0.49112372 6:0.70753425 
1 1:0.87703792 2:0.63997841 3:0.38410828 4:0.34440423 5:0.78598958 6:0.68467963 
1 1:0.36172133 2:0.15056525 3:0.43143202 4:0.81663836 5:0.29401148 6:0.21252849 
1 1:0.76639962 2:0.47799528 3:0.73190081 4:0.14258912 5:0.45108624 6:0.035060441 
1 1:0.51120161 2:0.89373702 3:0.47002385 4:0.004650066 5:0.29783112 6:0.64578015 
1 1:0.37306463 2:0.56917307 3:0.73042366 4:0.068266129 5:0.050936914 6:0.34331415 
1 1:0.43375518 2:0.58922115 3:0.80147286 4:0.95829717 5:0.62450914 6:0.47693957 
1 1:0.86785243 2:0.47832093 3:0.65428987 4:0.56120793 5:0.45244092 6:0.61267856 
0.5461980931136807 1:0.65032048 2:0.61680797 3:0.7317502 4:0.97679429 5:0.054879551 6:0.57223048 
1 1:0.11562395 2:0.65793426 3:0.36483671 4:0.75343373 5:0.47348905 6:0.84652058 
1 1:0.56932686 2:0.29971786 3:0.76575499 4:0.46478717 5:0.33564744 6:0.92371521 
1 1:0.28859871 2:0.26221065 3:0.7189705 4:0.717012 5:0.77745991 6:0.65395317 
1 1:0.59636622 2:0.089890446 3:0.63585377 4:0.60954006 5:0.37886519 6:0.59226835 
1 1:0.2039181 2:0.7239426 3:0.42023733 4:0.20616993 5:0.065741399 6:0.52121835 
1 1:0.51669619 2:0.64919724 3:0.26993245 4:0.12646959 5:0.4079429 6:0.43893362 
1 1:0.24691056 2:0.18237151 3:0.57029466 4:0.013357472 5:0.46046961 6:0.47598993 
1 1:0.36102051 2:0.81870776 3:0.29304065 4:0.64803507 5:0.44356679 6:0.065842588 
1 1:0.43398194 2:0.14790278 3:0.42070224 4:0.32241204 5:0.52017192 6:0.51866406 
1 1:0.30415128 2:0.57897858 3:0.27735704 4:0.55572953 5:0.28629544 6:0.21730125 
1 1:0.42947056 2:0.18002472 3:0.31663988 4:0.93460886 5:0.62587835 6:0.81175002 
1 1:0.70916361 2:0.66845358 3:0.2418999 4:0.41638878 5:0.43194472 6:0.87771486 
1 1:0.36229251 2:0.46528046 3:0.30130219 4:0.7704859 5:0.31208027 6:0.26091812 
1 1:0.78579769 2:0.65393576 3:0.72725941 4:0.23168498 5:0.61087892 6:0.19857839 
1 1:0.20136008 2:0.32381657 3:0.34148083 4:0.99466137 5:0.42475753 6:0.2720327 
1 1:0.60954136 2:0.8765816 3:0.53903829 4:0.32275584 5:0.074975382 6:0.66052614 
1 1:0.69411864 2:0.48038522 3:0.77006014 4:0.49980187 5:0.16163881 6:0.77479665 
1 1:0.16929011 2:0.63631216 3:0.39460315 4:0.26960917 5:0.52221911 6:0.1472871 
1 1:0.91632344 2:0.50238263 3:0.62977884 4:0.84486531 5:0.38895066 6:0.36165547 
1 1:0.67022702 2:0.41039134 3:0.75683397 4:0.40873929 5:0.37978236 6:0.54623602 
1 1:0.82733627 2:0.6188054 3:0.62468653 4:0.98348994 5:0.67178015 6:0.43485495 
1 1:0.38033014 2:0.40731363 3:0.19659988 4:0.23812597 5:0.70972367 6:0.4632859 
1 1:0.29106311 2:0.47248408 3:0.23705925 4:0.70073586 5:0.42447973 6:0.48842851 
1 1:0.66201497 2:0.37733216 3:0.78923988 4:0.65847752 5:0.55682376 6:0.96572295 
1 1:0.12448979 2:0.69650089 3:0.39342706 4:0.47249446 5:0.72729131 6:0.74630424 
1 1:0.5875445 2:0.78579888 3:0.75663735 4:0.65152243 5:0.54842148 6:0.84382744 
1 1:0.124378 2:0.66429428 3:0.46884236 4:0.35074305 5:0.14855113 6:0.25689332 
1 1:0.18835823 2:0.36071031 3:0.65809618 4:0.12093454 5:0.69030614 6:0.83417335 
1 1:0.4892112 2:0.31482659 3:0.77123142 4:0.073983349 5:0.43874943 6:0.93210411 
1 1:0.49114254 2:0.71425728 3:0.70450954 4:0.1445736 5:0.3624378 6:0.52597952 
0.5157909957084919 1:0.2864071 2:0.81164076 3:0.66536076 4:0.55564823 5:0.67870529 6:0.1090081 
1 1:0.68327953 2:0.58034569 3:0.71214513 4:0.21403168 5:0.2515293 6:0.34103736 
1 1:0.3363122 2:0.31751993 3:0.24606322 4:0.21136587 5:0.44665493 6:0.2601917 
1 1:0.37189414 2:0.48424779 3:0.68339731 4:0.7074621 5:0.40806051 6:0.70118572 
1 1:0.3533877 2:0.9028038 3:0.52987963 4:0.57237359 5:0.26107392 6:0.85785704 
1 1:0.24874224 2:0.34663365 3:0.72541998 4:0.046833514 5:0.33183535 6:0.7892838 
1 1:0.50139682 2:0.33859464 3:0.2317866 4:0.31537422 5:0.30642224 6:0.53788993 
1 1:0.68467686 2:0.39177597 3:0.19047545 4:0.50900665 5:0.41327333 6:0.05725159 
