svm_type c_svc
kernel_type rbf
gamma 0.333333
nr_class 2
total_sv 4960
rho -19.8599
label -1 1
nr_sv 2480 2480
SV
1 1:0.41131956 2:0.71352805 3:0.073670276 
1 1:0.027369955 2:0.52220811 3:0.82227048 
1 1:0.33312436 2:0.48934895 3:0.97679572 
1 1:0.015220491 2:0.32324997 3:0.69264981 
1 1:0.46093655 2:0.21568627 3:0.024731538 
1 1:0.75251369 2:0.46564709 3:0.005509013 
1 1:0.98841577 2:0.41968171 3:0.55454113 
1 1:0.2829265 2:0.92434498 3:0.35726439 
1 1:0.35845975 2:0.10617415 3:0.10423981 
1 1:0.42058448 2:0.32287162 3:0.011423832 
1 1:0.45773423 2:0.92962186 3:0.50459549 
1 1:0.95291168 2:0.49592733 3:0.69851052 
1 1:0.73749876 2:0.71000971 3:0.90636818 
1 1:0.87526467 2:0.036786311 3:0.5057349 
1 1:0.47569411 2:0.039310002 3:0.43926522 
1 1:0.4055755 2:0.67431553 3:0.041203473 
1 1:0.2754324 2:0.41386284 3:0.10039942 
1 1:0.25645161 2:0.9441629 3:0.39859521 
1 1:0.25456083 2:0.97195677 3:0.52477295 
1 1:0.52728158 2:0.71583213 3:0.026380164 
1 1:0.41019348 2:0.73594128 3:0.047743716 
1 1:0.72766445 2:0.94061332 3:0.7283138 
1 1:0.95200822 2:0.338915 3:0.66561453 
1 1:0.70289759 2:0.60060957 3:0.05689763 
1 1:0.94633126 2:0.54984411 3:0.85274462 
1 1:0.060853135 2:0.59579127 3:0.80022193 
1 1:0.59617713 2:0.48963147 3:0.91684477 
1 1:0.020121902 2:0.70350519 3:0.76200892 
1 1:0.46292915 2:0.86697809 3:0.93161262 
1 1:0.42768968 2:0.57073583 3:0.9811783 
1 1:0.93145753 2:0.67655841 3:0.33286156 
1 1:0.60577898 2:0.55744449 3:0.084104166 
1 1:0.94509714 2:0.69660859 3:0.3160184 
1 1:0.058060644 2:0.30694168 3:0.26813018 
1 1:0.3608813 2:0.68333771 3:0.073433698 
1 1:0.50120026 2:0.024461406 3:0.84031857 
1 1:0.58737904 2:0.51178056 3:0.94689346 
1 1:0.97093941 2:0.44715896 3:0.38483576 
1 1:0.60154387 2:0.1019744 3:0.89672432 
1 1:0.36878594 2:0.26863225 3:0.083690319 
1 1:0.44014445 2:0.97401637 3:0.50984797 
1 1:0.061251329 2:0.42718838 3:0.55758284 
1 1:0.40619106 2:0.53734249 3:0.034503598 
1 1:0.0049064979 2:0.50093392 3:0.75081832 
1 1:0.99903686 2:0.51161543 3:0.57359221 
1 1:0.2496422 2:0.48004933 3:0.92918914 
1 1:0.11352316 2:0.97988449 3:0.48541095 
1 1:0.43538976 2:0.038697731 3:0.72653777 
1 1:0.70470941 2:0.060738113 3:0.59214054 
1 1:0.29291249 2:0.035714254 3:0.71333172 
1 1:0.72093746 2:0.33271441 3:0.96669384 
1 1:0.37908524 2:0.63796935 3:0.01095961 
1 1:0.32523621 2:0.9437625 3:0.20623872 
1 1:0.67514125 2:0.020397927 3:0.3022425 
1 1:0.44075185 2:0.31273793 3:0.027314849 
1 1:0.71738254 2:0.3956727 3:0.018532043 
1 1:0.19415011 2:0.003078204 3:0.40649463 
1 1:0.52079491 2:0.93732785 3:0.46911047 
1 1:0.069185076 2:0.68469094 3:0.76833947 
1 1:0.92430407 2:0.65583992 3:0.67962347 
1 1:0.57346085 2:0.76991274 3:0.039544743 
1 1:0.96220706 2:0.50805417 3:0.31831286 
1 1:0.1707372 2:0.38237063 3:0.91111762 
1 1:0.38063748 2:0.84684331 3:0.070612194 
1 1:0.93133535 2:0.25971675 3:0.75848644 
1 1:0.98753728 2:0.77072644 3:0.38731952 
1 1:0.30631063 2:0.19798311 3:0.084476714 
1 1:0.46848032 2:0.43714897 3:0.91240314 
1 1:0.33822411 2:0.18287427 3:0.90232386 
1 1:0.56381559 2:0.022394602 3:0.78787053 
1 1:0.34963423 2:0.58557771 3:0.010713941 
1 1:0.92717912 2:0.39292772 3:0.67411222 
1 1:0.28183779 2:0.058770013 3:0.34856214 
1 1:0.55459087 2:0.56501578 3:0.95447953 
1 1:0.73943346 2:0.95486021 3:0.36673967 
1 1:0.51052086 2:0.95854655 3:0.60151705 
1 1:0.59957219 2:0.63547461 3:0.93259714 
1 1:0.44790124 2:0.98921539 3:0.37342968 
1 1:0.042504124 2:0.54204641 3:0.11937798 
1 1:0.53121555 2:0.23718253 3:0.062984643 
1 1:0.020801065 2:0.48460204 3:0.75550184 
1 1:0.29361378 2:0.023981469 3:0.53903392 
1 1:0.93714483 2:0.5430185 3:0.62886379 
1 1:0.99963638 2:0.67726478 3:0.37672851 
1 1:0.61070451 2:0.17143319 3:0.09625011 
1 1:0.50888043 2:0.94174655 3:0.66480838 
1 1:0.18974294 2:0.03742031 3:0.59748221 
1 1:0.46521722 2:0.94404868 3:0.83319806 
1 1:0.43230799 2:0.34459862 3:0.96806068 
1 1:0.26077158 2:0.0092492781 3:0.24532423 
1 1:0.50604658 2:0.031763107 3:0.56666437 
1 1:0.21261208 2:0.60503794 3:0.075122363 
1 1:0.017641866 2:0.72369427 3:0.60305912 
1 1:0.37012893 2:0.24378687 3:0.94752831 
1 1:0.41458759 2:0.33293608 3:0.067598674 
1 1:0.42746719 2:0.052346661 3:0.18757074 
1 1:0.02512166 2:0.39510349 3:0.74969004 
1 1:0.46150393 2:0.98523465 3:0.44440058 
1 1:0.4725427 2:0.4616116 3:0.91742943 
1 1:0.68042161 2:0.031682329 3:0.70623378 
1 1:0.67371709 2:0.72906235 3:0.057449818 
1 1:0.7980405 2:0.36359323 3:0.048979263 
1 1:0.31941421 2:0.66767458 3:0.080818726 
1 1:0.96937906 2:0.57255614 3:0.25074478 
1 1:0.82385587 2:0.94484281 3:0.68210251 
1 1:0.47436932 2:0.98949853 3:0.48495391 
1 1:0.024217064 2:0.38606857 3:0.1567152 
1 1:0.65215594 2:0.93496019 3:0.20418929 
1 1:0.57795548 2:0.01493107 3:0.7865457 
1 1:0.41766218 2:0.050175853 3:0.46071906 
1 1:0.84989443 2:0.047504938 3:0.50199309 
1 1:0.44449265 2:0.95012885 3:0.87292636 
1 1:0.76501064 2:0.41928195 3:0.070449369 
1 1:0.93276443 2:0.77229338 3:0.62630238 
1 1:0.4934707 2:0.65579785 3:0.92549037 
1 1:0.47105427 2:0.086957829 3:0.093883163 
1 1:0.062557114 2:0.50641774 3:0.8027304 
1 1:0.87798644 2:0.9333388 3:0.69915043 
1 1:0.31343232 2:0.74581301 3:0.059588557 
1 1:0.66457872 2:0.98669614 3:0.49274817 
1 1:0.35458611 2:0.53129754 3:0.90256391 
1 1:0.7622215 2:0.067254905 3:0.43317606 
1 1:0.68062308 2:0.27729028 3:0.96447124 
1 1:0.42178315 2:0.48179902 3:0.054779739 
1 1:0.75183211 2:0.8059727 3:0.078135154 
1 1:0.37324064 2:0.74978828 3:0.056305883 
1 1:0.47439431 2:0.68562353 3:0.95144965 
1 1:0.18473724 2:0.071584315 3:0.38682332 
1 1:0.26743743 2:0.070182794 3:0.23106704 
1 1:0.94299714 2:0.12563689 3:0.55968565 
1 1:0.012332666 2:0.44042773 3:0.39054402 
1 1:0.93990237 2:0.87788141 3:0.68856002 
1 1:0.2646789 2:0.3741138 3:0.89803789 
1 1:0.0088909094 2:0.59127318 3:0.82354018 
1 1:0.7515277 2:0.046498361 3:0.57445303 
1 1:0.35003064 2:0.17390304 3:0.91867873 
1 1:0.50808224 2:0.79200404 3:0.94194579 
1 1:0.45975793 2:0.062576132 3:0.30188347 
1 1:0.34919037 2:0.31116626 3:0.064207922 
1 1:0.36980359 2:0.20465704 3:0.9297902 
1 1:0.76739772 2:0.58860859 3:0.94981515 
1 1:0.5234524 2:0.39251997 3:0.084550025 
1 1:0.56923446 2:0.96331046 3:0.72033159 
1 1:0.0039809315 2:0.2356554 3:0.66854236 
1 1:0.58029334 2:0.3037484 3:0.010665153 
1 1:0.37576072 2:0.27484985 3:0.99794941 
1 1:0.48676917 2:0.72066249 3:0.10510108 
1 1:0.99121819 2:0.71725369 3:0.66078353 
1 1:0.059929042 2:0.45006337 3:0.27789857 
1 1:0.50311071 2:0.24209027 3:0.077327058 
1 1:0.81055638 2:0.6961055 3:0.92014546 
1 1:0.35708852 2:0.0078610447 3:0.38484992 
1 1:0.49564209 2:0.99442349 3:0.75307801 
1 1:0.67725806 2:0.24539154 3:0.91341258 
1 1:0.4304061 2:0.58069564 3:0.97730467 
1 1:0.075949646 2:0.76682214 3:0.4401218 
1 1:0.61151612 2:0.24637004 3:0.086589666 
1 1:0.6354777 2:0.68977849 3:0.9874549 
1 1:0.055804152 2:0.56782916 3:0.28198312 
1 1:0.98314951 2:0.60951415 3:0.83255555 
1 1:0.35091001 2:0.94305344 3:0.12858455 
1 1:0.56962763 2:0.6446958 3:0.0451716 
1 1:0.267569 2:0.9296456 3:0.14706317 
1 1:0.26905582 2:0.0063510432 3:0.55553103 
1 1:0.15130043 2:0.94832351 3:0.55964972 
1 1:0.85039191 2:0.93225682 3:0.48793402 
1 1:0.96670102 2:0.33163231 3:0.47135617 
1 1:0.39160826 2:0.69900083 3:0.045000641 
1 1:0.44842639 2:0.46678021 3:0.039786672 
1 1:0.06360689 2:0.57503269 3:0.83443826 
1 1:0.55016653 2:0.062450109 3:0.2037763 
1 1:0.54297795 2:0.46954172 3:0.92404682 
1 1:0.6843706 2:0.28258968 3:0.021623131 
1 1:0.54388196 2:0.5994698 3:0.991688 
1 1:0.82779247 2:0.047516028 3:0.30445071 
1 1:0.63905253 2:0.49646605 3:0.056199076 
1 1:0.48697527 2:0.0071763824 3:0.52910348 
1 1:0.44729368 2:0.25297998 3:0.93733035 
1 1:0.067162694 2:0.72620636 3:0.57212342 
1 1:0.50234744 2:0.017448387 3:0.62735255 
1 1:0.054571706 2:0.60023306 3:0.83427005 
1 1:0.98137611 2:0.55838945 3:0.81108644 
1 1:0.60942352 2:0.026638796 3:0.68994721 
1 1:0.6499894 2:0.015103449 3:0.20483095 
1 1:0.3379347 2:0.95326716 3:0.45892094 
1 1:0.29973078 2:0.21154065 3:0.061370397 
1 1:0.37131132 2:0.97464467 3:0.38966099 
1 1:0.76992366 2:0.9665097 3:0.68917072 
1 1:0.0958586 2:0.93280684 3:0.66698018 
1 1:0.52592262 2:0.051743963 3:0.12765246 
1 1:0.069858973 2:0.65633067 3:0.74926028 
1 1:0.3341753 2:0.9788099 3:0.29541647 
1 1:0.94571808 2:0.49273805 3:0.15158973 
1 1:0.19876065 2:0.36215432 3:0.079146516 
1 1:0.98420294 2:0.13644794 3:0.65076952 
1 1:0.33086192 2:0.73039732 3:0.95727272 
1 1:0.30860055 2:0.98375501 3:0.37543374 
1 1:0.43823312 2:0.067056444 3:0.49210421 
1 1:0.41943362 2:0.3401934 3:0.98280286 
1 1:0.38846001 2:0.74288116 3:0.090707168 
1 1:0.91388829 2:0.42924473 3:0.10228896 
1 1:0.77023402 2:0.50235529 3:0.021414116 
1 1:0.33345211 2:0.93829751 3:0.73660381 
1 1:0.32841461 2:0.072850579 3:0.5192344 
1 1:0.81932796 2:0.93175896 3:0.35447173 
1 1:0.65390291 2:0.81332435 3:0.083847202 
1 1:0.23686529 2:0.74297426 3:0.93662063 
1 1:0.033346754 2:0.18764938 3:0.67449009 
1 1:0.0288665 2:0.4541821 3:0.35635823 
1 1:0.71137631 2:0.0067167362 3:0.54207671 
1 1:0.66455245 2:0.056909117 3:0.65462532 
1 1:0.62858434 2:0.77129701 3:0.070861701 
1 1:0.057768292 2:0.50008987 3:0.47217269 
1 1:0.95310881 2:0.60824044 3:0.53458721 
1 1:0.35117503 2:0.04628765 3:0.19993869 
1 1:0.58281337 2:0.78469446 3:0.94584794 
1 1:0.32219201 2:0.58488349 3:0.90361598 
1 1:0.73479153 2:0.30068676 3:0.038243273 
1 1:0.62872165 2:0.6799286 3:0.92676432 
1 1:0.73411104 2:0.62551955 3:0.0096358813 
1 1:0.48125999 2:0.92467816 3:0.46237334 
1 1:0.45793015 2:0.85221301 3:0.061293955 
1 1:0.70738125 2:0.3103347 3:0.92398061 
1 1:0.034917279 2:0.58923874 3:0.54633448 
1 1:0.84122591 2:0.007893966 3:0.43106569 
1 1:0.7154362 2:0.92383448 3:0.37603789 
1 1:0.39939223 2:0.35507069 3:0.98864794 
1 1:0.6257625 2:0.54965583 3:0.97473129 
1 1:0.050752577 2:0.52904797 3:0.36783789 
1 1:0.80459021 2:0.75800684 3:0.91079408 
1 1:0.93109829 2:0.87181853 3:0.47594952 
1 1:0.86120154 2:0.064128109 3:0.37314603 
1 1:0.55928869 2:0.93360628 3:0.50410745 
1 1:0.47968673 2:0.73267845 3:0.94875164 
1 1:0.32501776 2:0.92628191 3:0.81852352 
1 1:0.57787287 2:0.069202759 3:0.87940389 
1 1:0.92592589 2:0.71790857 3:0.31932045 
1 1:0.52049587 2:0.99954157 3:0.33304258 
1 1:0.1168399 2:0.97918906 3:0.48479716 
1 1:0.48936838 2:0.77327242 3:0.94605235 
1 1:0.009642188 2:0.5859619 3:0.20728575 
1 1:0.64010189 2:0.92756782 3:0.47298486 
1 1:0.9715771 2:0.32249097 3:0.56332926 
1 1:0.034102084 2:0.51006372 3:0.20710466 
1 1:0.33616968 2:0.92507266 3:0.64220969 
1 1:0.50487856 2:0.34205651 3:0.050229325 
1 1:0.17372299 2:0.65296921 3:0.94032943 
1 1:0.17971243 2:0.01789292 3:0.44060218 
1 1:0.29392969 2:0.56770273 3:0.028775617 
1 1:0.40324807 2:0.39301404 3:0.074057896 
1 1:0.61805324 2:0.92319448 3:0.6704754 
1 1:0.93499263 2:0.51300015 3:0.54551754 
1 1:0.10457467 2:0.95673151 3:0.5924833 
1 1:0.073456721 2:0.74474867 3:0.68782774 
1 1:0.16721751 2:0.048072955 3:0.44713779 
1 1:0.16996267 2:0.5240579 3:0.9060302 
1 1:0.63440301 2:0.59040756 3:0.93223709 
1 1:0.40164657 2:0.88605963 3:0.088126011 
1 1:0.43061149 2:0.87527956 3:0.061765892 
1 1:0.51104159 2:0.9890735 3:0.47917222 
1 1:0.95400075 2:0.59555199 3:0.30834517 
1 1:0.58298861 2:0.047825099 3:0.23705059 
1 1:0.6095788 2:0.21024613 3:0.03003933 
1 1:0.32326528 2:0.057942274 3:0.47461141 
1 1:0.9787931 2:0.23089567 3:0.61239967 
1 1:0.97007555 2:0.61577585 3:0.84979029 
1 1:0.79746123 2:0.43991199 3:0.018973894 
1 1:0.51510927 2:0.36676931 3:0.94954839 
1 1:0.56066316 2:0.8091399 3:0.90512183 
1 1:0.048004355 2:0.37009343 3:0.35955766 
1 1:0.48343541 2:0.78175244 3:0.046881743 
1 1:0.77684436 2:0.4871552 3:0.084132326 
1 1:0.71210365 2:0.6311174 3:0.06103254 
1 1:0.27023499 2:0.76021169 3:0.046710154 
1 1:0.38378907 2:0.35453396 3:0.04488595 
1 1:0.93733668 2:0.13982391 3:0.52146557 
1 1:0.20726447 2:0.97378894 3:0.56736512 
1 1:0.69428425 2:0.044756451 3:0.62782193 
1 1:0.59630317 2:0.038232776 3:0.84310945 
1 1:0.040427483 2:0.8327384 3:0.32730216 
1 1:0.56558835 2:0.45860333 3:0.0033669658 
1 1:0.64316633 2:0.92688895 3:0.43619791 
1 1:0.46718769 2:0.96764912 3:0.20446991 
1 1:0.51690089 2:0.93160941 3:0.32014431 
1 1:0.32585978 2:0.18999163 3:0.052545186 
1 1:0.056250824 2:0.56063026 3:0.72685956 
1 1:0.71146198 2:0.06537265 3:0.70719084 
1 1:0.48189098 2:0.76106816 3:0.99167842 
1 1:0.24203201 2:0.016125597 3:0.34646791 
1 1:0.58824056 2:0.053583548 3:0.73757153 
1 1:0.54171348 2:0.97992224 3:0.60324432 
1 1:0.57341375 2:0.67660073 3:0.047901385 
1 1:0.33693592 2:0.97972451 3:0.71366097 
1 1:0.36649957 2:0.34295501 3:0.058050134 
1 1:0.41742526 2:0.18006887 3:0.060120203 
1 1:0.88363819 2:0.92803908 3:0.67957482 
1 1:0.18969279 2:0.22667527 3:0.89806848 
1 1:0.042456842 2:0.53523196 3:0.29465009 
1 1:0.50800918 2:0.038152154 3:0.58399404 
1 1:0.55740836 2:0.044600081 3:0.63296052 
1 1:0.48777219 2:0.95764768 3:0.28600489 
1 1:0.52423073 2:0.032797051 3:0.1552694 
1 1:0.047301314 2:0.71492172 3:0.73796315 
1 1:0.27261865 2:0.014042359 3:0.45324678 
1 1:0.9682934 2:0.36741899 3:0.2281882 
1 1:0.56468714 2:0.53102607 3:0.0045454706 
1 1:0.16667614 2:0.048562852 3:0.4485881 
1 1:0.97220804 2:0.37450304 3:0.75170772 
1 1:0.45937759 2:0.20426947 3:0.10251732 
1 1:0.075382509 2:0.78751709 3:0.38682719 
1 1:0.99511462 2:0.52784092 3:0.82501741 
1 1:0.69006859 2:0.5227689 3:0.9858125 
1 1:0.96841688 2:0.62548493 3:0.84226724 
1 1:0.061141641 2:0.24741469 3:0.51754756 
1 1:0.64401146 2:0.92542061 3:0.22314944 
1 1:0.0060383567 2:0.66398612 3:0.68543688 
1 1:0.97806965 2:0.50893874 3:0.16840672 
1 1:0.441724 2:0.044713955 3:0.44950547 
1 1:0.23602309 2:0.3952768 3:0.017747687 
1 1:0.99639568 2:0.6957019 3:0.24115224 
1 1:0.044939626 2:0.5028336 3:0.55394811 
1 1:0.073736338 2:0.055914507 3:0.40123234 
1 1:0.20769965 2:0.33738572 3:0.89835851 
1 1:0.78597128 2:0.033023307 3:0.65126483 
1 1:0.98682201 2:0.30149175 3:0.43764163 
1 1:0.53953574 2:0.50026245 3:0.099586001 
1 1:0.7794498 2:0.94248997 3:0.48312656 
1 1:0.58315839 2:0.51008961 3:0.018314011 
1 1:0.5371714 2:0.24044634 3:0.97408424 
1 1:0.98862591 2:0.2848552 3:0.58853624 
1 1:0.024209254 2:0.70712185 3:0.79498351 
1 1:0.47156681 2:0.24712585 3:0.97020418 
1 1:0.32847107 2:0.75995103 3:0.022624374 
1 1:0.076443672 2:0.58299236 3:0.23261311 
1 1:0.94387191 2:0.52576196 3:0.62367104 
1 1:0.99668514 2:0.79887717 3:0.32018167 
1 1:0.060728279 2:0.73093486 3:0.73889235 
1 1:0.99807981 2:0.25859554 3:0.24208353 
1 1:0.78978394 2:0.058436279 3:0.33334307 
1 1:0.062234224 2:0.50068462 3:0.33077765 
1 1:0.88935367 2:0.98468052 3:0.58317349 
1 1:0.54299309 2:0.93954715 3:0.17678947 
1 1:0.45668764 2:0.24992018 3:0.0083369183 
1 1:0.27027411 2:0.036015153 3:0.54288039 
1 1:0.11138618 2:0.47788279 3:0.91727269 
1 1:0.93519395 2:0.75800562 3:0.26266007 
1 1:0.38770699 2:0.7799927 3:0.067713642 
1 1:0.061940195 2:0.72399747 3:0.82348628 
1 1:0.7188237 2:0.58872437 3:0.00015334354 
1 1:0.045833907 2:0.43281819 3:0.84616673 
1 1:0.11614327 2:0.50227639 3:0.065233684 
1 1:0.37121037 2:0.98309349 3:0.4893603 
1 1:0.53657969 2:0.57949302 3:0.94082996 
1 1:0.2805955 2:0.59381668 3:0.088310294 
1 1:0.53405192 2:0.035658399 3:0.54742818 
1 1:0.28202001 2:0.060453332 3:0.6562115 
1 1:0.93404716 2:0.45679292 3:0.44879259 
1 1:0.20423964 2:0.95780485 3:0.32437854 
1 1:0.038467342 2:0.19328299 3:0.72383964 
1 1:0.31893218 2:0.94978109 3:0.56976771 
1 1:0.25166218 2:0.5466173 3:0.96540536 
1 1:0.53032723 2:0.74883783 3:0.90397761 
1 1:0.9463812 2:0.45089045 3:0.40863392 
1 1:0.63373992 2:0.021608716 3:0.25794571 
1 1:0.0521313 2:0.54505845 3:0.27763857 
1 1:0.43796679 2:0.17797168 3:0.060165848 
1 1:0.45593344 2:0.061975588 3:0.33288587 
1 1:0.26573848 2:0.0015387385 3:0.61131989 
1 1:0.15348307 2:0.4294489 3:0.082623902 
1 1:0.66751788 2:0.94748551 3:0.29763755 
1 1:0.5209556 2:0.93128729 3:0.87774614 
1 1:0.34115205 2:0.63821098 3:0.079666593 
1 1:0.20108155 2:0.070099218 3:0.67264799 
1 1:0.13643661 2:0.71447883 3:0.086244578 
1 1:0.43593805 2:0.4102767 3:0.94386377 
1 1:0.016190824 2:0.53879943 3:0.48945749 
1 1:0.050803448 2:0.59180458 3:0.5343583 
1 1:0.27974607 2:0.70390012 3:0.94185271 
1 1:0.43764073 2:0.62070937 3:0.068423978 
1 1:0.067209192 2:0.84372801 3:0.27050836 
1 1:0.38621535 2:0.21077547 3:0.94204546 
1 1:0.43576121 2:0.45716445 3:0.92506175 
1 1:0.47077664 2:0.27215829 3:0.97139367 
1 1:0.64004656 2:0.073751226 3:0.82127699 
1 1:0.96220769 2:0.68152737 3:0.69396293 
1 1:0.97111947 2:0.73554812 3:0.46307859 
1 1:0.72123609 2:0.9394075 3:0.62027652 
1 1:0.4289775 2:0.048319148 3:0.37613359 
1 1:0.53199544 2:0.98218258 3:0.20728726 
1 1:0.6431194 2:0.48075012 3:0.97068357 
1 1:0.54160048 2:0.035555629 3:0.49181598 
1 1:0.31375919 2:0.2049454 3:0.081694059 
1 1:0.67772957 2:0.98094802 3:0.29191822 
1 1:0.55713486 2:0.98228611 3:0.41272372 
1 1:0.4045742 2:0.16767969 3:0.093727557 
1 1:0.85566251 2:0.98288309 3:0.55432814 
1 1:0.34515961 2:0.97152868 3:0.77175834 
1 1:0.93321898 2:0.52003048 3:0.45060316 
1 1:0.59900338 2:0.17262163 3:0.93730957 
1 1:0.57661066 2:0.93385354 3:0.27327424 
1 1:0.99954955 2:0.61703595 3:0.52849916 
1 1:0.33283751 2:0.95021155 3:0.46136494 
1 1:0.055826283 2:0.39548151 3:0.55601888 
1 1:0.01513118 2:0.61691252 3:0.28647756 
1 1:0.89566133 2:0.92782541 3:0.51822496 
1 1:0.79687463 2:0.99100827 3:0.26812793 
1 1:0.76945259 2:0.039144516 3:0.66072783 
1 1:0.68276308 2:0.66709278 3:0.019216842 
1 1:0.97095099 2:0.30092251 3:0.76929413 
1 1:0.97857936 2:0.14280783 3:0.64939504 
1 1:0.63264913 2:0.94091549 3:0.53838379 
1 1:0.30000491 2:0.35567409 3:0.061257505 
1 1:0.59648044 2:0.07626883 3:0.27848564 
1 1:0.93402114 2:0.73742704 3:0.3728705 
1 1:0.0018889024 2:0.4588025 3:0.20299889 
1 1:0.031204518 2:0.46122367 3:0.76966832 
1 1:0.71792352 2:0.013519506 3:0.55930025 
1 1:0.075673615 2:0.37367608 3:0.64782134 
1 1:0.0012053082 2:0.46273444 3:0.62151002 
1 1:0.93503623 2:0.16602928 3:0.56227564 
1 1:0.36074122 2:0.28755322 3:0.91003126 
1 1:0.39294762 2:0.5687805 3:0.96296218 
1 1:0.15530184 2:0.45063006 3:0.95047503 
1 1:0.86852208 2:0.036436152 3:0.43366712 
1 1:0.85382634 2:0.93721613 3:0.29309545 
1 1:0.54088271 2:0.98448683 3:0.64812953 
1 1:0.2876935 2:0.80396624 3:0.098147662 
1 1:0.003969547 2:0.54930075 3:0.37269539 
1 1:0.97320373 2:0.6104813 3:0.37581333 
1 1:0.4117976 2:0.83791189 3:0.068297781 
1 1:0.30245107 2:0.42713585 3:0.070635324 
1 1:0.34296196 2:0.48958783 3:0.91047268 
1 1:0.063567182 2:0.3935229 3:0.1540841 
1 1:0.035787352 2:0.48656156 3:0.22784705 
1 1:0.58553722 2:0.99607206 3:0.79014012 
1 1:0.93058089 2:0.16115141 3:0.27418616 
1 1:0.94602662 2:0.56927445 3:0.68374513 
1 1:0.59143098 2:0.031011434 3:0.72596739 
1 1:0.70260059 2:0.037000684 3:0.74956887 
1 1:0.41512687 2:0.81389079 3:0.91793294 
1 1:0.8581245 2:0.64568362 3:0.92126555 
1 1:0.016830115 2:0.75479024 3:0.21726263 
1 1:0.22485256 2:0.57529927 3:0.90905656 
1 1:0.47870683 2:0.0057415079 3:0.60687852 
1 1:0.16475356 2:0.076755184 3:0.35621349 
1 1:0.37834014 2:0.95239316 3:0.24015478 
1 1:0.97576591 2:0.25777049 3:0.75900224 
1 1:0.94884483 2:0.61050806 3:0.1732486 
1 1:0.48160587 2:0.34251586 3:0.94951137 
1 1:0.61860674 2:0.95309607 3:0.39159468 
1 1:0.30061135 2:0.012230212 3:0.2422472 
1 1:0.0022443184 2:0.45802325 3:0.19287006 
1 1:0.24315326 2:0.67409168 3:0.041713762 
1 1:0.40751432 2:0.16279288 3:0.067374247 
1 1:0.60550365 2:0.64420668 3:0.97307765 
1 1:0.95522372 2:0.36299457 3:0.73968867 
1 1:0.99624916 2:0.69863837 3:0.69416932 
1 1:0.58278257 2:0.92666289 3:0.41905885 
1 1:0.43003877 2:0.055812613 3:0.23368551 
1 1:0.071010363 2:0.69504762 3:0.85072015 
1 1:0.065464357 2:0.94139568 3:0.55976299 
1 1:0.028647443 2:0.10479495 3:0.56364229 
1 1:0.022327403 2:0.62931412 3:0.19869008 
1 1:0.66763921 2:0.32809888 3:0.94828837 
1 1:0.7940843 2:0.070830199 3:0.47520189 
1 1:0.7996989 2:0.49583555 3:0.93088431 
1 1:0.076476627 2:0.67165091 3:0.51244818 
1 1:0.79596903 2:0.059815796 3:0.41050209 
1 1:0.93552978 2:0.56777026 3:0.47560974 
1 1:0.72523673 2:0.44669385 3:0.8998155 
1 1:0.9923671 2:0.53092956 3:0.55269832 
1 1:0.066802764 2:0.25913864 3:0.45500798 
1 1:0.76245027 2:0.97212988 3:0.57545943 
1 1:0.5249643 2:0.50611688 3:0.984846 
1 1:0.020806629 2:0.83291557 3:0.55741275 
1 1:0.33751069 2:0.24890192 3:0.97608536 
0.6758113078060115 1:0.9773373 2:0.31155013 3:0.82859802 
1 1:0.61025311 2:0.43094184 3:0.039178626 
1 1:0.99832672 2:0.25822112 3:0.44758631 
1 1:0.047485637 2:0.41124244 3:0.65376947 
1 1:0.059852837 2:0.57183042 3:0.74036766 
1 1:0.021261277 2:0.79996079 3:0.49943967 
1 1:0.58225247 2:0.069940196 3:0.28963232 
1 1:0.32773893 2:0.48118861 3:0.97490189 
1 1:0.45986975 2:0.96225921 3:0.2515173 
1 1:0.056057544 2:0.36337719 3:0.58196124 
1 1:0.056762135 2:0.90969943 3:0.58569032 
1 1:0.56602662 2:0.56969975 3:0.95328109 
1 1:0.47676826 2:0.98418802 3:0.50552815 
1 1:0.45246688 2:0.1764107 3:0.95300001 
1 1:0.56529404 2:0.73124043 3:0.98221807 
1 1:0.84238924 2:0.68370196 3:0.92258354 
1 1:0.37667247 2:0.037695586 3:0.85184829 
1 1:0.98203093 2:0.49467006 3:0.34348898 
1 1:0.57256096 2:0.0046387878 3:0.65767228 
1 1:0.073556806 2:0.51734274 3:0.65943656 
1 1:0.70948155 2:0.71836066 3:0.022584173 
1 1:0.57250865 2:0.76052067 3:0.065874831 
1 1:0.16575245 2:0.97555261 3:0.53806382 
1 1:0.30009112 2:0.34010675 3:0.95360889 
1 1:0.29674254 2:0.32621824 3:0.97700102 
1 1:0.50474285 2:0.22314611 3:0.042029935 
1 1:0.29413285 2:0.046499203 3:0.75297922 
1 1:0.9248821 2:0.60655975 3:0.26656776 
1 1:0.93791629 2:0.69794441 3:0.3803113 
1 1:0.4083246 2:0.51924799 3:0.013754418 
1 1:0.042327797 2:0.49360488 3:0.25403218 
1 1:0.5544562 2:0.5963961 3:0.89771375 
1 1:0.0044133308 2:0.78906553 3:0.41632079 
1 1:0.30317207 2:0.61385246 3:0.082362436 
1 1:0.30413871 2:0.056155329 3:0.39412422 
1 1:0.63895709 2:0.4408351 3:0.90121007 
1 1:0.57356948 2:0.84439051 3:0.062719839 
1 1:0.38413081 2:0.033872225 3:0.23989768 
1 1:0.33782668 2:0.99352316 3:0.53056956 
1 1:0.051457764 2:0.37259819 3:0.13539089 
1 1:0.052493852 2:0.86395123 3:0.48709071 
1 1:0.80644142 2:0.028818192 3:0.71986955 
1 1:0.25149622 2:0.068048471 3:0.73410107 
1 1:0.39153448 2:0.055690617 3:0.56316315 
1 1:0.4154046 2:0.011443619 3:0.43802929 
1 1:0.90734304 2:0.023976101 3:0.54629179 
1 1:0.68619971 2:0.9845043 3:0.79531878 
1 1:0.41563476 2:0.66770933 3:0.047632259 
1 1:0.28531502 2:0.17531959 3:0.10086499 
1 1:0.054067851 2:0.47214039 3:0.80246857 
1 1:0.9410591 2:0.11355405 3:0.34953499 
1 1:0.60489666 2:0.8702267 3:0.91999266 
1 1:0.38189376 2:0.53474949 3:0.90908512 
1 1:0.77253751 2:0.38675182 3:0.92657186 
1 1:0.24677285 2:0.62790795 3:0.95781696 
1 1:0.74773513 2:0.64987904 3:0.026711446 
1 1:0.060586684 2:0.78782716 3:0.43095035 
1 1:0.16898611 2:0.55839472 3:0.95925522 
1 1:0.7738747 2:0.29393847 3:0.09631197 
1 1:0.32567599 2:0.62839202 3:0.94288593 
1 1:0.9491312 2:0.68842235 3:0.7017909 
1 1:0.44820997 2:0.9742623 3:0.6101909 
1 1:0.45484711 2:0.4337974 3:0.99369619 
1 1:0.29543688 2:0.070449783 3:0.31312695 
1 1:0.65796053 2:0.017665497 3:0.39694552 
1 1:0.82804662 2:0.69029419 3:0.9321735 
1 1:0.2656648 2:0.2603119 3:0.92631435 
1 1:0.25071818 2:0.71271049 3:0.053896253 
1 1:0.43913617 2:0.96341687 3:0.30940881 
1 1:0.95391464 2:0.71457 3:0.16037458 
1 1:0.94992219 2:0.43831892 3:0.32249834 
1 1:0.031701605 2:0.83343054 3:0.6787391 
1 1:0.80456637 2:0.9644059 3:0.2891779 
1 1:0.36668978 2:0.96621964 3:0.69008213 
1 1:0.29748699 2:0.52811275 3:0.98122784 
1 1:0.0062991477 2:0.59106764 3:0.38313739 
1 1:0.74649318 2:0.0023416237 3:0.32002771 
1 1:0.033263628 2:0.43509657 3:0.59395899 
1 1:0.77574688 2:0.65189934 3:0.098921695 
1 1:0.068317628 2:0.76001508 3:0.48668366 
1 1:0.82711062 2:0.47008922 3:0.9099243 
1 1:0.33302229 2:0.50770685 3:0.046027875 
1 1:0.42207103 2:0.45786837 3:0.02656741 
1 1:0.24942378 2:0.94151916 3:0.52924381 
1 1:0.48802311 2:0.95212491 3:0.86666926 
1 1:0.15390897 2:0.62157603 3:0.10066085 
1 1:0.99432171 2:0.46062664 3:0.26638446 
1 1:0.05241304 2:0.60543656 3:0.40305024 
1 1:0.95000733 2:0.31113066 3:0.7324821 
1 1:0.52618502 2:0.019473096 3:0.27452539 
1 1:0.014263446 2:0.81861007 3:0.49611845 
1 1:0.63477224 2:0.93711068 3:0.38987828 
1 1:0.67212646 2:0.050291328 3:0.47609184 
1 1:0.95715829 2:0.42099571 3:0.44701859 
1 1:0.59602871 2:0.45781628 3:0.050150773 
1 1:0.30585134 2:0.053607133 3:0.34998737 
1 1:0.63814321 2:0.9450733 3:0.74694027 
1 1:0.31326341 2:0.0040584113 3:0.75208149 
1 1:0.16445621 2:0.95866702 3:0.48489754 
1 1:0.38376348 2:0.9283722 3:0.41837665 
1 1:0.043718635 2:0.47433266 3:0.15749805 
1 1:0.2547648 2:0.94534683 3:0.35631501 
1 1:0.72002911 2:0.57816656 3:0.93759348 
1 1:0.90793101 2:0.38817343 3:0.89626708 
1 1:0.72237037 2:0.01863163 3:0.48492899 
1 1:0.59822469 2:0.35793171 3:0.94853658 
1 1:0.55515616 2:0.9432104 3:0.42655198 
1 1:0.46616132 2:0.15457468 3:0.94780334 
1 1:0.50251136 2:0.22516664 3:0.96498401 
1 1:0.43567091 2:0.95715761 3:0.24325569 
1 1:0.5640718 2:0.4755429 3:0.94336184 
1 1:0.48106254 2:0.0716168 3:0.87623625 
1 1:0.95171624 2:0.22948105 3:0.40258835 
1 1:0.39388709 2:0.01701615 3:0.57891066 
1 1:0.38831666 2:0.71244996 3:0.048467904 
1 1:0.74651207 2:0.034495829 3:0.27748372 
1 1:0.46304405 2:0.45873396 3:0.9168092 
1 1:0.9973733 2:0.56764155 3:0.70681277 
1 1:0.62174007 2:0.99753185 3:0.18554033 
1 1:0.23003503 2:0.27952238 3:0.94171055 
1 1:0.42638316 2:0.025491682 3:0.80762176 
1 1:0.31074721 2:0.62923027 3:0.024387921 
1 1:0.23044361 2:0.40382821 3:0.97990236 
1 1:0.94640138 2:0.79368243 3:0.48522967 
1 1:0.93352918 2:0.12944864 3:0.52614272 
1 1:0.076323495 2:0.6291659 3:0.60579558 
1 1:0.55495781 2:0.1018454 3:0.092267177 
1 1:0.78572331 2:0.043492756 3:0.38958793 
1 1:0.27362086 2:0.35122343 3:0.077774051 
1 1:0.28731947 2:0.019086882 3:0.73826027 
1 1:0.0033857644 2:0.62829705 3:0.55139394 
1 1:0.52391535 2:0.052377604 3:0.16890044 
1 1:0.93734594 2:0.44495219 3:0.66280305 
1 1:0.05778962 2:0.70973996 3:0.47300334 
1 1:0.35988252 2:0.65800828 3:0.012229168 
1 1:0.74195926 2:0.051888565 3:0.7881689 
1 1:0.58017802 2:0.46313678 3:0.068260012 
1 1:0.54738713 2:0.95661506 3:0.26342314 
1 1:0.26732743 2:0.38880921 3:0.97042499 
1 1:0.42172508 2:0.68346856 3:0.03100212 
1 1:0.16933967 2:0.0099150464 3:0.37822007 
1 1:0.12836257 2:0.9597847 3:0.36513882 
1 1:0.62120406 2:0.94610883 3:0.85529233 
1 1:0.9671872 2:0.78286168 3:0.75985967 
1 1:0.53368363 2:0.29780316 3:0.97861663 
1 1:0.93267697 2:0.77061552 3:0.70405255 
1 1:0.029666897 2:0.19474288 3:0.35374989 
1 1:0.44399676 2:0.20572095 3:0.94798622 
1 1:0.66276157 2:0.64353261 3:0.062535469 
1 1:0.12375332 2:0.92816299 3:0.4409856 
1 1:0.24161739 2:0.76829421 3:0.92517619 
1 1:0.58541069 2:0.95644215 3:0.63707502 
1 1:0.97822228 2:0.17066779 3:0.68746842 
1 1:0.035813598 2:0.28733031 3:0.27183454 
1 1:0.3052681 2:0.20225068 3:0.92720231 
1 1:0.94950612 2:0.19707583 3:0.78283538 
1 1:0.01312584 2:0.52342851 3:0.84264978 
1 1:0.26319003 2:0.70598002 3:0.099185749 
1 1:0.23232713 2:0.54780363 3:0.95484622 
1 1:0.96809871 2:0.6814072 3:0.33971834 
1 1:0.41576736 2:0.97211243 3:0.13536473 
1 1:0.77898506 2:0.9922667 3:0.26052415 
1 1:0.99690733 2:0.50724383 3:0.49094387 
1 1:0.2277887 2:0.043097581 3:0.59965992 
1 1:0.45029022 2:0.51359055 3:0.98987732 
1 1:0.39173682 2:0.060081248 3:0.73872684 
1 1:0.80793536 2:0.30697918 3:0.91214673 
1 1:0.83279244 2:0.52782193 3:0.043606109 
1 1:0.94974913 2:0.52692388 3:0.31651662 
1 1:0.33969565 2:0.94376205 3:0.6690105 
1 1:0.99878181 2:0.46782101 3:0.61839416 
1 1:0.22482062 2:0.067715997 3:0.37172628 
1 1:0.34506984 2:0.9603274 3:0.25538234 
1 1:0.034427748 2:0.76534711 3:0.53431838 
1 1:0.94327442 2:0.16611858 3:0.75209217 
1 1:0.97502016 2:0.46342477 3:0.83717613 
1 1:0.950862 2:0.17826888 3:0.27367175 
1 1:0.54794873 2:0.36911179 3:0.94503208 
1 1:0.013681839 2:0.67516326 3:0.54999189 
1 1:0.95253783 2:0.2924471 3:0.18491875 
1 1:0.2450122 2:0.056842436 3:0.57566654 
1 1:0.34664923 2:0.45207361 3:0.92472513 
1 1:0.70900344 2:0.42624761 3:0.045705886 
1 1:0.16716054 2:0.074710436 3:0.75889958 
1 1:0.53968127 2:0.36522272 3:0.052624349 
1 1:0.5464139 2:0.24668707 3:0.027808665 
1 1:0.029680936 2:0.59025376 3:0.42566969 
1 1:0.98602994 2:0.46824753 3:0.54767709 
1 1:0.20675176 2:0.52181892 3:0.94614727 
1 1:0.2840438 2:0.63616144 3:0.087479524 
1 1:0.42858986 2:0.47004726 3:0.92051099 
1 1:0.90703787 2:0.5674159 3:0.90136915 
1 1:0.64171164 2:0.070197614 3:0.83316019 
1 1:0.12169214 2:0.32336112 3:0.90516662 
1 1:0.41897904 2:0.95744965 3:0.49094956 
1 1:0.48653923 2:0.015708538 3:0.60700934 
1 1:0.64515063 2:0.28530609 3:0.93673102 
1 1:0.42196295 2:0.98513951 3:0.62352179 
1 1:0.46211388 2:0.93893681 3:0.31862366 
1 1:0.15969995 2:0.97462656 3:0.36910072 
1 1:0.8176103 2:0.9275729 3:0.26097996 
1 1:0.54377672 2:0.036740502 3:0.45817086 
1 1:0.93625027 2:0.21686478 3:0.81477564 
1 1:0.036472421 2:0.62708535 3:0.81814782 
1 1:0.48057756 2:0.70858571 3:0.089656956 
1 1:0.95701125 2:0.46012293 3:0.19034666 
1 1:0.70595313 2:0.062899101 3:0.34556779 
1 1:0.97392268 2:0.57629036 3:0.51484941 
1 1:0.7801743 2:0.81055561 3:0.082364472 
1 1:0.9637308 2:0.51093692 3:0.2810287 
1 1:0.65291606 2:0.021304471 3:0.68991828 
1 1:0.56606297 2:0.43804006 3:0.90030566 
1 1:0.95647132 2:0.39176842 3:0.32714328 
1 1:0.055243678 2:0.3862652 3:0.79936178 
1 1:0.41112957 2:0.70736583 3:0.97430721 
1 1:0.97244247 2:0.547592 3:0.1499251 
1 1:0.36426095 2:0.18432642 3:0.92627939 
1 1:0.59858606 2:0.30732157 3:0.097810479 
1 1:0.024221785 2:0.45515483 3:0.77905737 
1 1:0.75233676 2:0.34702333 3:0.099558831 
1 1:0.11888374 2:0.047860637 3:0.39120556 
1 1:0.94259237 2:0.6569208 3:0.5395258 
1 1:0.68578925 2:0.074433335 3:0.69124597 
1 1:0.59074318 2:0.84017831 3:0.94085205 
1 1:0.755484 2:0.54495816 3:0.016645386 
1 1:0.63149976 2:0.053881171 3:0.48022996 
1 1:0.49035958 2:0.71307388 3:0.95499365 
0.0248364660261256 1:0.031269015 2:0.74953394 3:0.19501024 
1 1:0.9355256 2:0.79945413 3:0.51782346 
1 1:0.037221193 2:0.16955779 3:0.57855139 
1 1:0.65875876 2:0.054669897 3:0.31031548 
1 1:0.52744559 2:0.42598324 3:0.0093479184 
0.9618046006174612 1:0.18331198 2:0.99808327 3:0.29458898 
1 1:0.042066725 2:0.25207255 3:0.44026358 
1 1:0.48022672 2:0.040212246 3:0.24377813 
1 1:0.019770963 2:0.6124523 3:0.49605449 
1 1:0.77646645 2:0.23097033 3:0.93464227 
1 1:0.38256456 2:0.58078149 3:0.084319173 
1 1:0.54807034 2:0.19294613 3:0.97827628 
1 1:0.18518726 2:0.071330201 3:0.49640157 
1 1:0.066623144 2:0.57528223 3:0.20663453 
1 1:0.58566148 2:0.76181011 3:0.076916312 
1 1:0.98391059 2:0.70922658 3:0.53187207 
1 1:0.99062303 2:0.26474827 3:0.52984135 
1 1:0.41679973 2:0.68794489 3:0.082654344 
1 1:0.83775477 2:0.0034130459 3:0.48020951 
1 1:0.92175239 2:0.94707491 3:0.59636838 
1 1:0.53082205 2:0.053383168 3:0.4361865 
1 1:0.22996899 2:0.78372592 3:0.09844473 
1 1:0.39813372 2:0.50157395 3:0.92612071 
1 1:0.19665125 2:0.027602284 3:0.54509118 
1 1:0.80417419 2:0.40758122 3:0.090611061 
1 1:0.3667287 2:0.075564672 3:0.80044098 
1 1:0.57892822 2:0.58351071 3:0.89592305 
1 1:0.61555472 2:0.88743638 3:0.076033005 
1 1:0.2998272 2:0.23560011 3:0.9203294 
1 1:0.75570541 2:0.76476593 3:0.90652887 
1 1:0.38019205 2:0.92797264 3:0.69684946 
1 1:0.92885345 2:0.87409524 3:0.57356451 
1 1:0.2787497 2:0.54487588 3:0.08564917 
1 1:0.96282672 2:0.53896225 3:0.73603589 
1 1:0.057800031 2:0.60551174 3:0.75851416 
1 1:0.10656967 2:0.93862631 3:0.43255649 
1 1:0.97030448 2:0.28662975 3:0.6395394 
1 1:0.27481398 2:0.4993266 3:0.091600662 
1 1:0.59182842 2:0.67475767 3:0.008030248 
1 1:0.93112462 2:0.78270136 3:0.37884636 
1 1:0.61147757 2:0.86638605 3:0.89710077 
1 1:0.69915278 2:0.035012427 3:0.74851322 
1 1:0.57273419 2:0.023528506 3:0.47557095 
1 1:0.37927462 2:0.98348446 3:0.54893233 
1 1:0.039882572 2:0.21536178 3:0.44894454 
1 1:0.64965026 2:0.69203756 3:0.99576349 
1 1:0.71565459 2:0.93583074 3:0.39306963 
1 1:0.025636543 2:0.2981955 3:0.69299931 
1 1:0.30381479 2:0.4073985 3:0.08995837 
1 1:0.95141171 2:0.59954195 3:0.68227199 
1 1:0.3263534 2:0.99855598 3:0.45873514 
1 1:0.99266209 2:0.71046125 3:0.32829067 
1 1:0.54617504 2:0.72035132 3:0.98759807 
1 1:0.96967753 2:0.60494989 3:0.735967 
1 1:0.53679574 2:0.34783796 3:0.90551212 
1 1:0.18392957 2:0.37198042 3:0.92596082 
1 1:0.44520826 2:0.96164323 3:0.44853994 
1 1:0.20607802 2:0.31701238 3:0.073182381 
1 1:0.62086807 2:0.63244602 3:0.021658972 
1 1:0.93891055 2:0.70660058 3:0.64832624 
1 1:0.37546173 2:0.22284798 3:0.94057243 
1 1:0.057227002 2:0.30784293 3:0.48721443 
1 1:0.00083966539 2:0.72812665 3:0.67713393 
1 1:0.94295812 2:0.55303522 3:0.30154213 
1 1:0.96816446 2:0.46597316 3:0.60605658 
1 1:0.21807701 2:0.69982329 3:0.90715724 
1 1:0.10771563 2:0.016054301 3:0.55106289 
1 1:0.74761997 2:0.5345064 3:0.0015708616 
1 1:0.9814195 2:0.77894003 3:0.57321277 
1 1:0.93630652 2:0.72251914 3:0.23883402 
1 1:0.96255621 2:0.64845264 3:0.25314898 
1 1:0.67441395 2:0.067199731 3:0.18621286 
1 1:0.59814235 2:0.56854867 3:0.069654033 
1 1:0.053157513 2:0.70540061 3:0.25902245 
1 1:0.021722716 2:0.82667771 3:0.37983746 
1 1:0.61785523 2:0.56042129 3:0.91137653 
1 1:0.61359127 2:0.72851098 3:0.0088343339 
1 1:0.036036361 2:0.56269034 3:0.5256924 
1 1:0.020531764 2:0.81163393 3:0.52419224 
1 1:0.26299211 2:0.47326057 3:0.061868089 
1 1:0.057616107 2:0.24918183 3:0.62604005 
1 1:0.22603206 2:0.33677054 3:0.086351343 
1 1:0.96863112 2:0.41103674 3:0.56687437 
1 1:0.4681364 2:0.94280897 3:0.55320445 
1 1:0.97717711 2:0.8857985 3:0.55731759 
1 1:0.57390785 2:0.93581241 3:0.41773765 
1 1:0.24716325 2:0.93054736 3:0.36401471 
1 1:0.43200501 2:0.64229401 3:0.91649011 
1 1:0.70503076 2:0.043822917 3:0.24493258 
1 1:0.36177061 2:0.53935029 3:0.081379901 
1 1:0.42388369 2:0.11282048 3:0.91000746 
1 1:0.45725181 2:0.46808014 3:0.93500655 
1 1:0.25124044 2:0.4234413 3:0.083000413 
1 1:0.010030557 2:0.28221278 3:0.49009008 
1 1:0.36199045 2:0.89500108 3:0.085545265 
1 1:0.60343294 2:0.4108313 3:0.067063937 
1 1:0.77029298 2:0.069615553 3:0.6035449 
1 1:0.056571471 2:0.4619724 3:0.27964505 
1 1:0.65489753 2:0.94611514 3:0.52194494 
1 1:0.66631466 2:0.98320045 3:0.69769381 
1 1:0.83269436 2:0.7281952 3:0.094855872 
1 1:0.53728231 2:0.26797911 3:0.90829332 
1 1:0.58647607 2:0.93925417 3:0.86263997 
1 1:0.21815151 2:0.060203373 3:0.68559826 
1 1:0.50933325 2:0.24689232 3:0.035782624 
1 1:0.60152713 2:0.031021754 3:0.19350596 
1 1:0.50281857 2:0.010697697 3:0.446509 
1 1:0.98118005 2:0.25805096 3:0.71235947 
1 1:0.81224442 2:0.0046497365 3:0.41830984 
1 1:0.40696798 2:0.23035187 3:0.043730633 
1 1:0.44758795 2:0.71252307 3:0.97905378 
1 1:0.50307513 2:0.048557182 3:0.52565573 
1 1:0.95585484 2:0.73486579 3:0.57154646 
1 1:0.051276156 2:0.79133823 3:0.68068885 
1 1:0.032103783 2:0.73311915 3:0.68034468 
1 1:0.73204767 2:0.58002467 3:0.099214287 
1 1:0.68793978 2:0.012661994 3:0.678665 
1 1:0.50556608 2:0.054458003 3:0.40987889 
1 1:0.058491065 2:0.80349054 3:0.37446066 
1 1:0.280849 2:0.34454325 3:0.90917539 
1 1:0.30570491 2:0.75391711 3:0.90363074 
1 1:0.065417462 2:0.56888133 3:0.21902914 
1 1:0.33765048 2:0.032739787 3:0.52269923 
1 1:0.46609788 2:0.96675114 3:0.61521368 
1 1:0.3368976 2:0.51095187 3:0.89947785 
1 1:0.3122741 2:0.73756868 3:0.92761055 
1 1:0.80207129 2:0.3759786 3:0.071205278 
1 1:0.43007126 2:0.48945232 3:0.91147829 
1 1:0.59305361 2:0.80086911 3:0.97125289 
1 1:0.68595278 2:0.96930435 3:0.50960995 
1 1:0.072684848 2:0.36458806 3:0.57430377 
1 1:0.83277549 2:0.98992291 3:0.50149907 
1 1:0.90844903 2:0.9310654 3:0.64517298 
1 1:0.98453511 2:0.54862542 3:0.29496076 
1 1:0.43557623 2:0.066167285 3:0.71236136 
1 1:0.49920944 2:0.66071365 3:0.90868928 
1 1:0.59009906 2:0.41206053 3:0.89482915 
1 1:0.98805808 2:0.76280926 3:0.63184509 
1 1:0.93340371 2:0.51677627 3:0.40815593 
1 1:0.043415283 2:0.58995929 3:0.44624358 
1 1:0.81413918 2:0.63292518 3:0.097989057 
1 1:0.61242659 2:0.00015396269 3:0.61451226 
1 1:0.39205531 2:0.94572214 3:0.54022541 
1 1:0.68820624 2:0.68100768 3:0.94347614 
1 1:0.25001437 2:0.26787948 3:0.070089302 
1 1:0.78470365 2:0.98876618 3:0.59532457 
1 1:0.13275189 2:0.66353845 3:0.91531817 
1 1:0.026516233 2:0.35714816 3:0.24666079 
1 1:0.84052041 2:0.036881282 3:0.58461515 
1 1:0.051988188 2:0.45726705 3:0.59871903 
1 1:0.65063414 2:0.3567734 3:0.94066663 
1 1:0.0018791396 2:0.46954046 3:0.60289913 
1 1:0.94089284 2:0.67400603 3:0.58940559 
1 1:0.33243839 2:0.62197821 3:0.89597787 
1 1:0.64366703 2:0.19558266 3:0.91918572 
1 1:0.037228139 2:0.70069554 3:0.42693987 
1 1:0.30870098 2:0.037879094 3:0.81450688 
1 1:0.10629816 2:0.069136441 3:0.3325409 
1 1:0.33890637 2:0.35522914 3:0.9588524 
1 1:0.69298579 2:0.99902926 3:0.61657993 
1 1:0.9617609 2:0.71348407 3:0.68458488 
1 1:0.92462088 2:0.55346085 3:0.32058481 
1 1:0.88709353 2:0.074372236 3:0.31323835 
1 1:0.31497557 2:0.67295012 3:0.045326275 
1 1:0.56146903 2:0.95602486 3:0.84020354 
1 1:0.83608217 2:0.46857045 3:0.071858259 
1 1:0.5848036 2:0.050672849 3:0.24662149 
1 1:0.27962971 2:0.64410065 3:0.061494646 
1 1:0.061141219 2:0.93905013 3:0.53819046 
1 1:0.70669611 2:0.95570272 3:0.56154729 
1 1:0.57806837 2:0.6091312 3:0.95226493 
1 1:0.0044723186 2:0.63660291 3:0.58032088 
1 1:0.0070383409 2:0.74920577 3:0.47093236 
1 1:0.29508052 2:0.20834371 3:0.94133535 
1 1:0.21973171 2:0.94422784 3:0.69771832 
1 1:0.37359899 2:0.93428994 3:0.70221997 
1 1:0.55276882 2:0.39545372 3:0.10432276 
1 1:0.33085176 2:0.54965006 3:0.013701234 
1 1:0.22005075 2:0.65967018 3:0.95647692 
1 1:0.061329766 2:0.62203108 3:0.86033057 
1 1:0.46197818 2:0.96521646 3:0.82870515 
1 1:0.96785289 2:0.52805923 3:0.62255511 
1 1:0.57054476 2:0.53419265 3:0.93022591 
1 1:0.64159438 2:0.53540805 3:0.059865984 
1 1:0.66287323 2:0.0094616497 3:0.61993675 
1 1:0.94711564 2:0.40341299 3:0.81809703 
1 1:0.062158525 2:0.21985309 3:0.30871459 
1 1:0.55008369 2:0.95982344 3:0.69666917 
1 1:0.60700359 2:0.89267026 3:0.070133121 
1 1:0.96638976 2:0.7184195 3:0.18640332 
1 1:0.74738353 2:0.0079834379 3:0.36098922 
1 1:0.33852615 2:0.33587506 3:0.0026296188 
1 1:0.86051279 2:0.38985694 3:0.91736662 
1 1:0.94417636 2:0.19544693 3:0.53288763 
1 1:0.055636337 2:0.54772744 3:0.18418493 
1 1:0.062634204 2:0.70428407 3:0.55009448 
1 1:0.072036032 2:0.50937295 3:0.75015886 
1 1:0.56017077 2:0.28080725 3:0.04044425 
1 1:0.55550276 2:0.49442574 3:0.9705189 
1 1:0.074098102 2:0.39733439 3:0.44802762 
1 1:0.639804 2:0.2426333 3:0.076487937 
1 1:0.96327621 2:0.72846909 3:0.56445263 
1 1:0.70570095 2:0.50345798 3:0.033552778 
1 1:0.031525068 2:0.68573619 3:0.37590814 
1 1:0.40188158 2:0.58436126 3:0.073602722 
1 1:0.96119313 2:0.78807613 3:0.76459788 
1 1:0.45804843 2:0.94204254 3:0.7930585 
1 1:0.77978352 2:0.24931386 3:0.082553049 
1 1:0.0023305747 2:0.52820059 3:0.40339133 
1 1:0.28507873 2:0.29107876 3:0.95507081 
1 1:0.45832017 2:0.03494901 3:0.32344563 
1 1:0.067823637 2:0.54958956 3:0.46551579 
1 1:0.85400551 2:0.063570293 3:0.51440454 
1 1:0.57988583 2:0.49884705 3:0.020928065 
1 1:0.56890106 2:0.21082158 3:0.062566154 
1 1:0.46975414 2:0.16262916 3:0.06707489 
1 1:0.4612082 2:0.96530961 3:0.26012883 
1 1:0.56505602 2:0.053513954 3:0.68562528 
1 1:0.42748245 2:0.46053586 3:0.094360816 
1 1:0.79592157 2:0.97604441 3:0.60286543 
1 1:0.46177263 2:0.0056181763 3:0.7459975 
1 1:0.48358024 2:0.029268008 3:0.80528733 
1 1:0.80952044 2:0.62510677 3:0.041846822 
1 1:0.071030819 2:0.41040279 3:0.29986683 
1 1:0.54990561 2:0.77702528 3:0.97335362 
1 1:0.97779878 2:0.21785593 3:0.55478518 
1 1:0.53880578 2:0.3037533 3:0.0084748565 
1 1:0.93790496 2:0.22053715 3:0.81220787 
1 1:0.94485371 2:0.87942373 3:0.4864393 
1 1:0.39799404 2:0.038129539 3:0.44260993 
1 1:0.0035258005 2:0.38025456 3:0.73167715 
1 1:0.14539778 2:0.56724775 3:0.91835372 
1 1:0.93378039 2:0.32874516 3:0.40196714 
1 1:0.23073722 2:0.40165763 3:0.91317836 
1 1:0.61195582 2:0.64734984 3:0.8953569 
1 1:0.2925615 2:0.51845216 3:0.91724332 
1 1:0.072863362 2:0.14232497 3:0.65988692 
1 1:0.5116997 2:0.27925866 3:0.10035416 
1 1:0.53558271 2:0.62070701 3:0.054888273 
1 1:0.17586188 2:0.63832246 3:0.054609869 
1 1:0.44192745 2:0.59246795 3:0.98163085 
1 1:0.97896024 2:0.30050195 3:0.42422769 
1 1:0.94198137 2:0.85789984 3:0.66668156 
1 1:0.92137416 2:0.052542441 3:0.44249909 
1 1:0.027689283 2:0.17841033 3:0.44451421 
1 1:0.5253108 2:0.34338031 3:0.094528844 
1 1:0.21955112 2:0.6980746 3:0.084334302 
1 1:0.96113539 2:0.73366872 3:0.68813212 
1 1:0.69435315 2:0.32900238 3:0.93395979 
1 1:0.54174382 2:0.94773737 3:0.1201555 
1 1:0.4648682 2:0.030678522 3:0.20395488 
1 1:0.01109242 2:0.15857385 3:0.42983193 
1 1:0.92868697 2:0.30298982 3:0.17403415 
1 1:0.23415334 2:0.44212366 3:0.97163429 
1 1:0.38868555 2:0.062011659 3:0.85425071 
1 1:0.038971165 2:0.50551136 3:0.38578131 
1 1:0.4210786 2:0.073350843 3:0.48229557 
1 1:0.29480153 2:0.28084315 3:0.93730146 
1 1:0.41668727 2:0.95587171 3:0.61490864 
1 1:0.58970739 2:0.67817832 3:0.00038011078 
1 1:0.46687949 2:0.44468088 3:0.99554718 
1 1:0.9850595 2:0.42651955 3:0.67221052 
1 1:0.50097338 2:0.034918345 3:0.70267164 
1 1:0.88664727 2:0.04267464 3:0.61273354 
1 1:0.33453691 2:0.6955745 3:0.90531908 
1 1:0.74702526 2:0.25451008 3:0.07612058 
1 1:0.19216736 2:0.068791384 3:0.35631638 
1 1:0.53446912 2:0.97572623 3:0.73600897 
1 1:0.99351396 2:0.36044538 3:0.47057884 
1 1:0.8278546 2:0.55883223 3:0.09992146 
1 1:0.52571669 2:0.36941418 3:0.9617437 
1 1:0.075371526 2:0.35465537 3:0.26554872 
1 1:0.23613482 2:0.95588413 3:0.60548608 
1 1:0.022472178 2:0.57855427 3:0.84320673 
1 1:0.37984901 2:0.95239695 3:0.67178941 
1 1:0.57869953 2:0.69884523 3:0.08165301 
1 1:0.36327508 2:0.050944701 3:0.65037126 
1 1:0.98774591 2:0.31891771 3:0.25598748 
1 1:0.94341967 2:0.64671662 3:0.35503531 
1 1:0.51050405 2:0.12810342 3:0.89572694 
1 1:0.53091841 2:0.14485866 3:0.096286303 
1 1:0.71804564 2:0.025425164 3:0.64995972 
1 1:0.22425456 2:0.38787968 3:0.95626613 
1 1:0.19374434 2:0.95568048 3:0.63577346 
1 1:0.54951682 2:0.8061302 3:0.026938498 
1 1:0.95040177 2:0.2016828 3:0.46511609 
1 1:0.0032410104 2:0.35595918 3:0.47071245 
1 1:0.49439395 2:0.57296111 3:0.071313333 
1 1:0.25878791 2:0.062039898 3:0.75234423 
1 1:0.63556659 2:0.70046002 3:0.075401462 
1 1:0.6950409 2:0.96868746 3:0.46805557 
1 1:0.6069344 2:0.3815981 3:0.030772676 
1 1:0.55376324 2:0.7946652 3:0.94479075 
1 1:0.29098788 2:0.031775472 3:0.81085447 
1 1:0.58270876 2:0.47393942 3:0.083346032 
1 1:0.033538489 2:0.25798455 3:0.62103138 
1 1:0.47965299 2:0.044356817 3:0.25920701 
1 1:0.92845025 2:0.093783088 3:0.47346108 
1 1:0.67581487 2:0.17255231 3:0.083775055 
1 1:0.44693722 2:0.013007277 3:0.18787882 
1 1:0.23508718 2:0.53730341 3:0.04906371 
1 1:0.19704971 2:0.069657445 3:0.40754829 
1 1:0.35726019 2:0.2654695 3:0.021124829 
1 1:0.34060538 2:0.27711068 3:0.055693696 
1 1:0.97299971 2:0.17440859 3:0.329945 
1 1:0.48774646 2:0.5119303 3:0.00032813261 
1 1:0.5754168 2:0.15428522 3:0.093401777 
1 1:0.060890591 2:0.67408946 3:0.5119197 
1 1:0.12195836 2:0.52315648 3:0.05821465 
1 1:0.38430771 2:0.26148905 3:0.0054234739 
1 1:0.45475239 2:0.66605712 3:0.97369125 
1 1:0.99751633 2:0.70499421 3:0.6430841 
1 1:0.97455666 2:0.68954433 3:0.44796861 
1 1:0.47658504 2:0.37468115 3:0.90122014 
1 1:0.10751584 2:0.97428799 3:0.46318568 
1 1:0.80262236 2:0.071715203 3:0.2158694 
1 1:0.56423408 2:0.22896375 3:0.93697874 
1 1:0.71095511 2:0.96397502 3:0.68467921 
1 1:0.74493729 2:0.41381475 3:0.10223079 
1 1:0.92757952 2:0.85460084 3:0.73268553 
1 1:0.99405567 2:0.70786948 3:0.47087353 
1 1:0.60583784 2:0.4771016 3:0.9034966 
1 1:0.69457102 2:0.98782741 3:0.56912837 
1 1:0.29224877 2:0.061539423 3:0.67519599 
1 1:0.8644558 2:0.059388822 3:0.38298132 
1 1:0.96367271 2:0.73643888 3:0.21541057 
1 1:0.52352185 2:0.2204783 3:0.086698514 
1 1:0.87021633 2:0.55716669 3:0.062529845 
1 1:0.53832121 2:0.49818981 3:0.9269329 
1 1:0.73997191 2:0.6857041 3:0.046334956 
1 1:0.070344085 2:0.15999364 3:0.39460204 
1 1:0.86015287 2:0.014410769 3:0.57711678 
1 1:0.94987836 2:0.57777887 3:0.8323739 
1 1:0.990501 2:0.75837448 3:0.53798837 
1 1:0.95147653 2:0.56067935 3:0.78871046 
1 1:0.23535587 2:0.070507245 3:0.2212288 
1 1:0.045945594 2:0.8839065 3:0.52227385 
1 1:0.95454665 2:0.17919139 3:0.26699822 
1 1:0.48707317 2:0.62598933 3:0.074968144 
1 1:0.57034846 2:0.92843096 3:0.39562957 
1 1:0.055624199 2:0.39717725 3:0.6007783 
1 1:0.01004504 2:0.62235798 3:0.5678461 
1 1:0.76010518 2:0.070287958 3:0.4048571 
1 1:0.033617414 2:0.58775895 3:0.13394333 
1 1:0.052417596 2:0.91386586 3:0.35798595 
1 1:0.50136932 2:0.15694839 3:0.92996578 
1 1:0.38310004 2:0.34750593 3:0.99480947 
1 1:0.020053755 2:0.21763973 3:0.50910446 
1 1:0.30345529 2:0.072582062 3:0.48507694 
1 1:0.9610067 2:0.24004707 3:0.79710413 
1 1:0.68515804 2:0.39961612 3:0.90979848 
1 1:0.028526861 2:0.31992096 3:0.28131389 
1 1:0.04606328 2:0.16240659 3:0.62481879 
1 1:0.42804087 2:0.4371385 3:0.93409285 
1 1:0.89934301 2:0.97186829 3:0.39015102 
1 1:0.50676943 2:0.018692044 3:0.32975621 
1 1:0.65101186 2:0.75015756 3:0.059500209 
1 1:0.40182628 2:0.95857793 3:0.12473921 
1 1:0.064907867 2:0.62472496 3:0.41267367 
1 1:0.58890498 2:0.62477442 3:0.032836949 
1 1:0.1806976 2:0.01981014 3:0.49885757 
1 1:0.23770479 2:0.0092362124 3:0.70370456 
1 1:0.040279468 2:0.68285932 3:0.21086357 
1 1:0.058232231 2:0.86678003 3:0.68777059 
1 1:0.69761834 2:0.94739395 3:0.53871649 
1 1:0.38818391 2:0.7831119 3:0.94068941 
1 1:0.059069884 2:0.32536536 3:0.37059561 
1 1:0.37099159 2:0.18648806 3:0.94582519 
1 1:0.25110101 2:0.010561086 3:0.70384857 
1 1:0.16954798 2:0.94583074 3:0.58507303 
1 1:0.53086467 2:0.045272047 3:0.37604675 
1 1:0.83112324 2:0.26066478 3:0.9186331 
1 1:0.99098861 2:0.50148318 3:0.5927157 
1 1:0.33484966 2:0.81885649 3:0.89572458 
1 1:0.45920272 2:0.24568455 3:0.90402932 
1 1:0.74763862 2:0.48707539 3:0.96479022 
1 1:0.36802823 2:0.69678911 3:0.89729997 
1 1:0.03466729 2:0.26170225 3:0.69372213 
1 1:0.022781967 2:0.22660023 3:0.66614235 
1 1:0.63068573 2:0.94067305 3:0.52835831 
1 1:0.36592669 2:0.38271546 3:0.95161999 
1 1:0.96927121 2:0.31065287 3:0.21325967 
1 1:0.93700184 2:0.36146697 3:0.86935552 
1 1:0.69451367 2:0.49557657 3:0.91618476 
1 1:0.55872596 2:0.78184397 3:0.044660194 
1 1:0.52771395 2:0.62767531 3:0.96214892 
1 1:0.85985357 2:0.5080151 3:0.048842106 
1 1:0.041139295 2:0.70394928 3:0.31046076 
1 1:0.5355941 2:0.86753441 3:0.096466661 
1 1:0.98705821 2:0.38386984 3:0.2808991 
1 1:0.10396933 2:0.46414959 3:0.096783766 
1 1:0.3640425 2:0.054548335 3:0.16854335 
1 1:0.55186654 2:0.99816242 3:0.75877391 
1 1:0.041539619 2:0.83665533 3:0.62456998 
1 1:0.514573 2:0.024931671 3:0.67547475 
1 1:0.16696825 2:0.039392817 3:0.3166765 
1 1:0.31380994 2:0.3441228 3:0.96457563 
1 1:0.53434551 2:0.29975449 3:0.99077415 
1 1:0.62971955 2:0.76461091 3:0.036119725 
1 1:0.9419182 2:0.38098176 3:0.81117525 
1 1:0.3087775 2:0.93341315 3:0.56381755 
1 1:0.65932206 2:0.018188729 3:0.51857186 
1 1:0.055027978 2:0.69164186 3:0.18235138 
1 1:0.38623707 2:0.45391719 3:0.089280736 
1 1:0.22832498 2:0.43853192 3:0.061120055 
1 1:0.75183349 2:1 3:0.30383108 
1 1:0.060106241 2:0.50901886 3:0.51201038 
1 1:0.73841949 2:0.58750768 3:0.045054372 
1 1:0.70061027 2:0.96326336 3:0.72287261 
1 1:0.98194745 2:0.3987421 3:0.16405453 
1 1:0.37706528 2:0.51546559 3:0.97002592 
1 1:0.60375994 2:0.53079215 3:0.92860772 
1 1:0.012312998 2:0.69435846 3:0.28107259 
1 1:0.93231456 2:0.11263217 3:0.33226207 
1 1:0.33360727 2:0.81060178 3:0.049720898 
1 1:0.069593634 2:0.92539672 3:0.35961205 
1 1:0.9538745 2:0.56535081 3:0.86927028 
1 1:0.045721204 2:0.12505648 3:0.52966256 
1 1:0.94651162 2:0.26182933 3:0.25941865 
1 1:0.93048142 2:0.49159691 3:0.31949068 
1 1:0.073631254 2:0.95980002 3:0.49366763 
1 1:0.016883996 2:0.57681894 3:0.35027787 
1 1:0.48348321 2:0.3559821 3:0.038863221 
1 1:0.18505628 2:0.96688053 3:0.45275456 
1 1:0.030197902 2:0.7410686 3:0.29696661 
1 1:0.73502219 2:0.035246898 3:0.57656762 
1 1:0.52743337 2:0.25512926 3:0.080784522 
1 1:0.60479289 2:0.27769904 3:0.032877749 
1 1:0.31222216 2:0.73370508 3:0.026262527 
1 1:0.52371384 2:0.27618172 3:0.078851213 
1 1:0.95099962 2:0.33925097 3:0.75631439 
1 1:0.72271484 2:0.21506278 3:0.92985338 
1 1:0.20531592 2:0.61539973 3:0.075289602 
1 1:0.99519748 2:0.33784739 3:0.37665663 
1 1:0.0014920388 2:0.28049883 3:0.52570556 
1 1:0.26979093 2:0.019905788 3:0.53573097 
1 1:0.92724158 2:0.50713431 3:0.72544393 
1 1:0.50839285 2:0.67502767 3:0.8989503 
1 1:0.97430582 2:0.59414673 3:0.83906907 
1 1:0.94510532 2:0.77176359 3:0.21527604 
1 1:0.96277378 2:0.65636632 3:0.82573787 
1 1:0.008611576 2:0.39350762 3:0.53666654 
1 1:0.071209476 2:0.50743522 3:0.13239115 
1 1:0.96342595 2:0.52945405 3:0.29931866 
1 1:0.56096543 2:0.95719945 3:0.43744255 
1 1:0.67240024 2:0.82763143 3:0.061135694 
1 1:0.82906593 2:0.96216241 3:0.54119367 
1 1:0.94902235 2:0.48367518 3:0.22359132 
1 1:0.15655811 2:0.29595269 3:0.91039326 
1 1:0.69503982 2:0.69956814 3:0.91242398 
1 1:0.47369792 2:0.56222083 3:0.91162808 
1 1:0.6372632 2:0.57645718 3:0.95807394 
1 1:0.15096195 2:0.068226327 3:0.54487028 
1 1:0.066123757 2:0.54880779 3:0.72857425 
1 1:0.19962631 2:0.58609488 3:0.019860481 
1 1:0.54403396 2:0.12657269 3:0.93017577 
1 1:0.43455608 2:0.97490825 3:0.41896275 
1 1:0.64745367 2:0.0755731 3:0.76726292 
1 1:0.68373843 2:0.92731425 3:0.40103467 
1 1:0.56169562 2:0.57206051 3:0.065948272 
1 1:0.52166146 2:0.07144639 3:0.48975135 
1 1:0.93166155 2:0.69271681 3:0.37029273 
1 1:0.59714519 2:0.86194995 3:0.08999676 
1 1:0.39282096 2:0.96261812 3:0.73930565 
1 1:0.59447621 2:0.22450495 3:0.03348444 
1 1:0.53727394 2:0.063327082 3:0.36282478 
1 1:0.55541307 2:0.98410185 3:0.37173699 
1 1:0.44385644 2:0.4459618 3:0.96410454 
1 1:0.5691073 2:0.020479192 3:0.39662482 
1 1:0.93895183 2:0.27334546 3:0.53000699 
1 1:0.92407587 2:0.58531093 3:0.61831712 
1 1:0.22731386 2:0.80398639 3:0.080854514 
1 1:0.37370345 2:0.31571344 3:0.096569526 
1 1:0.89775157 2:0.049173367 3:0.57268011 
1 1:0.65107955 2:0.36127316 3:0.0070262013 
1 1:0.13212368 2:0.99795937 3:0.57159347 
1 1:0.63409734 2:0.70712778 3:0.99494173 
1 1:0.37445106 2:0.98424897 3:0.42332053 
1 1:0.31150906 2:0.056612652 3:0.34165613 
1 1:0.92813857 2:0.37688227 3:0.34357311 
1 1:0.69436103 2:0.9459308 3:0.32289512 
1 1:0.79085277 2:0.95048485 3:0.76668418 
1 1:0.99052827 2:0.65495485 3:0.73517467 
1 1:0.60040568 2:0.68158431 3:0.90154734 
1 1:0.54551138 2:0.31110097 3:0.95969375 
1 1:0.61181023 2:0.76220985 3:0.91717583 
1 1:0.552857 2:0.071587529 3:0.24971598 
1 1:0.79472556 2:0.36114861 3:0.8958857 
1 1:0.55997276 2:0.27821329 3:0.99019598 
1 1:0.25656556 2:0.71585778 3:0.94646676 
1 1:0.54909412 2:0.05946656 3:0.88985387 
1 1:0.9654156 2:0.7995825 3:0.40710133 
1 1:0.05163675 2:0.30080727 3:0.42777726 
1 1:0.030475864 2:0.81275189 3:0.29643431 
1 1:0.65238325 2:0.05456723 3:0.4909677 
1 1:0.50812545 2:0.64310581 3:0.006364322 
1 1:0.7749661 2:0.98360142 3:0.73670418 
1 1:0.29255265 2:0.75689725 3:0.050585194 
1 1:0.42801225 2:0.5107927 3:0.053237973 
1 1:0.66352416 2:0.75641528 3:0.042576306 
1 1:0.87109883 2:0.48530474 3:0.085425779 
1 1:0.6189003 2:0.71985555 3:0.087261018 
1 1:0.93266495 2:0.60329604 3:0.60010224 
1 1:0.7221355 2:0.9727417 3:0.75655 
1 1:0.93983739 2:0.33571217 3:0.55926355 
1 1:0.43685215 2:0.0086509058 3:0.68102607 
1 1:0.3996635 2:0.95835765 3:0.80272003 
1 1:0.030942617 2:0.84010461 3:0.49778844 
1 1:0.057891221 2:0.10610039 3:0.36742894 
1 1:0.79108062 2:0.96486888 3:0.68606565 
1 1:0.020605546 2:0.39108395 3:0.35093265 
1 1:0.55176244 2:0.73452746 3:0.94411287 
1 1:0.68769096 2:0.2007198 3:0.94803848 
1 1:0.44698173 2:0.071529515 3:0.45535155 
1 1:0.44618082 2:0.040637978 3:0.65327956 
1 1:0.63409895 2:0.0067347812 3:0.68178712 
1 1:0.061559173 2:0.41988321 3:0.4317585 
1 1:0.97483804 2:0.52794826 3:0.66123439 
1 1:0.047741938 2:0.22086521 3:0.69659719 
1 1:0.047348487 2:0.7830291 3:0.55146628 
1 1:0.051753077 2:0.095916152 3:0.54173308 
1 1:0.49319446 2:0.94368582 3:0.1175965 
1 1:0.53271084 2:0.97228398 3:0.48707175 
1 1:0.98673438 2:0.49377434 3:0.73706662 
1 1:0.95346348 2:0.26089523 3:0.41780715 
1 1:0.063814347 2:0.60845557 3:0.45892859 
1 1:0.96495944 2:0.6793372 3:0.21521284 
1 1:0.28868064 2:0.94470092 3:0.60278418 
1 1:0.55935271 2:0.069328417 3:0.72068675 
1 1:0.21757572 2:0.60208373 3:0.96817639 
1 1:0.84374921 2:0.4978648 3:0.8993449 
1 1:0.63126166 2:0.6786725 3:0.040525776 
1 1:0.78207849 2:0.75493935 3:0.075610905 
1 1:0.83030732 2:0.041758528 3:0.6341183 
1 1:0.37836885 2:0.93966092 3:0.21592502 
1 1:0.03006544 2:0.87421195 3:0.4317617 
1 1:0.60967435 2:0.5403367 3:0.91321938 
1 1:0.99876855 2:0.57618769 3:0.22260078 
1 1:0.98713641 2:0.13251523 3:0.53121545 
1 1:0.3542091 2:0.32094121 3:0.94293434 
1 1:0.18471198 2:0.5088672 3:0.021270557 
1 1:0.45920881 2:0.47604696 3:0.99073945 
1 1:0.49803116 2:0.028162388 3:0.82016117 
1 1:0.84468137 2:0.51927957 3:0.071560417 
1 1:0.30171934 2:0.25763587 3:0.9176693 
1 1:0.99445348 2:0.13415364 3:0.5092757 
1 1:0.72244889 2:0.35744504 3:0.94841905 
1 1:0.52393711 2:0.20973939 3:0.063507015 
1 1:0.6671421 2:0.73268146 3:0.056810132 
1 1:0.70695073 2:0.075200551 3:0.32435196 
1 1:0.62222592 2:0.069638867 3:0.46133428 
1 1:0.80395189 2:0.60425421 3:0.96101175 
1 1:0.53766393 2:0.069464097 3:0.79496262 
1 1:0.60411492 2:0.37139022 3:0.043939658 
1 1:0.371922 2:0.053395806 3:0.20284115 
1 1:0.4832115 2:0.037872421 3:0.30939779 
1 1:0.81276678 2:0.64678136 3:0.076281926 
1 1:0.94222736 2:0.70478124 3:0.65630029 
1 1:0.29783122 2:0.98178306 3:0.62768632 
1 1:0.84055458 2:0.50878881 3:0.92650226 
1 1:0.039535964 2:0.69886833 3:0.73771043 
1 1:0.4611864 2:0.0035692635 3:0.4552585 
1 1:0.22708543 2:0.64200805 3:0.94894072 
1 1:0.79780391 2:0.97444171 3:0.24557586 
1 1:0.64407763 2:0.35364585 3:0.91533171 
1 1:0.044763354 2:0.54062376 3:0.2145904 
1 1:0.69551215 2:0.63489407 3:0.99265614 
1 1:0.67660332 2:0.27452815 3:0.8968448 
1 1:0.21376671 2:0.58675128 3:0.033307589 
1 1:0.031112265 2:0.70507051 3:0.75220035 
1 1:0.43454485 2:0.010063623 3:0.67590976 
1 1:0.38182396 2:0.061273076 3:0.30699343 
1 1:0.65100023 2:0.75601704 3:0.92321356 
1 1:0.57805161 2:0.063230408 3:0.83722222 
1 1:0.92483141 2:0.19118723 3:0.37783226 
1 1:0.9332601 2:0.51218971 3:0.71249995 
1 1:0.4449037 2:0.28098938 3:0.96248334 
1 1:0.64670686 2:0.076191936 3:0.12816617 
1 1:0.35976393 2:0.36833346 3:0.90849878 
0.6462259753083834 1:0.17435886 2:0.98054804 3:0.70521008 
1 1:0.56571237 2:0.049093582 3:0.52455274 
1 1:0.93551017 2:0.88920718 3:0.29393188 
1 1:0.92810182 2:0.50412681 3:0.20133981 
1 1:0.5418875 2:0.24503938 3:0.098744985 
1 1:0.001598864 2:0.56001342 3:0.80073272 
1 1:0.95004209 2:0.3392389 3:0.79522554 
1 1:0.34188094 2:0.29337687 3:0.045597112 
1 1:0.40953549 2:0.36490442 3:0.97648807 
1 1:0.63455801 2:0.93104191 3:0.36754237 
1 1:0.072667871 2:0.42070812 3:0.3848752 
1 1:0.64345148 2:0.99149728 3:0.28207857 
1 1:0.12838014 2:0.97926301 3:0.48209088 
1 1:0.99173705 2:0.50727886 3:0.28306534 
1 1:0.97784944 2:0.43962717 3:0.33919672 
1 1:0.26032474 2:0.0073228378 3:0.54089281 
1 1:0.13581554 2:0.94194448 3:0.3889021 
1 1:0.017648889 2:0.67318578 3:0.27648158 
1 1:0.64213604 2:0.93359178 3:0.21649392 
1 1:0.82370902 2:0.38726419 3:0.91861302 
1 1:0.34374698 2:0.35854739 3:0.97600519 
1 1:0.50915705 2:0.94787011 3:0.7622554 
1 1:0.071715371 2:0.128848 3:0.70079565 
1 1:0.64825466 2:0.58203876 3:0.035699313 
1 1:0.64485419 2:0.57422737 3:0.89482876 
1 1:0.97141596 2:0.33701403 3:0.29847252 
1 1:0.94097462 2:0.61991923 3:0.87703613 
1 1:0.56179974 2:0.96941142 3:0.77271504 
1 1:0.021179781 2:0.35375275 3:0.36322968 
1 1:0.56665171 2:0.038441812 3:0.65959248 
1 1:0.52166828 2:0.067250334 3:0.3814605 
1 1:0.031110348 2:0.53112229 3:0.59998322 
1 1:0.077777349 2:0.074196825 3:0.36298481 
1 1:0.36686832 2:0.70540679 3:0.90700293 
1 1:0.49555664 2:0.6928693 3:0.8968671 
1 1:0.69793278 2:0.23935267 3:0.9242405 
1 1:0.59783671 2:0.74397174 3:0.075320138 
1 1:0.33388369 2:0.043085748 3:0.51177443 
1 1:0.84118135 2:0.047766475 3:0.62449626 
1 1:0.23016636 2:0.62154956 3:0.070700964 
1 1:0.17018986 2:0.99415775 3:0.53889526 
1 1:0.074351887 2:0.53243699 3:0.60478622 
1 1:0.54149919 2:0.039664214 3:0.86643442 
1 1:0.47371408 2:0.018490976 3:0.18072441 
1 1:0.013128381 2:0.41613414 3:0.50969234 
1 1:0.21837796 2:0.95909587 3:0.42030461 
1 1:0.205913 2:0.44873549 3:0.91114954 
1 1:0.076487673 2:0.21666271 3:0.24739601 
1 1:0.14126281 2:0.64949499 3:0.070778925 
1 1:0.65550225 2:0.34644147 3:0.10062257 
1 1:0.70091856 2:0.96605585 3:0.5388119 
1 1:0.36865869 2:0.29598682 3:0.97389903 
1 1:0.21361932 2:0.96996589 3:0.41046779 
1 1:0.13571121 2:0.050024559 3:0.60548643 
1 1:0.5412363 2:0.044788795 3:0.34417743 
1 1:0.93784565 2:0.5479796 3:0.55058146 
1 1:0.55203099 2:0.99824427 3:0.36935036 
1 1:0.35937706 2:0.68185498 3:0.068947239 
1 1:0.029048623 2:0.42151441 3:0.17908102 
1 1:0.049558122 2:0.76407049 3:0.70953934 
1 1:0.73464597 2:0.97511764 3:0.68849441 
1 1:0.3105015 2:0.24589924 3:0.95125007 
1 1:0.42585838 2:0.21609303 3:0.060647755 
1 1:0.82281639 2:0.58931022 3:0.89773681 
1 1:0.85127428 2:0.40351662 3:0.057606087 
1 1:0.052308779 2:0.43801389 3:0.19868368 
1 1:0.60572869 2:0.92616238 3:0.51225257 
1 1:0.98985936 2:0.25018066 3:0.6169678 
1 1:0.92411856 2:0.678039 3:0.17118109 
1 1:0.37017534 2:0.97298067 3:0.7977011 
1 1:0.81402454 2:0.02973379 3:0.36193374 
1 1:0.94741829 2:0.69748162 3:0.25207323 
1 1:0.63482461 2:0.037884828 3:0.3629934 
1 1:0.77341442 2:0.23507866 3:0.91370724 
1 1:0.67380471 2:0.98076404 3:0.26109442 
1 1:0.51622835 2:0.23121636 3:0.069824152 
1 1:0.3123256 2:0.050692973 3:0.33705156 
1 1:0.032744784 2:0.35309851 3:0.27678551 
1 1:0.58504356 2:0.96245212 3:0.43335813 
1 1:0.2194432 2:0.23852469 3:0.90380222 
1 1:0.40568315 2:0.29019441 3:0.99452918 
1 1:0.35922797 2:0.81635104 3:0.1035307 
1 1:0.96823364 2:0.69178723 3:0.31943767 
1 1:0.40184595 2:0.58827966 3:0.90004407 
1 1:0.032874282 2:0.61921991 3:0.22005403 
1 1:0.53821988 2:0.050949958 3:0.40911629 
1 1:0.36602942 2:0.58595982 3:0.074934597 
1 1:0.17509038 2:0.072026932 3:0.38805344 
1 1:0.36896742 2:0.24789049 3:0.029841216 
1 1:0.67420921 2:0.071226105 3:0.56376919 
1 1:0.46339902 2:0.49610288 3:0.099028725 
1 1:0.25166878 2:0.92738849 3:0.62507115 
1 1:0.40883301 2:0.98941973 3:0.78065777 
1 1:0.47612636 2:0.71147498 3:0.081979846 
1 1:0.75353054 2:0.29810786 3:0.97045146 
1 1:0.79221828 2:0.027220565 3:0.40747836 
1 1:0.9231357 2:0.96137614 3:0.47955307 
1 1:0.93064531 2:0.19288607 3:0.63360354 
1 1:0.48972195 2:0.75491199 3:0.042681934 
1 1:0.42230741 2:0.75490232 3:0.054816111 
1 1:0.27005632 2:0.26491614 3:0.95284207 
1 1:0.61387103 2:0.99855237 3:0.65898632 
1 1:0.9097247 2:0.0767161 3:0.60467992 
1 1:0.1112165 2:0.96746199 3:0.56546026 
1 1:0.96177934 2:0.44997762 3:0.28141043 
1 1:0.46919147 2:0.067330092 3:0.60054064 
1 1:0.64534161 2:0.32585641 3:0.066666766 
1 1:0.27735518 2:0.6084973 3:0.032500337 
1 1:0.78512248 2:0.99967305 3:0.56226287 
1 1:0.59880939 2:0.55361179 3:0.90120431 
1 1:0.98881143 2:0.45669274 3:0.8154928 
1 1:0.017166025 2:0.34257264 3:0.35936451 
1 1:0.90681601 2:0.026741934 3:0.52734275 
1 1:0.41866024 2:0.95022472 3:0.6704493 
1 1:0.97700599 2:0.57256039 3:0.80983882 
1 1:0.99764365 2:0.64909643 3:0.72971054 
1 1:0.70095253 2:0.97937293 3:0.64301723 
1 1:0.77925441 2:0.62405247 3:0.043764509 
1 1:0.0034153975 2:0.72596811 3:0.43723396 
1 1:0.3253143 2:0.046980464 3:0.27287938 
1 1:0.063404181 2:0.44896715 3:0.45109497 
1 1:0.56704932 2:0.29437477 3:0.037446213 
1 1:0.96882557 2:0.44388473 3:0.27555544 
1 1:0.54706546 2:0.45619058 3:0.01580455 
1 1:0.69760363 2:0.73670076 3:0.92842244 
1 1:0.75720655 2:0.74506511 3:0.0951201 
1 1:0.41399662 2:0.24100546 3:0.015892845 
1 1:0.48630325 2:0.77140778 3:0.92674046 
1 1:0.061633549 2:0.38465574 3:0.49652184 
1 1:0.017414926 2:0.46894751 3:0.44482773 
1 1:0.99614686 2:0.83170141 3:0.36224289 
1 1:0.51323652 2:0.56547735 3:0.96489823 
1 1:0.86645384 2:0.026437922 3:0.59128823 
1 1:0.50524759 2:0.94571592 3:0.54261755 
1 1:0.71770525 2:0.32436601 3:0.9029445 
1 1:0.55411877 2:0.44989857 3:0.99025315 
1 1:0.71708942 2:0.92872494 3:0.71214587 
1 1:0.31888727 2:0.021085926 3:0.66157697 
1 1:0.047437673 2:0.49499299 3:0.69795057 
1 1:0.40408746 2:0.29427885 3:0.099329605 
1 1:0.83902481 2:0.56631718 3:0.043587082 
1 1:0.56247031 2:0.020810051 3:0.82934404 
1 1:0.94263126 2:0.56716721 3:0.14287606 
1 1:0.80436962 2:0.32233709 3:0.92217015 
1 1:0.67795951 2:0.47538079 3:0.03597927 
1 1:0.10242749 2:0.97926774 3:0.42428943 
1 1:0.6567084 2:0.032031722 3:0.43900495 
1 1:0.24911364 2:0.94805315 3:0.28766257 
1 1:0.85781073 2:0.97203566 3:0.31384614 
1 1:0.79138795 2:0.96741745 3:0.75334085 
1 1:0.018917089 2:0.43766765 3:0.81841421 
1 1:0.92818434 2:0.43836561 3:0.83006013 
1 1:0.92336388 2:0.40107516 3:0.61255389 
1 1:0.94384115 2:0.79238096 3:0.75702494 
1 1:0.93501012 2:0.14425059 3:0.55552344 
1 1:0.70354019 2:0.036238874 3:0.38782826 
1 1:0.75645852 2:0.52734357 3:0.95082741 
1 1:0.49724492 2:0.2546251 3:0.092221962 
1 1:0.27647431 2:0.057554658 3:0.5714742 
1 1:0.27799563 2:0.97320256 3:0.67507324 
1 1:0.94101054 2:0.26975333 3:0.66776278 
1 1:0.95518269 2:0.82038859 3:0.29983095 
1 1:0.51352827 2:0.37184832 3:0.007272059 
1 1:0.40116641 2:0.55381876 3:0.051592892 
1 1:0.55796855 2:0.24652483 3:0.95853897 
1 1:0.2361502 2:0.73506231 3:0.049224772 
1 1:0.5010838 2:0.93111361 3:0.14491126 
1 1:0.3621517 2:0.073735753 3:0.71423677 
1 1:0.48466926 2:0.66100635 3:0.029202912 
1 1:0.70000677 2:0.30348526 3:0.91882115 
1 1:0.98589918 2:0.42903373 3:0.58196058 
1 1:0.2448448 2:0.034835651 3:0.70660781 
1 1:0.078633806 2:0.94103792 3:0.45869052 
1 1:0.38401312 2:0.93173154 3:0.48164717 
1 1:0.9540888 2:0.68469312 3:0.84695802 
1 1:0.071690849 2:0.25978215 3:0.76122658 
1 1:0.32824177 2:0.67879118 3:0.028644427 
1 1:0.50412057 2:0.14260988 3:0.94126284 
1 1:0.8771151 2:0.9721743 3:0.53447784 
1 1:0.2523311 2:0.9362415 3:0.55660935 
1 1:0.19385911 2:0.93175785 3:0.41410793 
1 1:0.044460046 2:0.4560621 3:0.63519944 
1 1:0.50325828 2:0.045182447 3:0.49481342 
1 1:0.72278189 2:0.36631153 3:0.98794015 
1 1:0.032979251 2:0.51403708 3:0.41733314 
1 1:0.2981227 2:0.50494915 3:0.94972115 
1 1:0.71054759 2:0.98671204 3:0.46199159 
1 1:0.95552032 2:0.47563752 3:0.63342151 
1 1:0.5000398 2:0.94876549 3:0.62166752 
1 1:0.94879494 2:0.25406905 3:0.57226543 
1 1:0.4426866 2:0.93835199 3:0.65239307 
1 1:0.051809203 2:0.25062048 3:0.51536713 
1 1:0.62984561 2:0.41440471 3:0.034253144 
1 1:0.2917219 2:0.97347661 3:0.55358479 
1 1:0.28792437 2:0.9666727 3:0.65195972 
1 1:0.53222617 2:0.32661638 3:0.96393378 
1 1:0.35853465 2:0.93603352 3:0.5477521 
1 1:0.33253909 2:3.9238424e-05 3:0.22238725 
1 1:0.25470482 2:0.018524649 3:0.5106921 
1 1:0.61425479 2:0.27812134 3:0.0092983244 
1 1:0.7115128 2:0.071083798 3:0.26120744 
1 1:0.218129 2:0.95110308 3:0.45578371 
1 1:0.94525685 2:0.18178918 3:0.52237421 
1 1:0.9752359 2:0.89785558 3:0.5593008 
1 1:0.64661431 2:0.027222479 3:0.76823906 
1 1:0.012406155 2:0.57896957 3:0.45349415 
1 1:0.98204995 2:0.41823363 3:0.20672658 
1 1:0.90607131 2:0.96555785 3:0.59668853 
1 1:0.73855303 2:0.99439083 3:0.55440285 
0.3843829754801844 1:0.15048313 2:0.042882958 3:0.28228469 
1 1:0.058025666 2:0.3042487 3:0.65110341 
1 1:0.22683202 2:0.31318501 3:0.95645011 
1 1:0.010218549 2:0.59221597 3:0.42117903 
1 1:0.068202945 2:0.29225105 3:0.82710148 
1 1:0.94357152 2:0.30338608 3:0.29407989 
1 1:0.67870268 2:0.93307975 3:0.28879343 
1 1:0.75442255 2:0.92322889 3:0.27966811 
1 1:0.9987224 2:0.17895446 3:0.50875861 
1 1:0.041595121 2:0.82753051 3:0.47235247 
1 1:0.66356324 2:0.05374634 3:0.50217717 
1 1:0.50900257 2:0.06467669 3:0.57108362 
1 1:0.42175055 2:0.61759565 3:0.001129422 
1 1:0.28581269 2:0.043097043 3:0.7432673 
1 1:0.031459191 2:0.17846652 3:0.33316592 
1 1:0.046723161 2:0.74731209 3:0.46113333 
1 1:0.24927688 2:0.48293102 3:0.097942792 
1 1:0.61131617 2:0.97304029 3:0.15418476 
1 1:0.12072783 2:0.51389427 3:0.078623468 
1 1:0.34292872 2:0.97210426 3:0.45427423 
1 1:0.033921491 2:0.56847745 3:0.53783703 
1 1:0.4644957 2:0.41571114 3:0.09571613 
1 1:0.46473029 2:0.28200373 3:0.93399147 
1 1:0.99564971 2:0.80138973 3:0.4377569 
1 1:0.25126406 2:0.60348028 3:0.95717942 
1 1:0.69811712 2:0.94473054 3:0.31347874 
1 1:0.066189632 2:0.44777684 3:0.55419985 
1 1:0.33642797 2:0.064981756 3:0.53588306 
1 1:0.42933288 2:0.54717004 3:0.92800405 
1 1:0.7473559 2:0.95753554 3:0.7084628 
1 1:0.45168278 2:0.69745745 3:0.90422733 
1 1:0.050312781 2:0.42586149 3:0.19408508 
1 1:0.049650507 2:0.092080094 3:0.51359825 
1 1:0.94820611 2:0.14127163 3:0.45672607 
1 1:0.022620522 2:0.63534614 3:0.44234572 
1 1:0.45145584 2:0.035467643 3:0.35042693 
1 1:0.10446886 2:0.33982652 3:0.8961783 
1 1:0.99273642 2:0.22432462 3:0.41067025 
1 1:0.65540725 2:0.41281867 3:0.096971652 
1 1:0.01656844 2:0.11927081 3:0.60503442 
1 1:0.68454911 2:0.17884939 3:0.067317834 
1 1:0.50798435 2:0.41621383 3:0.058753336 
1 1:0.45336225 2:0.93476341 3:0.60261259 
1 1:0.20083581 2:0.99910722 3:0.6945603 
1 1:0.064702917 2:0.62919224 3:0.22537896 
1 1:0.42469147 2:0.04724141 3:0.30771381 
1 1:0.46437367 2:0.9609718 3:0.56892357 
1 1:0.74376708 2:0.95472184 3:0.21984072 
1 1:0.17712704 2:0.52998711 3:0.90432611 
1 1:0.6914584 2:0.74822873 3:0.90336218 
1 1:0.20228288 2:0.71439897 3:0.90702182 
1 1:0.59601009 2:0.53291752 3:0.9680777 
1 1:0.34174907 2:0.9270128 3:0.817748 
1 1:0.66581552 2:0.075282027 3:0.65417057 
1 1:0.04727943 2:0.45054647 3:0.11900112 
1 1:0.62542972 2:0.93822048 3:0.21957643 
1 1:0.055091829 2:0.55794995 3:0.50509504 
1 1:0.2171566 2:0.7942544 3:0.07621996 
1 1:0.95877006 2:0.42567446 3:0.65871797 
1 1:0.56195046 2:0.61182953 3:0.92260849 
1 1:0.40864709 2:0.69226287 3:0.93886816 
1 1:0.70988126 2:0.067493826 3:0.53925696 
1 1:0.58619572 2:0.43023221 3:0.06262157 
1 1:0.5669669 2:0.75721731 3:0.92018779 
1 1:0.070481758 2:0.34086556 3:0.74122921 
1 1:0.93412605 2:0.5302978 3:0.1011887 
1 1:0.75566124 2:0.95884217 3:0.61658959 
1 1:0.68736407 2:0.49508305 3:0.0037997288 
1 1:0.97399724 2:0.6080102 3:0.28097824 
1 1:0.6100533 2:0.57619109 3:0.081197662 
1 1:0.44161454 2:0.77045497 3:0.92192127 
1 1:0.0094553046 2:0.47452198 3:0.77444073 
1 1:0.17700476 2:0.94572861 3:0.54196954 
1 1:0.94596921 2:0.49554783 3:0.13343604 
1 1:0.84574743 2:0.94236993 3:0.63817538 
1 1:0.30585313 2:0.99822086 3:0.30578503 
1 1:0.68868878 2:0.70279031 3:0.085981996 
1 1:0.2146269 2:0.94129694 3:0.75765739 
1 1:0.70357424 2:0.96057797 3:0.48295045 
1 1:0.94872666 2:0.82405965 3:0.41821726 
1 1:0.84671157 2:0.94916087 3:0.48042483 
1 1:0.85467545 2:0.42956422 3:0.9038594 
1 1:0.95247267 2:0.28512439 3:0.7518189 
1 1:0.047738095 2:0.78042378 3:0.34428802 
1 1:0.47031617 2:0.83743912 3:0.95181107 
1 1:0.77091613 2:0.7298304 3:0.90027129 
1 1:0.014681685 2:0.54355926 3:0.75889032 
1 1:0.064980783 2:0.77403696 3:0.80414804 
1 1:0.51340909 2:0.77164906 3:0.90957377 
1 1:0.69216384 2:0.47128465 3:0.95714995 
1 1:0.030464226 2:0.55383864 3:0.82034691 
1 1:0.72202817 2:0.19637278 3:0.92426356 
1 1:0.090339954 2:0.9750142 3:0.53030032 
1 1:0.96597826 2:0.3485211 3:0.2364996 
1 1:0.39938033 2:0.62016475 3:0.93578745 
1 1:0.008630755 2:0.36482514 3:0.48199965 
1 1:0.95597949 2:0.62164212 3:0.71674624 
1 1:0.15247312 2:0.018146344 3:0.369076 
1 1:0.28056348 2:0.38105084 3:0.97652341 
1 1:0.026443469 2:0.63783618 3:0.33202497 
1 1:0.64910635 2:0.96702162 3:0.40450927 
1 1:0.6613567 2:0.35326529 3:0.95791982 
1 1:0.028196068 2:0.86318128 3:0.54003967 
1 1:0.38278819 2:0.45851391 3:0.0085258879 
1 1:0.53902144 2:0.48127467 3:0.030883925 
1 1:0.30009393 2:0.97615514 3:0.65056103 
1 1:0.38596595 2:0.41785977 3:0.031086459 
1 1:0.86258127 2:0.052217543 3:0.57896092 
1 1:0.8460508 2:0.075490959 3:0.58093354 
1 1:0.94595967 2:0.69647157 3:0.40568406 
1 1:0.59151469 2:0.031182135 3:0.56037086 
1 1:0.48351405 2:0.96496152 3:0.68879929 
1 1:0.79611777 2:0.013244027 3:0.56512599 
1 1:0.61955276 2:0.061038193 3:0.38949453 
1 1:0.46553201 2:0.051281653 3:0.16434186 
1 1:0.97987649 2:0.87137391 3:0.61094051 
1 1:0.39634183 2:0.35901403 3:0.9637833 
1 1:0.93075221 2:0.2818031 3:0.67683313 
1 1:0.9639184 2:0.80700193 3:0.61793703 
1 1:0.54124874 2:0.73356073 3:0.9276434 
1 1:0.18984575 2:0.61498665 3:0.94209045 
1 1:0.60279477 2:0.65585551 3:0.89591016 
1 1:0.25305444 2:0.32144316 3:0.083090483 
1 1:0.27351365 2:0.2332258 3:0.89648621 
1 1:0.93561563 2:0.5257336 3:0.31034771 
1 1:0.51735372 2:0.064429587 3:0.81442275 
1 1:0.29627342 2:0.47067274 3:0.067849957 
1 1:0.71719273 2:0.94770687 3:0.68182398 
1 1:0.48645907 2:0.072480108 3:0.87141996 
1 1:0.56980446 2:0.057518328 3:0.44517899 
1 1:0.64266181 2:0.9619244 3:0.24618849 
1 1:0.36425027 2:0.066717012 3:0.72929962 
1 1:0.59349701 2:0.43764579 3:0.010764788 
1 1:0.55338128 2:0.43590072 3:0.0095609066 
1 1:0.64545744 2:0.82059954 3:0.076810007 
1 1:0.058274832 2:0.17962965 3:0.53854175 
1 1:0.79451054 2:0.94721834 3:0.28962507 
1 1:0.015896981 2:0.70494602 3:0.6554682 
1 1:0.40945276 2:0.71130958 3:0.08153431 
1 1:0.84375973 2:0.0080516614 3:0.45980677 
1 1:0.43167383 2:0.037098283 3:0.73742931 
1 1:0.93516671 2:0.56700477 3:0.79359164 
1 1:0.98806564 2:0.57740998 3:0.77887827 
1 1:0.21577676 2:0.54375144 3:0.0086545513 
1 1:0.97989322 2:0.51602695 3:0.51607002 
1 1:0.57953477 2:0.55437521 3:0.90629583 
1 1:0.85492175 2:0.60871762 3:0.92007238 
1 1:0.23782822 2:0.051532309 3:0.58388638 
1 1:0.72462449 2:0.71366155 3:0.95357977 
1 1:0.31486839 2:0.63684625 3:0.092010995 
1 1:0.2853144 2:0.62759383 3:0.94322793 
1 1:0.62683466 2:0.96829683 3:0.75614743 
1 1:0.026478453 2:0.10084119 3:0.52361705 
1 1:0.96920705 2:0.42310055 3:0.66274027 
1 1:0.3510013 2:0.28699939 3:0.084225932 
1 1:0.36772753 2:0.72802996 3:0.08487786 
1 1:0.98675577 2:0.30095577 3:0.68272531 
1 1:0.22705861 2:0.5551095 3:0.92578531 
1 1:0.6245749 2:0.57791982 3:0.088413514 
1 1:0.83485455 2:0.60356681 3:0.93227718 
1 1:0.064600698 2:0.37776476 3:0.8350293 
1 1:0.57838174 2:0.98547993 3:0.48901756 
1 1:0.2558814 2:0.256027 3:0.046962306 
1 1:0.32050265 2:0.53987772 3:0.057353205 
1 1:0.35570767 2:0.2942186 3:0.92598106 
1 1:0.907761 2:0.055611285 3:0.4243232 
1 1:0.074117125 2:0.33337542 3:0.56572034 
1 1:0.030127942 2:0.71476668 3:0.31937242 
1 1:0.056769577 2:0.080241454 3:0.53285127 
1 1:0.022150258 2:0.71898463 3:0.33424305 
1 1:0.035004263 2:0.84361186 3:0.40392921 
1 1:0.27964974 2:0.0092436056 3:0.44934865 
1 1:0.54494947 2:0.98146003 3:0.59291906 
1 1:0.43289335 2:0.063900021 3:0.8133352 
1 1:0.73476767 2:0.97261908 3:0.76961314 
1 1:0.92895977 2:0.2481256 3:0.43927797 
1 1:0.16670151 2:0.046277114 3:0.62509431 
1 1:0.39369076 2:0.59209239 3:0.030793251 
1 1:0.53776428 2:0.38683343 3:0.099283625 
1 1:0.14377117 2:0.53020221 3:0.90964431 
1 1:0.02574806 2:0.2688958 3:0.6884834 
1 1:0.27898703 2:0.98911642 3:0.61340472 
1 1:0.94804696 2:0.51769307 3:0.2716111 
1 1:0.96277622 2:0.41272501 3:0.52075329 
1 1:0.42554847 2:0.52583018 3:0.94854455 
1 1:0.76159445 2:0.026102739 3:0.37078427 
1 1:0.93029311 2:0.63072016 3:0.64192566 
1 1:0.66339543 2:0.22058605 3:0.082437316 
1 1:0.95605801 2:0.78965744 3:0.7534891 
1 1:0.18962646 2:0.29699082 3:0.072292807 
1 1:0.70513743 2:0.95845097 3:0.68806144 
1 1:0.036759587 2:0.1591041 3:0.67291566 
1 1:0.16386164 2:0.98852803 3:0.64053554 
1 1:0.93502572 2:0.85352318 3:0.51801742 
1 1:0.28545035 2:0.0077216611 3:0.76434599 
1 1:0.28203029 2:0.98011809 3:0.51952399 
1 1:0.95129228 2:0.36809444 3:0.50278306 
1 1:0.051277117 2:0.7725111 3:0.61166693 
1 1:0.81009107 2:0.51807466 3:0.9231565 
1 1:0.81274829 2:0.7502057 3:0.10101723 
1 1:0.93151979 2:0.70722807 3:0.53142513 
1 1:0.74503853 2:0.044647108 3:0.42308984 
1 1:0.34297612 2:0.99706092 3:0.4582568 
1 1:0.61204669 2:0.60811634 3:0.95962191 
1 1:0.77719309 2:0.692116 3:0.93345442 
1 1:0.93417724 2:0.26438221 3:0.54288534 
1 1:0.049176928 2:0.22487289 3:0.71796296 
1 1:0.58091087 2:0.70004204 3:0.056009999 
1 1:0.66161188 2:0.99809519 3:0.5183898 
1 1:0.47233028 2:0.33770677 3:0.060637646 
1 1:0.76828403 2:0.95823071 3:0.31363063 
1 1:0.84501979 2:0.94191602 3:0.67339728 
1 1:0.88857925 2:0.93567207 3:0.44642572 
1 1:0.32841232 2:0.95288912 3:0.62777902 
1 1:0.019739818 2:0.3319003 3:0.50732199 
1 1:0.9314564 2:0.57264101 3:0.61743066 
1 1:0.14750783 2:0.92521544 3:0.40987193 
1 1:0.23537854 2:0.059751825 3:0.35384016 
1 1:0.81537836 2:0.92928484 3:0.28542383 
1 1:0.04373845 2:0.60560364 3:0.14094121 
1 1:0.93367229 2:0.87007713 3:0.70964813 
1 1:0.51000449 2:0.038311806 3:0.67506031 
1 1:0.067717958 2:0.3650487 3:0.60938393 
1 1:0.92494904 2:0.58763274 3:0.13990084 
1 1:0.067713264 2:0.32668761 3:0.72315584 
1 1:0.69963073 2:0.38301156 3:0.035695501 
1 1:0.68832134 2:0.65094435 3:0.99110063 
1 1:0.49755264 2:0.41646421 3:0.019706748 
1 1:0.48801276 2:0.94701541 3:0.79303483 
1 1:0.93015172 2:0.48622758 3:0.29192602 
1 1:0.62080454 2:0.92725034 3:0.49656011 
1 1:0.17427133 2:0.94733471 3:0.30539908 
1 1:0.71248548 2:0.98864147 3:0.22370389 
1 1:0.30892609 2:0.92703462 3:0.58573294 
1 1:0.20831985 2:0.53988117 3:0.072380856 
1 1:0.16282527 2:0.96562749 3:0.58015363 
1 1:0.25550388 2:0.92738646 3:0.65477853 
1 1:0.46962104 2:0.98398859 3:0.18710865 
1 1:0.43812087 2:0.9852883 3:0.34457888 
1 1:0.92662188 2:0.21850095 3:0.19343338 
1 1:0.72986875 2:0.051779495 3:0.51541305 
1 1:0.93386167 2:0.1318627 3:0.60157953 
1 1:0.68591682 2:0.97085257 3:0.81889926 
1 1:0.72234947 2:0.93102787 3:0.41501801 
1 1:0.074147442 2:0.3845705 3:0.84925919 
1 1:0.059673848 2:0.62937531 3:0.83468161 
1 1:0.81598049 2:0.021399357 3:0.69207981 
1 1:0.61211103 2:0.15853525 3:0.89751481 
1 1:0.92869079 2:0.53721643 3:0.1898687 
1 1:0.95139612 2:0.89615095 3:0.44288046 
1 1:0.39341654 2:0.99733406 3:0.55565856 
1 1:0.81429771 2:0.96420225 3:0.65349141 
1 1:0.81879171 2:0.41553447 3:0.94806524 
1 1:0.50604837 2:0.20590876 3:0.083665384 
1 1:0.056662038 2:0.59985292 3:0.86742758 
1 1:0.94499469 2:0.11950058 3:0.49953913 
1 1:0.45001888 2:0.19714579 3:0.083294658 
1 1:0.74856299 2:0.037673059 3:0.3932733 
1 1:0.63023126 2:0.80609995 3:0.9280808 
1 1:0.069374549 2:0.68655886 3:0.72788786 
1 1:0.93781242 2:0.64180121 3:0.71101968 
1 1:0.65333378 2:0.26849456 3:0.93643039 
1 1:0.68994388 2:0.052836748 3:0.47112741 
1 1:0.39873423 2:0.052197572 3:0.51866373 
1 1:0.30352959 2:0.53252329 3:0.89843056 
1 1:0.5598222 2:0.61010446 3:0.97614841 
1 1:0.26814039 2:0.29290325 3:0.93014271 
1 1:0.92769826 2:0.34129839 3:0.33875472 
1 1:0.39066621 2:0.27982033 3:0.91149871 
1 1:0.72525598 2:0.68918745 3:0.92126385 
1 1:0.57989814 2:0.70850336 3:0.92233377 
1 1:0.42369954 2:0.23776177 3:0.077668977 
1 1:0.29333261 2:0.058266343 3:0.33271412 
1 1:0.44462965 2:0.96155766 3:0.68502519 
1 1:0.58552797 2:0.59492608 3:0.95358339 
1 1:0.38312702 2:0.72972922 3:0.092041245 
1 1:0.86432439 2:0.67514542 3:0.91022206 
1 1:0.53293121 2:0.94198627 3:0.79949707 
1 1:0.051158688 2:0.59114139 3:0.87037904 
1 1:0.44197138 2:0.7775751 3:0.098307933 
1 1:0.44008424 2:0.016215465 3:0.5028602 
1 1:0.55099134 2:0.62637233 3:0.91138026 
1 1:0.88667127 2:0.49495752 3:0.92071191 
1 1:0.98193256 2:0.61924333 3:0.1897912 
1 1:0.78460082 2:0.56507128 3:0.98321559 
1 1:0.62361899 2:0.25365823 3:0.088876501 
1 1:0.49852339 2:0.024357062 3:0.37918627 
1 1:0.73246547 2:0.94542942 3:0.64697309 
1 1:0.99665966 2:0.71894016 3:0.59577649 
1 1:0.47789146 2:0.47164045 3:0.034043293 
1 1:0.49880976 2:0.37387881 3:0.98173216 
1 1:0.3758644 2:0.20908963 3:0.91265579 
1 1:0.84275636 2:0.56044031 3:0.059430712 
1 1:0.71360944 2:0.95597026 3:0.69277571 
1 1:0.52795553 2:0.83744997 3:0.065257491 
1 1:0.041888918 2:0.61756704 3:0.59824889 
1 1:0.84549618 2:0.021254657 3:0.47387831 
1 1:0.531653 2:0.71869404 3:0.91548301 
1 1:0.55667125 2:0.60062122 3:0.055184453 
1 1:0.27889387 2:0.52847875 3:0.99460671 
1 1:0.070813967 2:0.61278069 3:0.14580498 
1 1:0.72046621 2:0.54010642 3:0.098604585 
1 1:0.26352043 2:0.4924565 3:0.059817662 
1 1:0.20645685 2:0.061306301 3:0.74724681 
1 1:0.74888753 2:0.51277512 3:0.084237946 
1 1:0.27782259 2:0.64523541 3:0.93003477 
1 1:0.052790086 2:0.75906154 3:0.38879117 
1 1:0.65037255 2:0.51144377 3:0.056347198 
1 1:0.74126778 2:0.071204972 3:0.35409787 
1 1:0.50480407 2:0.53518589 3:0.040530261 
1 1:0.98259917 2:0.49541761 3:0.38230382 
1 1:0.16039623 2:0.95360423 3:0.72426678 
1 1:0.56680348 2:0.93343907 3:0.79573109 
1 1:0.14406846 2:0.53456662 3:0.10476535 
1 1:0.099716798 2:0.044430961 3:0.4620473 
1 1:0.058635904 2:0.80631783 3:0.66856728 
1 1:0.75651646 2:0.029664687 3:0.65101621 
1 1:0.9834461 2:0.17644167 3:0.67772582 
1 1:0.41721334 2:0.2280113 3:0.90296278 
1 1:0.94308781 2:0.53620501 3:0.13163987 
1 1:0.98667012 2:0.658005 3:0.28117025 
1 1:0.55462046 2:0.48703366 3:0.021253163 
1 1:0.66673496 2:0.0022397656 3:0.64937473 
1 1:0.5601172 2:0.53782853 3:0.90746767 
1 1:0.32154017 2:0.31039855 3:0.89714826 
1 1:0.34038026 2:0.070256299 3:0.3833877 
1 1:0.47548506 2:0.97824346 3:0.73636245 
1 1:0.51102293 2:0.58659963 3:0.92306299 
1 1:0.50796624 2:0.28582755 3:0.0062913812 
1 1:0.019174183 2:0.86452424 3:0.59704872 
1 1:0.79470785 2:0.9603069 3:0.4623033 
1 1:0.14606633 2:0.38675716 3:0.90513015 
1 1:0.96258458 2:0.80195889 3:0.43933296 
1 1:0.22404975 2:0.59452511 3:0.97308334 
1 1:0.63094429 2:0.031194051 3:0.38420443 
1 1:0.29744038 2:0.7797952 3:0.045626494 
1 1:0.52644857 2:0.95403165 3:0.68546374 
1 1:0.94293826 2:0.61003193 3:0.59028125 
1 1:0.93064162 2:0.36864046 3:0.25861107 
1 1:0.28668954 2:0.021389748 3:0.36469729 
1 1:0.3532523 2:0.97678441 3:0.82591071 
1 1:0.23201565 2:0.92425326 3:0.47323092 
1 1:0.79738448 2:0.69162364 3:0.075849751 
1 1:0.5935089 2:0.96409855 3:0.19440317 
1 1:0.72868467 2:0.15189425 3:0.90388115 
1 1:0.95658503 2:0.47799647 3:0.34147137 
1 1:0.30867565 2:0.63924204 3:0.01825042 
1 1:0.31359501 2:0.64548347 3:0.91692936 
1 1:0.9266953 2:0.41674303 3:0.32456536 
1 1:0.040915257 2:0.24977126 3:0.55214594 
1 1:0.95184243 2:0.41512796 3:0.64336978 
1 1:0.58452283 2:0.99884846 3:0.70169573 
1 1:0.95542618 2:0.46996621 3:0.83786129 
1 1:0.10473983 2:0.072416695 3:0.33798722 
1 1:0.46671794 2:0.94236595 3:0.74770757 
1 1:0.014016724 2:0.10454653 3:0.53426806 
1 1:0.58758429 2:0.56150767 3:0.059629113 
1 1:0.6204818 2:0.29717804 3:0.9279439 
1 1:0.40805087 2:0.8665056 3:0.053642467 
1 1:0.62243393 2:0.061852481 3:0.47471959 
1 1:0.57662743 2:0.86676249 3:0.9233947 
1 1:0.28692296 2:0.073516375 3:0.51970463 
1 1:0.94368362 2:0.34816757 3:0.22184433 
1 1:0.32931628 2:0.23152976 3:0.92368137 
1 1:0.73062026 2:0.27604942 3:0.079828257 
1 1:0.47204432 2:0.10990179 3:0.90019702 
1 1:0.9896204 2:0.66282147 3:0.32106473 
1 1:0.23850079 2:0.58991098 3:0.9847123 
1 1:0.67179956 2:0.93082234 3:0.46967857 
1 1:0.13912169 2:0.026064707 3:0.63642131 
1 1:0.87943975 2:0.020039734 3:0.63212626 
1 1:0.38428798 2:0.43190791 3:0.01326009 
1 1:0.59028676 2:0.67730312 3:0.91156741 
1 1:0.086163867 2:0.92756815 3:0.53796141 
1 1:0.54886242 2:0.19880901 3:0.91106278 
1 1:0.69126102 2:0.074085657 3:0.28954047 
1 1:0.42231965 2:0.051358931 3:0.25551004 
1 1:0.48737739 2:0.30904998 3:0.94994069 
1 1:0.052299262 2:0.34801977 3:0.76410873 
1 1:0.82745014 2:0.96813941 3:0.31683434 
1 1:0.81466894 2:0.022383809 3:0.72091933 
1 1:0.28009891 2:0.92322054 3:0.84855063 
1 1:0.25725505 2:0.034713297 3:0.56360083 
1 1:0.52292928 2:0.80306906 3:0.90358649 
1 1:0.45671849 2:0.20247724 3:0.022632365 
1 1:0.5824123 2:0.067229445 3:0.16120587 
1 1:0.49968286 2:0.069643302 3:0.36584094 
1 1:0.299871 2:0.58718861 3:0.96786801 
1 1:0.80827384 2:0.95262637 3:0.39555324 
1 1:0.60928254 2:0.029186389 3:0.28362994 
1 1:0.36699928 2:0.045421736 3:0.3325486 
1 1:0.69481596 2:0.67008731 3:0.97548947 
1 1:0.076484573 2:0.94769617 3:0.59282036 
1 1:0.042214626 2:0.61223739 3:0.83352842 
1 1:0.29058321 2:0.027924729 3:0.47021267 
1 1:0.75670222 2:0.017717086 3:0.24295764 
1 1:0.23468203 2:0.062242851 3:0.21191347 
1 1:0.2247641 2:0.07602809 3:0.4015271 
1 1:0.97781976 2:0.24714416 3:0.69587579 
1 1:0.75656178 2:0.42715243 3:0.023017686 
1 1:0.27826037 2:0.93505199 3:0.7937931 
1 1:0.12655382 2:0.022684271 3:0.63187661 
1 1:0.43595469 2:0.44883092 3:0.92137672 
1 1:0.38094844 2:0.4467454 3:0.057491249 
1 1:0.25144962 2:0.065930573 3:0.45285949 
1 1:0.47712827 2:0.32995092 3:0.94074403 
0.3673288383192822 1:0.96485875 2:0.90200994 3:0.62868221 
1 1:0.71868609 2:0.60463597 3:0.98857601 
1 1:0.93815262 2:0.62814966 3:0.27701638 
1 1:0.64756274 2:0.96086557 3:0.27792667 
1 1:0.3659305 2:0.94931822 3:0.36329694 
1 1:0.99416215 2:0.80704508 3:0.47819935 
1 1:0.74480363 2:0.58786459 3:0.06675624 
1 1:0.83676827 2:0.44358021 3:0.073862325 
1 1:0.94288383 2:0.69319629 3:0.23793061 
1 1:0.41219583 2:0.067766988 3:0.68939656 
1 1:0.23170841 2:0.071192952 3:0.31390242 
1 1:0.73062209 2:0.50704452 3:0.97290244 
1 1:0.64467031 2:0.75855346 3:0.89790209 
1 1:0.55860275 2:0.76652491 3:0.093417812 
1 1:0.57216194 2:0.51121531 3:0.94995479 
1 1:0.47214279 2:0.071872491 3:0.76792278 
1 1:0.57045345 2:0.99280796 3:0.47489436 
1 1:0.75334855 2:0.69630657 3:0.059704172 
1 1:0.048760004 2:0.85325166 3:0.33660078 
1 1:0.39249104 2:0.40564579 3:0.048312165 
1 1:0.49421824 2:0.39668927 3:0.94334333 
1 1:0.30218071 2:0.29870649 3:0.031950531 
1 1:0.93527228 2:0.2515312 3:0.76671 
1 1:0.54744241 2:0.98550165 3:0.72261465 
1 1:0.33987765 2:0.4397607 3:0.99989773 
1 1:0.55424444 2:0.59837704 3:0.10143348 
1 1:0.022750622 2:0.82757288 3:0.54276283 
1 1:0.89620715 2:0.4064505 3:0.087804847 
1 1:0.35874695 2:0.26994733 3:0.021299908 
1 1:0.39191207 2:0.0020834039 3:0.25175375 
1 1:0.20012801 2:0.66544206 3:0.065294452 
1 1:0.82347185 2:0.024402303 3:0.48901174 
1 1:0.40008068 2:0.58971253 3:0.98827957 
1 1:4.2429871e-05 2:0.80466168 3:0.2953125 
1 1:0.23114367 2:0.93690011 3:0.31603597 
1 1:0.68494402 2:0.66192165 3:0.044059482 
1 1:0.53995669 2:0.23391887 3:0.89651097 
1 1:0.72029394 2:0.87422292 3:0.097679285 
1 1:0.96491929 2:0.42603646 3:0.37324585 
1 1:0.04744948 2:0.68148095 3:0.29751565 
1 1:0.026788946 2:0.69462965 3:0.71516781 
1 1:0.066134397 2:0.085985813 3:0.51865544 
1 1:0.98516773 2:0.47181307 3:0.42679422 
1 1:0.80940328 2:0.73357508 3:0.061092529 
1 1:0.38653905 2:0.3398395 3:0.033516377 
1 1:0.98508623 2:0.30878728 3:0.26652257 
1 1:0.59267236 2:0.30846582 3:0.90777191 
1 1:0.053445594 2:0.85035533 3:0.47188402 
1 1:0.18209244 2:0.059729957 3:0.7295653 
1 1:0.61879771 2:9.0269473e-05 3:0.72028635 
1 1:0.80018767 2:0.93233401 3:0.4164083 
1 1:0.037279282 2:0.7470436 3:0.47355058 
1 1:0.022524971 2:0.2798664 3:0.32540959 
1 1:0.67758979 2:0.95966971 3:0.62309345 
1 1:0.048542414 2:0.86410313 3:0.29807239 
1 1:0.39060524 2:0.73527673 3:0.090161239 
1 1:0.064217316 2:0.14622287 3:0.42494018 
1 1:0.36123265 2:0.071983845 3:0.66931498 
1 1:0.15216126 2:0.31379497 3:0.073796602 
1 1:0.19691118 2:0.0059875735 3:0.63451419 
1 1:0.66374741 2:0.98411699 3:0.28746676 
1 1:0.99458654 2:0.77407155 3:0.52355995 
1 1:0.96198443 2:0.21263006 3:0.61675997 
1 1:0.98406407 2:0.35110916 3:0.74569689 
1 1:0.73848959 2:0.7403204 3:0.96075671 
1 1:0.18072371 2:0.31917562 3:0.91004159 
1 1:0.59945712 2:0.48892037 3:0.96914178 
1 1:0.4870335 2:0.36513531 3:0.93608187 
1 1:0.93307492 2:0.92569294 3:0.58022613 
1 1:0.56562652 2:0.020785316 3:0.21874558 
1 1:0.74272995 2:0.77385458 3:0.10288785 
1 1:0.25298099 2:0.47526162 3:0.93647253 
1 1:0.27765945 2:0.28800189 3:0.9400232 
1 1:0.05895966 2:0.59940033 3:0.11269968 
1 1:0.65124737 2:0.64116882 3:0.96373507 
1 1:0.019530885 2:0.14805565 3:0.63452707 
1 1:0.2280537 2:0.96725252 3:0.48254942 
1 1:0.49870913 2:0.03957339 3:0.59486508 
1 1:0.99520992 2:0.60248578 3:0.74720816 
1 1:0.92333642 2:0.37860679 3:0.60366558 
1 1:0.38512405 2:0.97320628 3:0.70669452 
1 1:0.55027584 2:0.22271827 3:0.92418075 
1 1:0.30918957 2:0.18788837 3:0.092717498 
1 1:0.80477711 2:0.23686598 3:0.094627086 
1 1:0.17916275 2:0.0083302961 3:0.67758212 
1 1:0.62982532 2:0.29392902 3:0.045958387 
1 1:0.84757185 2:0.066235424 3:0.60910584 
1 1:0.021085766 2:0.39768235 3:0.15369017 
1 1:0.52973726 2:0.023568017 3:0.35861976 
1 1:0.82759514 2:0.31376624 3:0.071130578 
1 1:0.43749413 2:0.73680156 3:0.94070909 
1 1:0.53203058 2:0.011840216 3:0.6526041 
1 1:0.13274896 2:0.94683943 3:0.42352565 
1 1:0.46318299 2:0.80565072 3:0.95891913 
1 1:0.035185206 2:0.28074452 3:0.56077402 
1 1:0.45269201 2:0.68012507 3:0.03728173 
1 1:0.070552574 2:0.27739327 3:0.81905422 
1 1:0.047013359 2:0.33619241 3:0.14506162 
1 1:0.38507715 2:0.22436682 3:0.03398585 
1 1:0.18644455 2:0.62970638 3:0.047285617 
1 1:0.99069428 2:0.61046904 3:0.55839397 
1 1:0.95535112 2:0.88974863 3:0.42408684 
1 1:0.97754707 2:0.27632765 3:0.29450281 
1 1:0.44154153 2:0.97389457 3:0.76416333 
1 1:0.75500953 2:0.45796429 3:0.93501849 
1 1:0.74189853 2:0.93526339 3:0.57110928 
1 1:0.48005966 2:0.9785296 3:0.62009911 
1 1:0.018909947 2:0.48253564 3:0.57412954 
1 1:0.53192686 2:0.016254499 3:0.52689991 
1 1:0.10863779 2:0.64071841 3:0.89969675 
1 1:0.99589806 2:0.7445155 3:0.30341716 
1 1:0.95242431 2:0.42684507 3:0.27449524 
1 1:0.26927946 2:0.058730291 3:0.2787376 
1 1:0.2083144 2:0.9525844 3:0.31616967 
1 1:0.11974684 2:0.40885154 3:0.080601289 
1 1:0.73160513 2:0.022291189 3:0.39471945 
1 1:0.76145191 2:0.96387513 3:0.77880936 
1 1:0.51024115 2:0.99837985 3:0.40301096 
1 1:0.51513449 2:0.92647998 3:0.85116799 
1 1:0.63402829 2:0.76563184 3:0.011052703 
1 1:0.4604865 2:0.98424048 3:0.82994032 
1 1:0.34068894 2:0.77637382 3:0.054237386 
1 1:0.67868531 2:0.66014612 3:0.95615472 
1 1:0.56287997 2:0.43013552 3:0.98788115 
1 1:0.98324118 2:0.60291674 3:0.56499992 
1 1:0.065504298 2:0.66296827 3:0.84433679 
1 1:0.38093958 2:0.38802444 3:0.098111895 
1 1:0.034301032 2:0.90472705 3:0.57702742 
1 1:0.56599275 2:0.074999837 3:0.40745909 
1 1:0.97595203 2:0.2938288 3:0.53189786 
1 1:0.55836507 2:0.053797273 3:0.47885366 
1 1:0.035331229 2:0.10962698 3:0.44836776 
1 1:0.81088837 2:0.99186068 3:0.61745641 
1 1:0.4674367 2:0.56835408 3:0.0040580414 
1 1:0.39544456 2:0.22616648 3:0.04085764 
1 1:0.9936456 2:0.57234527 3:0.48368996 
1 1:0.057967191 2:0.17673102 3:0.71773645 
1 1:0.23715814 2:0.28092324 3:0.93490009 
1 1:0.058539906 2:0.83081855 3:0.65077124 
1 1:0.29179806 2:0.93566435 3:0.42399112 
1 1:0.67407543 2:0.035831718 3:0.75369833 
1 1:0.64886947 2:0.98414239 3:0.52700636 
1 1:0.5005932 2:0.022601125 3:0.46431478 
1 1:0.001719021 2:0.21774029 3:0.68635262 
1 1:0.56469459 2:0.021030459 3:0.25389252 
1 1:0.20029404 2:0.92375729 3:0.63455696 
1 1:0.81626669 2:0.30500995 3:0.076822102 
1 1:0.10610928 2:0.93811498 3:0.64823036 
1 1:0.52304277 2:0.052320335 3:0.29448235 
1 1:0.60743277 2:0.48985107 3:0.94662207 
1 1:0.76880841 2:0.01591637 3:0.6733546 
1 1:0.65608234 2:0.57769311 3:0.077648402 
1 1:0.44186198 2:0.44785678 3:0.07245642 
1 1:0.18891801 2:0.60071452 3:0.9043024 
1 1:0.99144943 2:0.26634824 3:0.52625235 
1 1:0.66164303 2:0.79783558 3:0.91008195 
1 1:0.21317695 2:0.92420767 3:0.38096844 
1 1:0.71716259 2:0.78869082 3:0.096525278 
1 1:0.4207513 2:0.43356148 3:0.96394548 
1 1:0.42975326 2:0.99746797 3:0.27906485 
1 1:0.029536763 2:0.67584235 3:0.60744004 
1 1:0.82010731 2:0.40197308 3:0.063726233 
1 1:0.76558977 2:0.71467629 3:0.045006725 
1 1:0.86548871 2:0.40485101 3:0.94177673 
1 1:0.23458659 2:0.043206416 3:0.29241622 
1 1:0.68161028 2:0.06065665 3:0.16585761 
1 1:0.46156975 2:0.90662913 3:0.073706042 
1 1:0.057741691 2:0.41338201 3:0.51038563 
1 1:0.38712474 2:0.25307506 3:0.98975922 
1 1:0.46888712 2:0.9710348 3:0.13185394 
1 1:0.045190924 2:0.44444521 3:0.5648604 
1 1:0.35126376 2:0.34458107 3:0.98934159 
1 1:0.76344489 2:0.027487604 3:0.26845169 
1 1:0.015022978 2:0.52145993 3:0.482371 
1 1:0.35531969 2:0.055624549 3:0.7104723 
1 1:0.94506712 2:0.81956594 3:0.24239875 
1 1:0.50760215 2:0.72447808 3:0.90265763 
1 1:0.3982567 2:0.90370249 3:0.088371527 
1 1:0.20566675 2:0.019655977 3:0.33384549 
1 1:0.93675353 2:0.79047122 3:0.6072933 
1 1:0.92759959 2:0.44876779 3:0.5360395 
1 1:0.97166645 2:0.77278351 3:0.22618972 
1 1:0.62962892 2:0.0024281689 3:0.25693716 
1 1:0.48744431 2:0.53354053 3:0.060951328 
1 1:0.055700672 2:0.23018 3:0.29153803 
1 1:0.32483475 2:0.39147277 3:0.95341692 
1 1:0.72528668 2:0.15560203 3:0.91217214 
1 1:0.72724538 2:0.033319826 3:0.38588619 
1 1:0.93927367 2:0.70095232 3:0.32663403 
1 1:0.28448312 2:0.93024932 3:0.45171781 
1 1:0.12809601 2:0.073099494 3:0.44870937 
1 1:0.69377637 2:0.066630049 3:0.34519471 
1 1:0.58529163 2:0.18535365 3:0.90639539 
1 1:0.8469689 2:0.0032725518 3:0.55991572 
1 1:0.95865563 2:0.15459115 3:0.68974073 
1 1:0.051196905 2:0.48412928 3:0.63382196 
1 1:0.054385083 2:0.62779091 3:0.45825952 
1 1:0.93316272 2:0.19248664 3:0.65468663 
1 1:0.94071385 2:0.53723953 3:0.79919358 
1 1:0.4091576 2:0.3359012 3:0.93515916 
1 1:0.98379226 2:0.59080721 3:0.62239737 
1 1:0.039333543 2:0.47468773 3:0.80087279 
1 1:0.69209683 2:0.57201989 3:0.96399589 
1 1:0.67897203 2:0.57864794 3:0.085034553 
1 1:0.21336982 2:0.41829118 3:0.94181619 
1 1:0.96587869 2:0.11156309 3:0.45313661 
1 1:0.4914133 2:0.81483667 3:0.95426567 
1 1:0.67072135 2:0.52956326 3:0.93976042 
1 1:0.14204609 2:0.50943946 3:0.93339244 
1 1:0.056574486 2:0.2994826 3:0.64341943 
1 1:0.12098683 2:0.4188312 3:0.89643065 
1 1:0.25533613 2:0.65520704 3:0.088094241 
1 1:0.52849106 2:0.97073349 3:0.72116647 
1 1:0.32821447 2:0.96066419 3:0.20780102 
1 1:0.040266968 2:0.53149823 3:0.24139851 
0.9561526379572748 1:0.67545535 2:0.047623959 3:0.16048127 
1 1:0.48417605 2:0.37093305 3:0.91184363 
1 1:0.60519666 2:0.73283699 3:0.024020343 
1 1:0.38045296 2:0.1931906 3:0.9150466 
1 1:0.030182403 2:0.57502941 3:0.85262185 
1 1:0.41808949 2:0.92726525 3:0.81843775 
1 1:0.45801532 2:0.032710391 3:0.63252876 
1 1:0.78766113 2:0.28964765 3:0.95339271 
1 1:0.99744441 2:0.16871303 3:0.3447721 
1 1:0.33069837 2:0.95931614 3:0.52532659 
1 1:0.9580226 2:0.69577606 3:0.2773238 
1 1:0.40384069 2:0.063523871 3:0.50220769 
1 1:0.54400549 2:0.63694369 3:0.074956084 
1 1:0.4360154 2:0.79318132 3:0.91878153 
1 1:0.068692869 2:0.42397835 3:0.4098298 
1 1:0.07659152 2:0.72036472 3:0.51669331 
1 1:0.93925139 2:0.18622677 3:0.46527414 
1 1:0.41876248 2:0.059749209 3:0.169672 
1 1:0.92577679 2:0.62774006 3:0.27883163 
1 1:0.28545232 2:0.72841832 3:0.029075408 
1 1:0.51509859 2:0.57809861 3:0.95293521 
1 1:0.038611568 2:0.36296273 3:0.61709588 
1 1:0.63285147 2:0.050658482 3:0.44294634 
1 1:0.49654834 2:0.1696614 3:0.94064069 
1 1:0.82215204 2:0.30952846 3:0.90596619 
1 1:0.023436222 2:0.55242553 3:0.58241537 
1 1:0.74826072 2:0.0094626765 3:0.60933541 
1 1:0.74444649 2:0.75978657 3:0.065286046 
1 1:0.021905216 2:0.76011002 3:0.64514565 
1 1:0.73633012 2:0.019449251 3:0.59298642 
1 1:0.96597479 2:0.61509318 3:0.30148248 
1 1:0.33418239 2:0.063555272 3:0.55064078 
1 1:0.7694272 2:0.94062593 3:0.70056789 
1 1:0.05992618 2:0.53923527 3:0.12061074 
1 1:0.55964663 2:0.92996377 3:0.12606278 
1 1:0.73186517 2:0.2522568 3:0.055669163 
1 1:0.5879388 2:0.027197879 3:0.80599058 
1 1:0.052900516 2:0.20840267 3:0.34813818 
1 1:0.00329836 2:0.69440254 3:0.73500232 
1 1:0.63428036 2:0.44571168 3:0.10384537 
1 1:0.29270916 2:0.71778288 3:0.084056111 
1 1:0.70208877 2:0.021935658 3:0.33454011 
1 1:0.40031812 2:0.5167618 3:0.074286257 
1 1:0.0366018 2:0.70172637 3:0.50041701 
1 1:0.035908852 2:0.31447373 3:0.71218556 
1 1:0.053755733 2:0.082328064 3:0.37768422 
1 1:0.36112755 2:0.0010366985 3:0.70241094 
1 1:0.23151427 2:0.97436524 3:0.69306285 
1 1:0.53636353 2:0.23603792 3:0.045296215 
1 1:0.27944634 2:0.92854695 3:0.65175315 
1 1:0.51655166 2:0.23786333 3:0.03491079 
1 1:0.95265299 2:0.3393288 3:0.43183932 
1 1:0.67637771 2:0.43131747 3:0.95903099 
1 1:0.32568873 2:0.62051919 3:0.026518926 
1 1:0.36320348 2:0.97368888 3:0.47325348 
1 1:0.45633781 2:0.34226383 3:0.10204349 
1 1:0.2236975 2:0.0077717064 3:0.4041855 
1 1:0.37186223 2:0.054752308 3:0.50805743 
1 1:0.61109754 2:0.93692937 3:0.76030469 
1 1:0.017581089 2:0.16476553 3:0.45281565 
1 1:0.99660007 2:0.38001506 3:0.29952915 
1 1:0.38060164 2:0.69047736 3:0.89711353 
1 1:0.95434751 2:0.53740442 3:0.48675707 
1 1:0.68495574 2:0.58104957 3:0.10152074 
1 1:0.13860997 2:0.96056349 3:0.48070031 
1 1:0.62774366 2:0.020051594 3:0.22095263 
1 1:0.76943966 2:0.2612072 3:0.095251694 
1 1:0.6318668 2:0.075863895 3:0.15274323 
1 1:0.44978013 2:0.40050489 3:0.98400588 
1 1:0.96048904 2:0.86286291 3:0.52280578 
1 1:0.75363371 2:0.92380036 3:0.71392118 
1 1:0.0070418203 2:0.70595625 3:0.52047957 
1 1:0.034703742 2:0.36717886 3:0.3453978 
1 1:0.041539721 2:0.70987166 3:0.74529297 
1 1:0.48200435 2:0.72758435 3:0.96028946 
1 1:0.24907121 2:0.49096879 3:0.057035619 
1 1:0.50560582 2:0.37640989 3:0.95354454 
1 1:0.69925469 2:0.9983082 3:0.22871442 
1 1:0.54905717 2:0.024462541 3:0.24584711 
1 1:0.065323224 2:0.14638883 3:0.4214815 
1 1:0.9826189 2:0.72370099 3:0.72163811 
1 1:0.74233321 2:0.56467237 3:0.96300375 
1 1:0.34231375 2:0.038841505 3:0.21808626 
1 1:0.45888846 2:0.4009436 3:0.92899006 
1 1:0.80886959 2:0.0085244849 3:0.53872086 
1 1:0.53733063 2:0.66365735 3:0.062380204 
1 1:0.98567693 2:0.56774774 3:0.64590481 
1 1:0.38107 2:0.043561705 3:0.46075821 
1 1:0.87745048 2:0.96866377 3:0.56355482 
1 1:0.92951772 2:0.66266002 3:0.67091624 
1 1:0.94596322 2:0.17238379 3:0.75418907 
1 1:0.9430275 2:0.20866411 3:0.70620195 
1 1:0.55088526 2:0.030895402 3:0.17345616 
1 1:0.019351598 2:0.82730148 3:0.6757258 
1 1:0.071931846 2:0.27615791 3:0.39062198 
1 1:0.35328293 2:0.19485184 3:0.10294789 
1 1:0.60725236 2:0.63235687 3:0.018164673 
1 1:0.36627541 2:0.068746719 3:0.42462584 
1 1:0.62465952 2:0.041818825 3:0.75232441 
1 1:0.018683804 2:0.49161083 3:0.81611106 
1 1:0.9778844 2:0.37225656 3:0.48829846 
1 1:0.6183038 2:0.58311574 3:0.040107058 
1 1:0.4835447 2:0.63369924 3:0.08045578 
1 1:0.26589968 2:0.99098119 3:0.42888036 
1 1:0.52927005 2:0.81927948 3:0.94401067 
1 1:0.29059349 2:0.8023337 3:0.095892307 
1 1:0.42126605 2:0.97986143 3:0.29324054 
1 1:0.21094239 2:0.25508729 3:0.078293245 
1 1:0.0057733863 2:0.2254576 3:0.48724932 
1 1:0.057053664 2:0.13049402 3:0.41208014 
1 1:0.76884566 2:0.014811141 3:0.31671423 
1 1:0.25842409 2:0.0673114 3:0.75308368 
1 1:0.17867757 2:0.92728806 3:0.7203426 
1 1:0.6867196 2:0.37140494 3:0.96118158 
1 1:0.94905584 2:0.77776661 3:0.59196183 
1 1:0.43707069 2:0.75029858 3:0.94644416 
1 1:0.35342509 2:0.96139737 3:0.61189275 
1 1:0.43770039 2:0.158544 3:0.093237796 
1 1:0.35591318 2:0.74228218 3:0.96692977 
1 1:0.95049996 2:0.28710885 3:0.25794315 
1 1:0.34252789 2:0.47764135 3:0.94703376 
1 1:0.60058403 2:0.54309249 3:0.060245693 
1 1:0.66553387 2:0.96951991 3:0.67421828 
1 1:0.3770375 2:0.31519036 3:0.94418546 
1 1:0.94847144 2:0.81984332 3:0.2267753 
1 1:1 2:0.55109993 3:0.32119672 
1 1:0.032140866 2:0.55699771 3:0.41028935 
1 1:0.070062746 2:0.37912472 3:0.21264263 
1 1:0.62872801 2:0.99639246 3:0.22788389 
1 1:0.45763382 2:0.9548984 3:0.27047015 
1 1:0.059372922 2:0.73366903 3:0.57777175 
1 1:0.20773151 2:0.35467596 3:0.063588691 
1 1:0.22057349 2:0.013762926 3:0.7339702 
1 1:0.96262588 2:0.47266517 3:0.42056686 
1 1:0.068531499 2:0.58695744 3:0.2580286 
1 1:0.36544009 2:0.69883258 3:0.040592798 
1 1:0.61460893 2:0.63713822 3:0.01770356 
1 1:0.35426441 2:0.95185082 3:0.36924984 
1 1:0.44350926 2:0.63159927 3:0.99795077 
1 1:0.66902212 2:0.43207717 3:0.016121532 
1 1:0.78496363 2:0.56739437 3:0.90909551 
1 1:0.6774844 2:0.54767494 3:0.022736281 
1 1:0.024408977 2:0.80732578 3:0.26421276 
1 1:0.49143796 2:0.10564164 3:0.92004012 
1 1:0.3840005 2:0.19344255 3:0.04965081 
1 1:0.48036277 2:0.20772721 3:0.019912777 
1 1:0.1837635 2:0.045612848 3:0.52050025 
1 1:0.3200338 2:0.94335341 3:0.21793979 
1 1:0.8346503 2:0.93219995 3:0.68225207 
1 1:0.7165088 2:0.42039377 3:0.89818399 
1 1:0.71561662 2:0.79180129 3:0.90322227 
1 1:0.49732275 2:0.76820293 3:0.0034088393 
1 1:0.068007637 2:0.4797502 3:0.24018283 
1 1:0.041290219 2:0.09349338 3:0.45258693 
1 1:0.072799965 2:0.59938166 3:0.39166453 
1 1:0.0090236508 2:0.23418768 3:0.68647584 
1 1:0.37464036 2:0.69465681 3:0.96566876 
1 1:0.7825026 2:0.58821769 3:0.053030755 
1 1:0.029615159 2:0.5946757 3:0.61774013 
1 1:0.6122129 2:0.50458744 3:0.94986725 
1 1:0.93667648 2:0.54370239 3:0.3398278 
1 1:0.95494078 2:0.29212032 3:0.34442109 
1 1:0.71465357 2:0.47515951 3:0.99756941 
1 1:0.78505318 2:0.24370472 3:0.90841856 
1 1:0.95190159 2:0.46300038 3:0.3954268 
1 1:0.57128196 2:0.93308792 3:0.13878021 
1 1:0.00098349804 2:0.77612501 3:0.49954165 
1 1:0.79364128 2:0.051533961 3:0.31193364 
1 1:0.18612518 2:0.5810544 3:0.93124755 
1 1:0.68048397 2:0.61203671 3:0.018974028 
1 1:0.43120489 2:0.84641182 3:0.9008769 
1 1:0.018595044 2:0.41955644 3:0.30125789 
1 1:0.99980488 2:0.49290151 3:0.24730361 
1 1:0.064213028 2:0.49691512 3:0.59628787 
1 1:0.32443834 2:0.94896386 3:0.13584909 
1 1:0.94061362 2:0.90717131 3:0.64693358 
1 1:0.993471 2:0.53398882 3:0.75566223 
1 1:0.25979041 2:0.47189909 3:0.04361515 
1 1:0.64578678 2:0.063562636 3:0.69523507 
1 1:0.3974571 2:0.37081943 3:0.085271992 
1 1:0.047613262 2:0.81918424 3:0.37483186 
1 1:0.045685484 2:0.40084124 3:0.81465339 
1 1:0.059686683 2:0.5638368 3:0.70759626 
1 1:0.6688725 2:0.061587827 3:0.64884323 
1 1:0.30480911 2:0.0046536906 3:0.26075742 
1 1:0.378057 2:0.27938249 3:0.032647798 
1 1:0.89679232 2:0.59049477 3:0.90776625 
1 1:0.6074513 2:0.9290718 3:0.10055704 
1 1:0.96461479 2:0.67632152 3:0.51451833 
1 1:0.038576927 2:0.67541811 3:0.66281656 
1 1:0.39521693 2:0.89931934 3:0.094923817 
1 1:0.35158013 2:0.94856192 3:0.51838113 
1 1:0.043872477 2:0.68890335 3:0.50766062 
1 1:0.7631273 2:0.96057894 3:0.61038205 
1 1:0.49013043 2:0.01772191 3:0.57520658 
1 1:0.32528945 2:0.3998272 3:0.99687342 
1 1:0.94999135 2:0.66439457 3:0.73650473 
1 1:0.43881902 2:0.23487316 3:0.097090688 
1 1:0.41870605 2:0.96808591 3:0.60466913 
1 1:0.45144432 2:0.95160355 3:0.37840834 
1 1:0.57049681 2:0.95774381 3:0.82329824 
1 1:0.94950908 2:0.1213173 3:0.51038329 
1 1:0.27556553 2:0.53206486 3:0.91291971 
1 1:0.99159976 2:0.25367467 3:0.50825966 
1 1:0.39532233 2:0.066832563 3:0.22361206 
1 1:0.11588296 2:0.043280117 3:0.6539104 
1 1:0.58403977 2:0.17624225 3:0.91889019 
1 1:0.037080215 2:0.28515876 3:0.3874732 
1 1:0.72629349 2:0.97876006 3:0.4374999 
1 1:0.56438038 2:0.022384349 3:0.46903305 
1 1:0.28297218 2:0.95446937 3:0.41210188 
1 1:0.94457089 2:0.16163378 3:0.47016462 
1 1:0.73690461 2:0.031606211 3:0.65034611 
1 1:0.35885148 2:0.234312 3:0.076257232 
1 1:0.4612697 2:0.015863277 3:0.71793543 
1 1:0.61982745 2:0.23174861 3:0.89830621 
1 1:0.92368548 2:0.81416692 3:0.28223819 
1 1:0.63838786 2:0.85935669 3:0.92549932 
1 1:0.46371093 2:0.9486168 3:0.22878447 
1 1:0.070811806 2:0.25550791 3:0.28148711 
1 1:0.039583351 2:0.20607204 3:0.24214888 
1 1:0.38273395 2:0.5109337 3:0.097488949 
1 1:0.53165842 2:0.86978197 3:0.047775408 
1 1:0.073406531 2:0.35990351 3:0.47807597 
1 1:0.74560997 2:0.98854298 3:0.23458774 
1 1:0.98069857 2:0.61779006 3:0.66854894 
1 1:0.41549919 2:0.68733726 3:0.94696112 
1 1:0.89076346 2:0.96924261 3:0.59128591 
1 1:0.20319831 2:0.012838077 3:0.51319578 
1 1:0.87065735 2:0.075913844 3:0.32766425 
1 1:0.34006495 2:0.94126879 3:0.37366534 
1 1:0.42567723 2:0.51946195 3:0.93324914 
1 1:0.070928419 2:0.52497906 3:0.54648311 
1 1:0.46797567 2:0.43899485 3:0.93438033 
1 1:0.017704678 2:0.88363487 3:0.39324685 
1 1:0.52147599 2:0.55952326 3:0.067645306 
1 1:0.93439443 2:0.60171592 3:0.49800442 
1 1:0.94324078 2:0.1885976 3:0.78304062 
1 1:0.44951997 2:0.014710312 3:0.81098123 
1 1:0.20664488 2:0.34601578 3:0.95844257 
1 1:0.49871791 2:0.05531634 3:0.80883256 
1 1:0.40941232 2:0.40761592 3:0.070896845 
1 1:0.053479492 2:0.81524935 3:0.31464149 
1 1:0.36792682 2:0.36205896 3:0.97275994 
1 1:0.49913116 2:0.075396391 3:0.43181752 
1 1:0.015699148 2:0.61421606 3:0.572743 
1 1:0.026159829 2:0.22419986 3:0.5544441 
1 1:0.070319927 2:0.32843151 3:0.41792235 
1 1:0.72695416 2:0.94335937 3:0.58685342 
1 1:0.013620577 2:0.6660975 3:0.54272374 
1 1:0.79778373 2:0.94288339 3:0.31016075 
